{"learner":{"attributes":{"scikit_learn":"{\"_estimator_type\": \"regressor\"}"},"feature_names":[],"feature_types":[],"gradient_booster":{"model":{"gbtree_model_param":{"num_parallel_tree":"1","num_trees":"600"},"iteration_indptr":[0,1,2,3,4,5,6,7,8,9,10,11,12,13,14,15,16,17,18,19,20,21,22,23,24,25,26,27,28,29,30,31,32,33,34,35,36,37,38,39,40,41,42,43,44,45,46,47,48,49,50,51,52,53,54,55,56,57,58,59,60,61,62,63,64,65,66,67,68,69,70,71,72,73,74,75,76,77,78,79,80,81,82,83,84,85,86,87,88,89,90,91,92,93,94,95,96,97,98,99,100,101,102,103,104,105,106,107,108,109,110,111,112,113,114,115,116,117,118,119,120,121,122,123,124,125,126,127,128,129,130,131,132,133,134,135,136,137,138,139,140,141,142,143,144,145,146,147,148,149,150,151,152,153,154,155,156,157,158,159,160,161,162,163,164,165,166,167,168,169,170,171,172,173,174,175,176,177,178,179,180,181,182,183,184,185,186,187,188,189,190,191,192,193,194,195,196,197,198,199,200,201,202,203,204,205,206,207,208,209,210,211,212,213,214,215,216,217,218,219,220,221,222,223,224,225,226,227,228,229,230,231,232,233,234,235,236,237,238,239,240,241,242,243,244,245,246,247,248,249,250,251,252,253,254,255,256,257,258,259,260,261,262,263,264,265,266,267,268,269,270,271,272,273,274,275,276,277,278,279,280,281,282,283,284,285,286,287,288,289,290,291,292,293,294,295,296,297,298,299,300,301,302,303,304,305,306,307,308,309,310,311,312,313,314,315,316,317,318,319,320,321,322,323,324,325,326,327,328,329,330,331,332,333,334,335,336,337,338,339,340,341,342,343,344,345,346,347,348,349,350,351,352,353,354,355,356,357,358,359,360,361,362,363,364,365,366,367,368,369,370,371,372,373,374,375,376,377,378,379,380,381,382,383,384,385,386,387,388,389,390,391,392,393,394,395,396,397,398,399,400,401,402,403,404,405,406,407,408,409,410,411,412,413,414,415,416,417,418,419,420,421,422,423,424,425,426,427,428,429,430,431,432,433,434,435,436,437,438,439,440,441,442,443,444,445,446,447,448,449,450,451,452,453,454,455,456,457,458,459,460,461,462,463,464,465,466,467,468,469,470,471,472,473,474,475,476,477,478,479,480,481,482,483,484,485,486,487,488,489,490,491,492,493,494,495,496,497,498,499,500,501,502,503,504,505,506,507,508,509,510,511,512,513,514,515,516,517,518,519,520,521,522,523,524,525,526,527,528,529,530,531,532,533,534,535,536,537,538,539,540,541,542,543,544,545,546,547,548,549,550,551,552,553,554,555,556,557,558,559,560,561,562,563,564,565,566,567,568,569,570,571,572,573,574,575,576,577,578,579,580,581,582,583,584,585,586,587,588,589,590,591,592,593,594,595,596,597,598,599,600],"tree_info":[0,0,0,0,0,0,0,0,0,0,0,0,0,0,0,0,0,0,0,0,0,0,0,0,0,0,0,0,0,0,0,0,0,0,0,0,0,0,0,0,0,0,0,0,0,0,0,0,0,0,0,0,0,0,0,0,0,0,0,0,0,0,0,0,0,0,0,0,0,0,0,0,0,0,0,0,0,0,0,0,0,0,0,0,0,0,0,0,0,0,0,0,0,0,0,0,0,0,0,0,0,0,0,0,0,0,0,0,0,0,0,0,0,0,0,0,0,0,0,0,0,0,0,0,0,0,0,0,0,0,0,0,0,0,0,0,0,0,0,0,0,0,0,0,0,0,0,0,0,0,0,0,0,0,0,0,0,0,0,0,0,0,0,0,0,0,0,0,0,0,0,0,0,0,0,0,0,0,0,0,0,0,0,0,0,0,0,0,0,0,0,0,0,0,0,0,0,0,0,0,0,0,0,0,0,0,0,0,0,0,0,0,0,0,0,0,0,0,0,0,0,0,0,0,0,0,0,0,0,0,0,0,0,0,0,0,0,0,0,0,0,0,0,0,0,0,0,0,0,0,0,0,0,0,0,0,0,0,0,0,0,0,0,0,0,0,0,0,0,0,0,0,0,0,0,0,0,0,0,0,0,0,0,0,0,0,0,0,0,0,0,0,0,0,0,0,0,0,0,0,0,0,0,0,0,0,0,0,0,0,0,0,0,0,0,0,0,0,0,0,0,0,0,0,0,0,0,0,0,0,0,0,0,0,0,0,0,0,0,0,0,0,0,0,0,0,0,0,0,0,0,0,0,0,0,0,0,0,0,0,0,0,0,0,0,0,0,0,0,0,0,0,0,0,0,0,0,0,0,0,0,0,0,0,0,0,0,0,0,0,0,0,0,0,0,0,0,0,0,0,0,0,0,0,0,0,0,0,0,0,0,0,0,0,0,0,0,0,0,0,0,0,0,0,0,0,0,0,0,0,0,0,0,0,0,0,0,0,0,0,0,0,0,0,0,0,0,0,0,0,0,0,0,0,0,0,0,0,0,0,0,0,0,0,0,0,0,0,0,0,0,0,0,0,0,0,0,0,0,0,0,0,0,0,0,0,0,0,0,0,0,0,0,0,0,0,0,0,0,0,0,0,0,0,0,0,0,0,0,0,0,0,0,0,0,0,0,0,0,0,0,0,0,0,0,0,0,0,0,0,0,0,0,0,0,0,0,0,0,0,0,0,0,0,0,0,0,0,0,0,0,0,0,0,0,0,0,0,0,0,0,0,0,0,0,0,0,0,0,0,0,0,0,0,0,0,0,0,0,0,0,0,0,0,0,0,0,0,0,0,0,0,0,0,0,0,0,0,0,0],"trees":[{"base_weights":[-2.1463485E0,-9.855322E3,9.719925E3,-1.5675374E4,-5.907656E3,7.7039E3,4.403635E4,-1.7305951E4,-1.3517577E4,-8.251101E3,-3.6001582E3,5.0859883E3,1.6803777E4,3.4342383E3,3.2795047E4,-9.180195E2,-7.951344E2,-1.5376381E2,-6.811169E2,-4.860313E2,-3.5041882E2,-2.2052876E2,-9.498068E1,1.13199196E2,3.757325E2,6.674718E2,1.031141E3,1.6892604E3,4.8256955E2],"categories":[],"categories_nodes":[],"categories_segments":[],"categories_sizes":[],"default_left":[0,0,0,0,0,0,0,0,0,0,0,0,0,0,0,0,0,0,0,0,0,0,0,0,0,0,0,0,0],"id":0,"left_children":[1,3,5,7,9,11,13,15,17,19,21,23,25,-1,27,-1,-1,-1,-1,-1,-1,-1,-1,-1,-1,-1,-1,-1,-1],"loss_changes":[1.8593474E11,2.2055895E10,6.7252322E10,1.1347395E9,3.085009E9,2.192669E10,1.2709814E10,3.0584832E7,1.4626406E8,4.5234586E8,3.9404134E8,4.9107927E9,2.4423014E9,0E0,5.6764826E8,0E0,0E0,0E0,0E0,0E0,0E0,0E0,0E0,0E0,0E0,0E0,0E0,0E0,0E0],"parents":[2147483647,0,0,1,1,2,2,3,3,4,4,5,5,6,6,7,7,8,8,9,9,10,10,11,11,12,12,14,14],"right_children":[2,4,6,8,10,12,14,16,18,20,22,24,26,-1,28,-1,-1,-1,-1,-1,-1,-1,-1,-1,-1,-1,-1,-1,-1],"split_conditions":[-2.3335839E-2,-8.785016E-1,2.2394478E0,-1.1628321E0,-4.6075693E-1,8.7723696E-1,-7.794067E-2,-1.2947327E0,-1.2720293E0,-6.438986E-1,-2.1934286E-1,3.3992043E-1,1.3691465E0,3.4342383E3,1.7890031E0,-9.180195E2,-7.951344E2,-1.5376381E2,-6.811169E2,-4.860313E2,-3.5041882E2,-2.2052876E2,-9.498068E1,1.13199196E2,3.757325E2,6.674718E2,1.031141E3,1.6892604E3,4.8256955E2],"split_indices":[7,7,7,11,7,7,20,7,7,7,7,7,7,0,10,0,0,0,0,0,0,0,0,0,0,0,0,0,0],"split_type":[0,0,0,0,0,0,0,0,0,0,0,0,0,0,0,0,0,0,0,0,0,0,0,0,0,0,0,0,0],"sum_hessian":[1.939E3,9.63E2,9.76E2,3.88E2,5.75E2,9.23E2,5.3E1,2.17E2,1.71E2,2.84E2,2.91E2,7.18E2,2.05E2,1.5E1,3.8E1,1.17E2,1E2,2E0,1.69E2,1.27E2,1.57E2,1.96E2,9.5E1,3.33E2,3.85E2,1.1E2,9.5E1,3.6E1,2E0],"tree_param":{"num_deleted":"0","num_feature":"29","num_nodes":"29","size_leaf_vector":"1"}},{"base_weights":[-2.5120232E1,-8.913981E3,9.464624E3,-1.4660859E4,-5.3392256E3,6.264974E3,3.0458541E4,-8.1890375E2,-1.2567638E4,-7.686939E3,-3.1930354E3,3.1689116E3,9.919968E3,2.4888605E4,6.1567125E4,-1.6493416E2,-6.437687E2,-4.6811377E2,-3.4115036E2,-2.1875496E2,-6.4282295E1,1.0567663E2,2.6398254E2,4.178623E2,6.752553E2,1.0295907E3,1.5472908E3,3.375918E3,1.6295131E3],"categories":[],"categories_nodes":[],"categories_segments":[],"categories_sizes":[],"default_left":[0,0,0,0,0,0,0,0,0,0,0,0,0,0,0,0,0,0,0,0,0,0,0,0,0,0,0,0,0],"id":1,"left_children":[1,3,5,7,9,11,13,-1,15,17,19,21,23,25,27,-1,-1,-1,-1,-1,-1,-1,-1,-1,-1,-1,-1,-1,-1],"loss_changes":[1.6254829E11,2.036269E10,6.2414578E10,1.1636736E9,3.07422E9,9.134598E9,1.978024E10,0E0,4.5954867E8,3.6020224E8,7.226291E8,9.689989E8,1.9656909E9,2.1215805E9,9.0361856E8,0E0,0E0,0E0,0E0,0E0,0E0,0E0,0E0,0E0,0E0,0E0,0E0,0E0,0E0],"parents":[2147483647,0,0,1,1,2,2,3,3,4,4,5,5,6,6,8,8,9,9,10,10,11,11,12,12,13,13,14,14],"right_children":[2,4,6,8,10,12,14,-1,16,18,20,22,24,26,28,-1,-1,-1,-1,-1,-1,-1,-1,-1,-1,-1,-1,-1,-1],"split_conditions":[1.1476221E-2,-8.785016E-1,1.4902319E0,-1.1628321E0,-4.6075693E-1,5.139807E-1,3.2611063E0,-8.1890375E2,-1.3907015E0,-6.8779206E-1,-2.1934286E-1,3.3235258E-1,9.075083E-1,2.2394478E0,-6.637252E-2,-1.6493416E2,-6.437687E2,-4.6811377E2,-3.4115036E2,-2.1875496E2,-6.4282295E1,1.0567663E2,2.6398254E2,4.178623E2,6.752553E2,1.0295907E3,1.5472908E3,3.375918E3,1.6295131E3],"split_indices":[7,7,7,11,7,7,7,0,1,7,7,7,7,7,1,0,0,0,0,0,0,0,0,0,0,0,0,0,0],"split_type":[0,0,0,0,0,0,0,0,0,0,0,0,0,0,0,0,0,0,0,0,0,0,0,0,0,0,0,0,0],"sum_hessian":[1.925E3,9.94E2,9.31E2,3.8E2,6.14E2,8.09E2,1.22E2,2.05E2,1.75E2,2.92E2,3.22E2,4.39E2,3.7E2,1.05E2,1.7E1,6E0,1.69E2,9.6E1,1.96E2,1.98E2,1.24E2,2.94E2,1.45E2,2.6E2,1.1E2,6.4E1,4.1E1,1.3E1,4E0],"tree_param":{"num_deleted":"0","num_feature":"29","num_nodes":"29","size_leaf_vector":"1"}},{"base_weights":[6.297613E1,-8.69093E3,8.307662E3,-1.3580799E4,-4.908519E3,5.3472417E3,2.4913895E4,-1.5377335E4,-1.1162564E4,-6.780974E3,-3.094822E3,2.3026196E3,8.20907E3,2.0696176E4,5.4225402E4,-8.176461E2,-7.0606354E2,-5.6522186E2,3.3807843E2,3.8557843E2,-3.4340247E2,-1.250944E1,-1.8990825E2,-9.547456E0,1.439611E2,3.25369E2,5.36924E2,9.3456964E2,1.3863015E3,3.0311328E3,1.5663558E3],"categories":[],"categories_nodes":[],"categories_segments":[],"categories_sizes":[],"default_left":[0,0,0,0,0,0,0,0,0,0,0,0,0,0,0,0,0,0,0,0,0,0,0,0,0,0,0,0,0,0,0],"id":2,"left_children":[1,3,5,7,9,11,13,15,17,19,21,23,25,27,29,-1,-1,-1,-1,-1,-1,-1,-1,-1,-1,-1,-1,-1,-1,-1,-1],"loss_changes":[1.3734562E11,1.7004683E10,4.804498E10,1.5748219E9,1.7517609E9,7.2391844E9,1.7174634E10,4.846797E7,5.2144742E8,3.7601997E8,5.3325056E8,5.82858E8,1.7766543E9,1.3279887E9,7.376159E8,0E0,0E0,0E0,0E0,0E0,0E0,0E0,0E0,0E0,0E0,0E0,0E0,0E0,0E0,0E0,0E0],"parents":[2147483647,0,0,1,1,2,2,3,3,4,4,5,5,6,6,7,7,8,8,9,9,10,10,11,11,12,12,13,13,14,14],"right_children":[2,4,6,8,10,12,14,16,18,20,22,24,26,28,30,-1,-1,-1,-1,-1,-1,-1,-1,-1,-1,-1,-1,-1,-1,-1,-1],"split_conditions":[-5.2334625E-2,-7.9417026E-1,1.2441446E0,-1.1045065E0,-4.6732682E-1,4.1801184E-1,3.5142212E0,-1.3003925E0,2.3076138E-1,-1.0821596E0,-5.1931506E-1,-1.1120049E0,7.2009444E-1,2.3395379E0,-4.3116778E-2,-8.176461E2,-7.0606354E2,-5.6522186E2,3.3807843E2,3.8557843E2,-3.4340247E2,-1.250944E1,-1.8990825E2,-9.547456E0,1.439611E2,3.25369E2,5.36924E2,9.3456964E2,1.3863015E3,3.0311328E3,1.5663558E3],"split_indices":[11,11,11,11,11,11,11,11,15,9,9,6,11,11,1,0,0,0,0,0,0,0,0,0,0,0,0,0,0,0,0],"split_type":[0,0,0,0,0,0,0,0,0,0,0,0,0,0,0,0,0,0,0,0,0,0,0,0,0,0,0,0,0,0,0],"sum_hessian":[1.901E3,9.22E2,9.79E2,4.01E2,5.21E2,8.32E2,1.47E2,2.27E2,1.74E2,2.55E2,2.66E2,4.04E2,4.28E2,1.3E2,1.7E1,1.21E2,1.06E2,1.73E2,1E0,1E0,2.54E2,5.3E1,2.13E2,7.6E1,3.28E2,2.58E2,1.7E2,1.04E2,2.6E1,1.2E1,5E0],"tree_param":{"num_deleted":"0","num_feature":"29","num_nodes":"31","size_leaf_vector":"1"}},{"base_weights":[1.6038893E2,-8.211807E3,8.338113E3,-1.25967295E4,-4.472298E3,5.571874E3,2.7813918E4,-1.5080335E4,-1.0754912E4,-6.2647217E3,-2.9703147E3,2.9248364E3,9.083953E3,2.2332553E4,5.664178E4,-7.57049E2,-9.500391E1,-5.529107E2,-2.728684E2,-2.813719E2,-3.704244E2,-1.921604E2,-7.860525E1,9.15997E1,2.5175081E2,3.7423657E2,6.0797675E2,9.49185E2,1.3756542E3,3.0031814E3,1.4396985E3],"categories":[],"categories_nodes":[],"categories_segments":[],"categories_sizes":[],"default_left":[0,0,0,0,0,0,0,0,0,0,0,0,0,0,0,0,0,0,0,0,0,0,0,0,0,0,0,0,0,0,0],"id":3,"left_children":[1,3,5,7,9,11,13,15,17,19,21,23,25,27,29,-1,-1,-1,-1,-1,-1,-1,-1,-1,-1,-1,-1,-1,-1,-1,-1],"loss_changes":[1.3412393E11,1.5816401E10,5.3234893E10,1.8733957E9,1.3921004E9,8.052181E9,1.8171011E10,1.2070502E8,3.558011E8,1.317888E8,3.4423808E8,1.1369044E9,1.7436017E9,1.2993249E9,8.105984E7,0E0,0E0,0E0,0E0,0E0,0E0,0E0,0E0,0E0,0E0,0E0,0E0,0E0,0E0,0E0,0E0],"parents":[2147483647,0,0,1,1,2,2,3,3,4,4,5,5,6,6,7,7,8,8,9,9,10,10,11,11,12,12,13,13,14,14],"right_children":[2,4,6,8,10,12,14,16,18,20,22,24,26,28,30,-1,-1,-1,-1,-1,-1,-1,-1,-1,-1,-1,-1,-1,-1,-1,-1],"split_conditions":[-2.3335839E-2,-7.384966E-1,1.4902319E0,-1.1736473E0,-4.5470265E-1,5.4122496E-1,3.2611063E0,-9.42272E-1,2.656399E-1,-7.227803E-2,-2.3447853E-1,3.3235258E-1,9.075083E-1,2.2394478E0,-4.3116778E-2,-7.57049E2,-9.500391E1,-5.529107E2,-2.728684E2,-2.813719E2,-3.704244E2,-1.921604E2,-7.860525E1,9.15997E1,2.5175081E2,3.7423657E2,6.0797675E2,9.49185E2,1.3756542E3,3.0031814E3,1.4396985E3],"split_indices":[7,7,7,7,7,7,7,8,15,10,7,7,7,7,1,0,0,0,0,0,0,0,0,0,0,0,0,0,0,0,0],"split_type":[0,0,0,0,0,0,0,0,0,0,0,0,0,0,0,0,0,0,0,0,0,0,0,0,0,0,0,0,0,0,0],"sum_hessian":[1.957E3,9.67E2,9.9E2,4.44E2,5.23E2,8.68E2,1.22E2,1.86E2,2.58E2,2.37E2,2.86E2,4.96E2,3.72E2,1.04E2,1.8E1,1.85E2,1E0,2.43E2,1.5E1,1.56E2,8.1E1,1.75E2,1.11E2,3.28E2,1.68E2,2.47E2,1.25E2,6.6E1,3.8E1,1.5E1,3E0],"tree_param":{"num_deleted":"0","num_feature":"29","num_nodes":"31","size_leaf_vector":"1"}},{"base_weights":[-3.7996098E1,-7.839106E3,7.447318E3,-1.2413194E4,-4.6059253E3,5.040094E3,2.402647E4,-1.3807635E4,-1.0096188E4,-5.9138516E3,-2.1281372E3,2.8314087E3,8.570785E3,1.9114605E4,4.744167E4,-7.4674805E2,-6.4095844E2,-5.126608E2,3.3644815E2,-3.516053E2,-2.3908446E2,2.6870218E2,-1.3042271E2,9.521476E1,2.3748274E2,7.393985E1,4.596876E2,1.0209274E3,6.0689453E2,2.868952E3,1.5386332E3],"categories":[],"categories_nodes":[],"categories_segments":[],"categories_sizes":[],"default_left":[0,0,0,0,0,0,0,0,0,0,0,0,0,0,0,0,0,0,0,0,0,0,0,0,0,0,0,0,0,0,0],"id":4,"left_children":[1,3,5,7,9,11,13,15,17,19,21,23,25,27,29,-1,-1,-1,-1,-1,-1,-1,-1,-1,-1,-1,-1,-1,-1,-1,-1],"loss_changes":[1.13050305E11,1.3962658E10,3.9309713E10,1.1271168E9,1.7925192E9,6.7133686E9,1.3469712E10,7.821312E7,4.6793728E8,4.2721587E8,7.130825E8,9.388595E8,1.4532035E9,7.07371E8,1.7128653E9,0E0,0E0,0E0,0E0,0E0,0E0,0E0,0E0,0E0,0E0,0E0,0E0,0E0,0E0,0E0,0E0],"parents":[2147483647,0,0,1,1,2,2,3,3,4,4,5,5,6,6,7,7,8,8,9,9,10,10,11,11,12,12,13,13,14,14],"right_children":[2,4,6,8,10,12,14,16,18,20,22,24,26,28,30,-1,-1,-1,-1,-1,-1,-1,-1,-1,-1,-1,-1,-1,-1,-1,-1],"split_conditions":[-4.0779553E-2,-8.499648E-1,1.4959351E0,-1.0798557E0,-3.700441E-1,5.680077E-1,2.9778457E0,-1.3367084E0,1.5566774E-1,-2.3123393E-2,-5.568557E-1,3.4482974E-1,-1.0973736E0,1.9055942E0,-6.637252E-2,-7.4674805E2,-6.4095844E2,-5.126608E2,3.3644815E2,-3.516053E2,-2.3908446E2,2.6870218E2,-1.3042271E2,9.521476E1,2.3748274E2,7.393985E1,4.596876E2,1.0209274E3,6.0689453E2,2.868952E3,1.5386332E3],"split_indices":[11,11,11,11,11,11,11,11,15,27,8,11,6,9,1,0,0,0,0,0,0,0,0,0,0,0,0,0,0,0,0],"split_type":[0,0,0,0,0,0,0,0,0,0,0,0,0,0,0,0,0,0,0,0,0,0,0,0,0,0,0,0,0,0,0],"sum_hessian":[1.934E3,9.47E2,9.87E2,3.91E2,5.56E2,8.63E2,1.24E2,2.41E2,1.5E2,3.63E2,1.93E2,5.32E2,3.31E2,1.04E2,2E1,1.06E2,1.35E2,1.49E2,1E0,1.8E2,1.83E2,1.1E1,1.82E2,3.6E2,1.72E2,2.7E1,3.04E2,8.6E1,1.8E1,1.1E1,9E0],"tree_param":{"num_deleted":"0","num_feature":"29","num_nodes":"31","size_leaf_vector":"1"}},{"base_weights":[5.537719E1,-7.5266846E3,7.5604077E3,-1.2085195E4,-4.544361E3,5.0854067E3,2.5529025E4,-1.3664762E4,-1.0476055E4,-6.1544316E3,-2.851996E3,3.2467637E3,9.461048E3,2.1412332E4,5.069196E4,-6.899332E2,-2.9619455E2,-5.2884784E2,-2.4636848E1,-3.7340854E2,-2.7285696E2,-1.8393846E2,-7.622033E1,8.548915E1,2.4462854E2,3.7682428E2,5.6342096E2,8.501623E2,1.3007151E3,2.7408865E3,1.230511E3],"categories":[],"categories_nodes":[],"categories_segments":[],"categories_sizes":[],"default_left":[0,0,0,0,0,0,0,0,0,0,0,0,0,0,0,0,0,0,0,0,0,0,0,0,0,0,0,0,0,0,0],"id":5,"left_children":[1,3,5,7,9,11,13,15,17,19,21,23,25,27,29,-1,-1,-1,-1,-1,-1,-1,-1,-1,-1,-1,-1,-1,-1,-1,-1],"loss_changes":[1.1153107E11,1.3200159E10,4.367544E10,8.3542426E8,1.5928197E9,6.944508E9,1.1241538E10,1.1623219E8,1.9121562E8,2.3589683E8,3.127004E8,1.539734E9,8.05546E8,1.667883E9,3.726418E8,0E0,0E0,0E0,0E0,0E0,0E0,0E0,0E0,0E0,0E0,0E0,0E0,0E0,0E0,0E0,0E0],"parents":[2147483647,0,0,1,1,2,2,3,3,4,4,5,5,6,6,7,7,8,8,9,9,10,10,11,11,12,12,13,13,14,14],"right_children":[2,4,6,8,10,12,14,16,18,20,22,24,26,28,30,-1,-1,-1,-1,-1,-1,-1,-1,-1,-1,-1,-1,-1,-1,-1,-1],"split_conditions":[-2.3335839E-2,-8.785016E-1,1.4902319E0,-1.1660795E0,-4.6075693E-1,6.3506615E-1,3.2611063E0,-8.742574E-1,2.3076138E-1,-6.8779206E-1,-2.4961421E-1,3.2478476E-1,9.075083E-1,2.116849E0,-4.3116778E-2,-6.899332E2,-2.9619455E2,-5.2884784E2,-2.4636848E1,-3.7340854E2,-2.7285696E2,-1.8393846E2,-7.622033E1,8.548915E1,2.4462854E2,3.7682428E2,5.6342096E2,8.501623E2,1.3007151E3,2.7408865E3,1.230511E3],"split_indices":[7,7,7,7,7,7,7,8,15,7,7,7,7,7,1,0,0,0,0,0,0,0,0,0,0,0,0,0,0,0,0],"split_type":[0,0,0,0,0,0,0,0,0,0,0,0,0,0,0,0,0,0,0,0,0,0,0,0,0,0,0,0,0,0,0],"sum_hessian":[1.958E3,9.74E2,9.84E2,3.84E2,5.9E2,8.66E2,1.18E2,1.9E2,1.94E2,3.01E2,2.89E2,6.11E2,2.55E2,1.03E2,1.5E1,1.86E2,4E0,1.92E2,2E0,1.01E2,2E2,1.77E2,1.12E2,3.17E2,2.94E2,1.26E2,1.29E2,5.5E1,4.8E1,1.2E1,3E0],"tree_param":{"num_deleted":"0","num_feature":"29","num_nodes":"31","size_leaf_vector":"1"}},{"base_weights":[2.9461458E1,-7.0379663E3,7.1631846E3,-1.1279091E4,-4.107161E3,5.2045605E3,2.6734627E4,-1.3052437E4,-9.60546E3,-5.813195E3,-2.5075688E3,3.1473716E3,1.0069297E4,2.1790707E4,2.2905068E3,-6.5532294E2,-7.2407425E1,-4.909934E2,1.8653784E2,-3.5841217E2,-2.6419626E2,2.8823257E2,-1.3198619E2,8.0638725E1,2.3978812E2,4.2793735E2,6.9368304E2,9.292734E2,1.3162855E3],"categories":[],"categories_nodes":[],"categories_segments":[],"categories_sizes":[],"default_left":[0,0,0,0,0,0,0,0,0,0,0,0,0,0,0,0,0,0,0,0,0,0,0,0,0,0,0,0,0],"id":6,"left_children":[1,3,5,7,9,11,13,15,17,19,21,23,25,27,-1,-1,-1,-1,-1,-1,-1,-1,-1,-1,-1,-1,-1,-1,-1],"loss_changes":[9.7153696E10,1.1985822E10,3.6622295E10,1.046954E9,1.5518454E9,8.705014E9,7.2065434E9,9.950003E7,6.2853325E8,1.6078336E8,3.409948E8,1.5479793E9,1.3696492E9,5.42763E8,0E0,0E0,0E0,0E0,0E0,0E0,0E0,0E0,0E0,0E0,0E0,0E0,0E0,0E0,0E0],"parents":[2147483647,0,0,1,1,2,2,3,3,4,4,5,5,6,6,7,7,8,8,9,9,10,10,11,11,12,12,13,13],"right_children":[2,4,6,8,10,12,14,16,18,20,22,24,26,28,-1,-1,-1,-1,-1,-1,-1,-1,-1,-1,-1,-1,-1,-1,-1],"split_conditions":[-9.713728E-3,-8.3612174E-1,1.6915364E0,-1.1827288E0,-4.5470265E-1,6.653375E-1,3.2611063E0,-8.742574E-1,1.5566774E-1,-6.8779206E-1,-1.6826061E0,3.3235258E-1,1.2631967E0,2.5118902E0,2.2905068E3,-6.5532294E2,-7.2407425E1,-4.909934E2,1.8653784E2,-3.5841217E2,-2.6419626E2,2.8823257E2,-1.3198619E2,8.0638725E1,2.3978812E2,4.2793735E2,6.9368304E2,9.292734E2,1.3162855E3],"split_indices":[7,7,7,7,7,7,7,8,15,7,26,7,7,7,0,0,0,0,0,0,0,0,0,0,0,0,0,0,0],"split_type":[0,0,0,0,0,0,0,0,0,0,0,0,0,0,0,0,0,0,0,0,0,0,0,0,0,0,0,0,0],"sum_hessian":[1.925E3,9.67E2,9.58E2,3.94E2,5.73E2,8.72E2,8.6E1,1.88E2,2.06E2,2.76E2,2.97E2,6.14E2,2.58E2,7E1,1.6E1,1.87E2,1E0,2.03E2,3E0,7.4E1,2.02E2,4E0,2.93E2,3.19E2,2.95E2,1.87E2,7.1E1,4.4E1,2.6E1],"tree_param":{"num_deleted":"0","num_feature":"29","num_nodes":"29","size_leaf_vector":"1"}},{"base_weights":[-4.559814E1,-6.8003613E3,6.778849E3,-1.0949755E4,-4.0272502E3,4.3040737E3,2.0829783E4,-1.1071124E4,3.5908525E3,-5.6340303E3,-2.4606055E3,2.2389932E3,6.931879E3,1.6787723E4,3.9560164E4,-6.3226166E2,-4.963978E2,4.8541666E2,-3.6903976E2,-3.4165744E2,-2.488361E2,-1.5957169E2,-5.364793E1,4.1285107E1,1.519171E2,2.8035056E2,4.326967E2,7.330358E2,1.0797601E3,2.3766238E3,1.3481229E3],"categories":[],"categories_nodes":[],"categories_segments":[],"categories_sizes":[],"default_left":[0,0,0,0,0,0,0,0,0,0,0,0,0,0,0,0,0,0,0,0,0,0,0,0,0,0,0,0,0,0,0],"id":7,"left_children":[1,3,5,7,9,11,13,15,17,19,21,23,25,27,29,-1,-1,-1,-1,-1,-1,-1,-1,-1,-1,-1,-1,-1,-1,-1,-1],"loss_changes":[8.989017E10,1.1232494E10,3.3640059E10,7.315456E8,1.468801E9,4.4668744E9,1.0313728E10,5.744558E8,3.4013056E8,1.9456717E8,3.008151E8,5.2167782E8,7.796613E8,9.2068864E8,1.2292301E9,0E0,0E0,0E0,0E0,0E0,0E0,0E0,0E0,0E0,0E0,0E0,0E0,0E0,0E0,0E0,0E0],"parents":[2147483647,0,0,1,1,2,2,3,3,4,4,5,5,6,6,7,7,8,8,9,9,10,10,11,11,12,12,13,13,14,14],"right_children":[2,4,6,8,10,12,14,16,18,20,22,24,26,28,30,-1,-1,-1,-1,-1,-1,-1,-1,-1,-1,-1,-1,-1,-1,-1,-1],"split_conditions":[-9.713728E-3,-8.785016E-1,1.3691465E0,1.5566774E-1,-4.6075693E-1,4.9560767E-1,2.887255E0,-1.23419E0,-1.3907015E0,-6.8779206E-1,-2.1934286E-1,1.8856364E-1,7.619816E-1,2.116849E0,-1.3644754E0,-6.3226166E2,-4.963978E2,4.8541666E2,-3.6903976E2,-3.4165744E2,-2.488361E2,-1.5957169E2,-5.364793E1,4.1285107E1,1.519171E2,2.8035056E2,4.326967E2,7.330358E2,1.0797601E3,2.3766238E3,1.3481229E3],"split_indices":[7,7,7,15,7,7,7,7,1,7,7,7,7,7,14,0,0,0,0,0,0,0,0,0,0,0,0,0,0,0,0],"split_type":[0,0,0,0,0,0,0,0,0,0,0,0,0,0,0,0,0,0,0,0,0,0,0,0,0,0,0,0,0,0,0],"sum_hessian":[1.948E3,9.79E2,9.69E2,3.91E2,5.88E2,8.25E2,1.44E2,3.88E2,3E0,2.89E2,2.99E2,4.63E2,3.62E2,1.2E2,2.4E1,1.59E2,2.29E2,2E0,1E0,9.9E1,1.9E2,1.95E2,1.04E2,1.68E2,2.95E2,2.07E2,1.55E2,8.6E1,3.4E1,1.3E1,1.1E1],"tree_param":{"num_deleted":"0","num_feature":"29","num_nodes":"31","size_leaf_vector":"1"}},{"base_weights":[-1.7925295E1,-6.349803E3,6.210276E3,-1.0302267E4,-3.8687874E3,4.001482E3,1.9278008E4,4.756083E3,-1.0438318E4,-4.946925E3,-1.9552773E3,1.9651996E3,6.4570283E3,1.5868699E4,3.60793E4,-2.282458E2,4.6923608E2,-5.991251E2,-4.6760287E2,-3.281958E2,-2.1787675E2,-1.3052309E2,-5.4206543E1,3.880955E1,1.3898947E2,2.8439233E2,4.5453043E2,8.2143475E2,2.2809029E2,2.2196357E3,1.3134772E3],"categories":[],"categories_nodes":[],"categories_segments":[],"categories_sizes":[],"default_left":[0,0,0,0,0,0,0,0,0,0,0,0,0,0,0,0,0,0,0,0,0,0,0,0,0,0,0,0,0,0,0],"id":8,"left_children":[1,3,5,7,9,11,13,15,17,19,21,23,25,27,29,-1,-1,-1,-1,-1,-1,-1,-1,-1,-1,-1,-1,-1,-1,-1,-1],"loss_changes":[7.642736E10,9.38383E9,2.8122915E10,8.0766976E8,1.2116398E9,4.1724652E9,7.5040604E9,2.154146E8,5.0354176E8,3.3164595E8,1.1988365E8,4.4240858E8,7.160351E8,6.785413E8,7.095337E8,0E0,0E0,0E0,0E0,0E0,0E0,0E0,0E0,0E0,0E0,0E0,0E0,0E0,0E0,0E0,0E0],"parents":[2147483647,0,0,1,1,2,2,3,3,4,4,5,5,6,6,7,7,8,8,9,9,10,10,11,11,12,12,13,13,14,14],"right_children":[2,4,6,8,10,12,14,16,18,20,22,24,26,28,30,-1,-1,-1,-1,-1,-1,-1,-1,-1,-1,-1,-1,-1,-1,-1,-1],"split_conditions":[-2.3335839E-2,-8.785016E-1,1.3691465E0,-1.3907015E0,-3.714564E-1,4.9560767E-1,2.887255E0,-1.0312719E-1,-1.2701292E0,-6.8779206E-1,-2.125318E-1,1.9613148E-1,9.4875306E-1,1.6942853E0,-6.637252E-2,-2.282458E2,4.6923608E2,-5.991251E2,-4.6760287E2,-3.281958E2,-2.1787675E2,-1.3052309E2,-5.4206543E1,3.880955E1,1.3898947E2,2.8439233E2,4.5453043E2,8.2143475E2,2.2809029E2,2.2196357E3,1.3134772E3],"split_indices":[7,7,7,1,7,7,7,0,11,7,7,7,7,10,1,0,0,0,0,0,0,0,0,0,0,0,0,0,0,0,0],"split_type":[0,0,0,0,0,0,0,0,0,0,0,0,0,0,0,0,0,0,0,0,0,0,0,0,0,0,0,0,0,0,0],"sum_hessian":[1.936E3,9.6E2,9.76E2,3.69E2,5.91E2,8.36E2,1.4E2,3E0,3.66E2,3.77E2,2.14E2,4.58E2,3.78E2,1.18E2,2.2E1,1E0,2E0,1.47E2,2.19E2,9.8E1,2.79E2,1.21E2,9.3E1,1.87E2,2.71E2,2.95E2,8.3E1,1.12E2,6E0,1E1,1.2E1],"tree_param":{"num_deleted":"0","num_feature":"29","num_nodes":"31","size_leaf_vector":"1"}},{"base_weights":[6.153433E1,-6.079253E3,6.151297E3,-9.780476E3,-3.694456E3,3.9217832E3,1.851586E4,-9.895387E3,3.3226865E3,-5.2735366E3,-2.4678472E3,2.0915393E3,6.475844E3,1.4643015E4,3.7754062E4,-5.550762E2,-4.3180246E2,4.5359494E2,-3.4812375E2,-3.1006955E2,-2.2997806E2,-1.2925333E2,2.8342075E2,3.4444386E1,1.4247319E2,2.7346732E2,4.4234055E2,7.571784E2,2.0566333E2,2.2241638E3,1.1942421E3],"categories":[],"categories_nodes":[],"categories_segments":[],"categories_sizes":[],"default_left":[0,0,0,0,0,0,0,0,0,0,0,0,0,0,0,0,0,0,0,0,0,0,0,0,0,0,0,0,0,0,0],"id":9,"left_children":[1,3,5,7,9,11,13,15,17,19,21,23,25,27,29,-1,-1,-1,-1,-1,-1,-1,-1,-1,-1,-1,-1,-1,-1,-1,-1],"loss_changes":[7.180019E10,8.4021617E9,2.6501935E10,5.9600896E8,1.1162071E9,3.8102415E9,1.0399633E10,4.676526E8,2.9968915E8,1.3031526E8,3.293829E8,5.062007E8,7.653673E8,5.91276E8,1.1774177E9,0E0,0E0,0E0,0E0,0E0,0E0,0E0,0E0,0E0,0E0,0E0,0E0,0E0,0E0,0E0,0E0],"parents":[2147483647,0,0,1,1,2,2,3,3,4,4,5,5,6,6,7,7,8,8,9,9,10,10,11,11,12,12,13,13,14,14],"right_children":[2,4,6,8,10,12,14,16,18,20,22,24,26,28,30,-1,-1,-1,-1,-1,-1,-1,-1,-1,-1,-1,-1,-1,-1,-1,-1],"split_conditions":[-2.3335839E-2,-8.785016E-1,1.3691465E0,2.3076138E-1,-5.001097E-1,5.2003497E-1,2.887255E0,-1.2112534E0,-1.3907015E0,-1.0786239E0,1.4089954E0,1.7721188E-1,9.075083E-1,-2.709455E-1,-6.637252E-2,-5.550762E2,-4.3180246E2,4.5359494E2,-3.4812375E2,-3.1006955E2,-2.2997806E2,-1.2925333E2,2.8342075E2,3.4444386E1,1.4247319E2,2.7346732E2,4.4234055E2,7.571784E2,2.0566333E2,2.2241638E3,1.1942421E3],"split_indices":[7,7,7,15,7,7,7,11,1,6,27,7,7,3,1,0,0,0,0,0,0,0,0,0,0,0,0,0,0,0,0],"split_type":[0,0,0,0,0,0,0,0,0,0,0,0,0,0,0,0,0,0,0,0,0,0,0,0,0,0,0,0,0,0,0],"sum_hessian":[1.918E3,9.55E2,9.63E2,3.73E2,5.82E2,8.17E2,1.46E2,3.7E2,3E0,2.53E2,3.29E2,4.77E2,3.4E2,1.23E2,2.3E1,1.85E2,1.85E2,2E0,1E0,1.03E2,1.5E2,3.25E2,4E0,1.68E2,3.09E2,2.41E2,9.9E1,1.17E2,6E0,1.4E1,9E0],"tree_param":{"num_deleted":"0","num_feature":"29","num_nodes":"31","size_leaf_vector":"1"}},{"base_weights":[1.0849762E2,-5.437604E3,6.478647E3,-8.515211E3,-2.4612126E3,5.006776E3,2.8441025E4,-1.0189451E4,-6.885664E3,-3.4304175E3,-3.870018E2,3.0740425E3,9.68801E3,2.1190884E3,2.1277578E4,-5.6570795E2,-4.609554E2,3.2884846E1,-3.5032852E2,2.9163696E2,-1.7626978E2,-1.1211344E2,8.099848E-1,7.895675E1,2.101346E2,3.8085345E2,6.3846356E2,1.0844224E3,1.4161523E2],"categories":[],"categories_nodes":[],"categories_segments":[],"categories_sizes":[],"default_left":[0,0,0,0,0,0,0,0,0,0,0,0,0,0,0,0,0,0,0,0,0,0,0,0,0,0,0,0,0],"id":10,"left_children":[1,3,5,7,9,11,13,15,17,19,21,23,25,-1,27,-1,-1,-1,-1,-1,-1,-1,-1,-1,-1,-1,-1,-1,-1],"loss_changes":[6.7938517E10,9.395689E9,2.8789187E10,1.307607E9,1.05208806E9,7.570184E9,4.6905876E9,1.6526131E8,2.4082637E8,3.346501E8,1.2570813E8,9.989504E8,1.4661079E9,0E0,2.341376E8,0E0,0E0,0E0,0E0,0E0,0E0,0E0,0E0,0E0,0E0,0E0,0E0,0E0,0E0],"parents":[2147483647,0,0,1,1,2,2,3,3,4,4,5,5,6,6,7,7,8,8,9,9,10,10,11,11,12,12,14,14],"right_children":[2,4,6,8,10,12,14,16,18,20,22,24,26,-1,28,-1,-1,-1,-1,-1,-1,-1,-1,-1,-1,-1,-1,-1,-1],"split_conditions":[6.7478225E-2,-6.438986E-1,2.2394478E0,-1.0798557E0,-2.1934286E-1,7.619816E-1,-7.794067E-2,-1.2947327E0,-1.1660795E0,-1.2278006E0,-9.514702E-1,3.3992043E-1,1.2631967E0,2.1190884E3,1.9062729E0,-5.6570795E2,-4.609554E2,3.2884846E1,-3.5032852E2,2.9163696E2,-1.7626978E2,-1.1211344E2,8.099848E-1,7.895675E1,2.101346E2,3.8085345E2,6.3846356E2,1.0844224E3,1.4161523E2],"split_indices":[7,7,7,11,7,7,20,7,7,22,1,7,7,0,10,0,0,0,0,0,0,0,0,0,0,0,0,0,0],"split_type":[0,0,0,0,0,0,0,0,0,0,0,0,0,0,0,0,0,0,0,0,0,0,0,0,0,0,0,0,0],"sum_hessian":[1.921E3,1.027E3,8.94E2,5.04E2,5.23E2,8.39E2,5.5E1,2.46E2,2.58E2,3.56E2,1.67E2,5.95E2,2.44E2,1.7E1,3.8E1,1.09E2,1.37E2,4E0,2.54E2,3E0,3.53E2,2.9E1,1.38E2,2.57E2,3.38E2,1.48E2,9.6E1,3.7E1,1E0],"tree_param":{"num_deleted":"0","num_feature":"29","num_nodes":"29","size_leaf_vector":"1"}},{"base_weights":[2.6933784E1,-5.506066E3,5.700129E3,-8.889614E3,-3.3060293E3,4.287312E3,2.5456361E4,-8.995335E3,3.3498633E3,-4.391783E3,-1.5251763E3,2.5558538E3,8.306924E3,3.9665156E4,1.9343E4,-4.9397012E2,-3.841163E2,4.4376584E2,-3.306624E2,-2.7187177E2,-1.9393079E2,-1.1128855E2,-4.1174694E1,6.3933937E1,1.9311203E2,3.4726663E2,5.665494E2,2.0577327E3,3.5859326E2,5.725246E2,1.0748173E3],"categories":[],"categories_nodes":[],"categories_segments":[],"categories_sizes":[],"default_left":[0,0,0,0,0,0,0,0,0,0,0,0,0,0,0,0,0,0,0,0,0,0,0,0,0,0,0,0,0,0,0],"id":11,"left_children":[1,3,5,7,9,11,13,15,17,19,21,23,25,27,29,-1,-1,-1,-1,-1,-1,-1,-1,-1,-1,-1,-1,-1,-1,-1,-1],"loss_changes":[6.02056E10,7.198669E9,2.6323466E10,5.244293E8,1.1341061E9,6.1381847E9,4.705153E9,3.6404224E8,2.7889747E8,1.753042E8,1.08776E8,1.0295219E9,1.01656576E9,5.760205E8,5.3564006E8,0E0,0E0,0E0,0E0,0E0,0E0,0E0,0E0,0E0,0E0,0E0,0E0,0E0,0E0,0E0,0E0],"parents":[2147483647,0,0,1,1,2,2,3,3,4,4,5,5,6,6,7,7,8,8,9,9,10,10,11,11,12,12,13,13,14,14],"right_children":[2,4,6,8,10,12,14,16,18,20,22,24,26,28,30,-1,-1,-1,-1,-1,-1,-1,-1,-1,-1,-1,-1,-1,-1,-1,-1],"split_conditions":[-9.713728E-3,-8.785016E-1,2.116849E0,1.5566774E-1,-3.714564E-1,7.0014954E-1,-7.794067E-2,-1.0919147E0,-1.3907015E0,-1.0973736E0,-2.1934286E-1,3.3992043E-1,1.2631967E0,-1.2636588E0,1.0963398E0,-4.9397012E2,-3.841163E2,4.4376584E2,-3.306624E2,-2.7187177E2,-1.9393079E2,-1.1128855E2,-4.1174694E1,6.3933937E1,1.9311203E2,3.4726663E2,5.665494E2,2.0577327E3,3.5859326E2,5.725246E2,1.0748173E3],"split_indices":[7,7,7,15,7,7,20,7,1,6,7,7,7,0,5,0,0,0,0,0,0,0,0,0,0,0,0,0,0,0,0],"split_type":[0,0,0,0,0,0,0,0,0,0,0,0,0,0,0,0,0,0,0,0,0,0,0,0,0,0,0,0,0,0,0],"sum_hessian":[1.916E3,9.7E2,9.46E2,3.81E2,5.89E2,8.84E2,6.2E1,3.78E2,3E0,3.65E2,2.24E2,6.19E2,2.65E2,1.7E1,4.5E1,2.22E2,1.56E2,2E0,1E0,1.17E2,2.48E2,1.11E2,1.13E2,3.14E2,3.05E2,1.85E2,8E1,1.6E1,1E0,1.1E1,3.4E1],"tree_param":{"num_deleted":"0","num_feature":"29","num_nodes":"31","size_leaf_vector":"1"}},{"base_weights":[2.2573544E1,-4.688974E3,5.9809443E3,-8.061216E3,-2.3130547E3,4.759078E3,2.5126031E4,-9.061858E3,-6.3833374E3,-3.7298513E3,-6.465895E2,3.0264822E3,9.231754E3,1.8627118E3,1.9037773E4,-5.174736E2,-4.1608737E2,4.195082E1,-3.2812122E2,3.448369E2,-1.8905446E2,-7.6939255E1,3.7208996E0,8.756741E1,2.1412589E2,3.7796313E2,5.6717896E2,6.2310364E2,1.02357355E3],"categories":[],"categories_nodes":[],"categories_segments":[],"categories_sizes":[],"default_left":[0,0,0,0,0,0,0,0,0,0,0,0,0,0,0,0,0,0,0,0,0,0,0,0,0,0,0,0,0],"id":12,"left_children":[1,3,5,7,9,11,13,15,17,19,21,23,25,-1,27,-1,-1,-1,-1,-1,-1,-1,-1,-1,-1,-1,-1,-1,-1],"loss_changes":[5.4293443E10,8.634501E9,1.9857818E10,6.909686E8,1.4968504E9,6.20253E9,3.0565847E9,1.7784832E8,2.2538803E8,2.1283482E8,1.8859542E8,9.230377E8,7.054213E8,0E0,8.42752E7,0E0,0E0,0E0,0E0,0E0,0E0,0E0,0E0,0E0,0E0,0E0,0E0,0E0,0E0],"parents":[2147483647,0,0,1,1,2,2,3,3,4,4,5,5,6,6,7,7,8,8,9,9,10,10,11,11,12,12,14,14],"right_children":[2,4,6,8,10,12,14,16,18,20,22,24,26,-1,28,-1,-1,-1,-1,-1,-1,-1,-1,-1,-1,-1,-1,-1,-1],"split_conditions":[1.2348023E-1,-7.384966E-1,2.2394478E0,-1.0503627E0,-3.1923833E-1,8.4274924E-1,-1.3644754E0,-1.3250041E0,-1.1660795E0,-1.2278006E0,-1.0279814E-1,4.1641164E-1,1.3691465E0,1.8627118E3,1.0808182E0,-5.174736E2,-4.1608737E2,4.195082E1,-3.2812122E2,3.448369E2,-1.8905446E2,-7.6939255E1,3.7208996E0,8.756741E1,2.1412589E2,3.7796313E2,5.6717896E2,6.2310364E2,1.02357355E3],"split_indices":[7,7,7,11,7,7,14,7,7,22,7,7,7,0,5,0,0,0,0,0,0,0,0,0,0,0,0,0,0],"split_type":[0,0,0,0,0,0,0,0,0,0,0,0,0,0,0,0,0,0,0,0,0,0,0,0,0,0,0,0,0],"sum_hessian":[1.932E3,1.079E3,8.53E2,4.45E2,6.34E2,8.03E2,5E1,2.76E2,1.69E2,3.42E2,2.92E2,5.8E2,2.23E2,1.5E1,3.5E1,9.6E1,1.8E2,4E0,1.65E2,1E0,3.41E2,1.3E2,1.62E2,2.89E2,2.91E2,1.27E2,9.6E1,8E0,2.7E1],"tree_param":{"num_deleted":"0","num_feature":"29","num_nodes":"29","size_leaf_vector":"1"}},{"base_weights":[8.929091E1,-4.3802554E3,5.905935E3,-7.5615767E3,-2.0683118E3,4.492387E3,2.227402E4,-8.712633E3,-5.89153E3,-3.1454348E3,-1.6514601E2,3.0944407E3,8.558278E3,1.6825754E4,3.6170645E4,-4.8926392E2,-3.9843716E2,-1.9180132E2,-3.2036075E2,-1.6210187E2,2.6445773E2,-1.0000459E2,1.0229306E1,9.356713E1,2.111121E2,3.488388E2,5.142917E2,8.722301E2,6.578106E1,2.0271439E3,1.0334518E3],"categories":[],"categories_nodes":[],"categories_segments":[],"categories_sizes":[],"default_left":[0,0,0,0,0,0,0,0,0,0,0,0,0,0,0,0,0,0,0,0,0,0,0,0,0,0,0,0,0,0,0],"id":13,"left_children":[1,3,5,7,9,11,13,15,17,19,21,23,25,27,29,-1,-1,-1,-1,-1,-1,-1,-1,-1,-1,-1,-1,-1,-1,-1,-1],"loss_changes":[5.061751E10,8.082254E9,1.9473902E10,8.3870106E8,1.3093944E9,4.406958E9,4.4641403E9,1.3906125E8,1.789399E8,3.495877E8,1.5780693E8,7.9491686E8,4.719319E8,4.569682E8,3.8199706E8,0E0,0E0,0E0,0E0,0E0,0E0,0E0,0E0,0E0,0E0,0E0,0E0,0E0,0E0,0E0,0E0],"parents":[2147483647,0,0,1,1,2,2,3,3,4,4,5,5,6,6,7,7,8,8,9,9,10,10,11,11,12,12,13,13,14,14],"right_children":[2,4,6,8,10,12,14,16,18,20,22,24,26,28,30,-1,-1,-1,-1,-1,-1,-1,-1,-1,-1,-1,-1,-1,-1,-1,-1],"split_conditions":[1.4618374E-1,-7.112524E-1,2.116849E0,-1.0604872E0,-2.1934286E-1,8.7723696E-1,3.2611063E0,-1.3023006E0,-1.0715865E0,1.4089954E0,-1.2166071E0,4.258154E-1,1.2631967E0,1.9062729E0,-9.001482E-1,-4.8926392E2,-3.9843716E2,-1.9180132E2,-3.2036075E2,-1.6210187E2,2.6445773E2,-1.0000459E2,1.0229306E1,9.356713E1,2.111121E2,3.488388E2,5.142917E2,8.722301E2,6.578106E1,2.0271439E3,1.0334518E3],"split_indices":[7,7,7,11,7,7,7,7,18,27,19,7,7,10,2,0,0,0,0,0,0,0,0,0,0,0,0,0,0,0,0],"split_type":[0,0,0,0,0,0,0,0,0,0,0,0,0,0,0,0,0,0,0,0,0,0,0,0,0,0,0,0,0,0,0],"sum_hessian":[1.945E3,1.1E3,8.45E2,4.62E2,6.38E2,7.79E2,6.6E1,2.71E2,1.91E2,4.07E2,2.31E2,5.81E2,1.98E2,4.9E1,1.7E1,1.06E2,1.65E2,4E1,1.51E2,4.03E2,4E0,3.8E1,1.93E2,2.8E2,3.01E2,1.06E2,9.2E1,4.7E1,2E0,1.2E1,5E0],"tree_param":{"num_deleted":"0","num_feature":"29","num_nodes":"31","size_leaf_vector":"1"}},{"base_weights":[1.674181E2,-4.3169146E3,4.9913667E3,-7.355106E3,-2.2641409E3,3.3501704E3,1.5153639E4,-8.486752E3,-6.1353193E3,-3.344667E3,-5.578504E2,5.16956E3,1.7307805E3,1.165317E4,2.938948E4,-4.6238168E2,-3.9017868E2,-3.0983426E2,-3.026237E0,-1.3595012E2,-2.3262434E2,-3.385813E1,4.4473404E2,1.8225368E2,3.5883646E2,-3.981138E1,1.1473031E2,6.3247485E2,3.212638E2,1.8243528E3,1.0015588E3],"categories":[],"categories_nodes":[],"categories_segments":[],"categories_sizes":[],"default_left":[0,0,0,0,0,0,0,0,0,0,0,0,0,0,0,0,0,0,0,0,0,0,0,0,0,0,0,0,0,0,0],"id":14,"left_children":[1,3,5,7,9,11,13,15,17,19,21,23,25,27,29,-1,-1,-1,-1,-1,-1,-1,-1,-1,-1,-1,-1,-1,-1,-1,-1],"loss_changes":[4.2074526E10,6.26996E9,1.5576785E10,5.083607E8,1.1098798E9,2.371664E9,6.1356974E9,3.5956736E7,7.38089E7,2.8928666E8,2.710567E8,1.1366021E9,6.130629E8,4.7084544E8,9.2965274E8,0E0,0E0,0E0,0E0,0E0,0E0,0E0,0E0,0E0,0E0,0E0,0E0,0E0,0E0,0E0,0E0],"parents":[2147483647,0,0,1,1,2,2,3,3,4,4,5,5,6,6,7,7,8,8,9,9,10,10,11,11,12,12,13,13,14,14],"right_children":[2,4,6,8,10,12,14,16,18,20,22,24,26,28,30,-1,-1,-1,-1,-1,-1,-1,-1,-1,-1,-1,-1,-1,-1,-1,-1],"split_conditions":[8.016354E-2,-7.9417026E-1,1.5146433E0,-1.1445642E0,-3.3471859E-1,-7.1973634E-1,2.9778457E0,-1.3598186E0,2.3076138E-1,-7.227803E-2,1.3978176E0,7.3572135E-1,-1.1120049E0,1.9055942E0,-9.001482E-1,-4.6238168E2,-3.9017868E2,-3.0983426E2,-3.026237E0,-1.3595012E2,-2.3262434E2,-3.385813E1,4.4473404E2,1.8225368E2,3.5883646E2,-3.981138E1,1.1473031E2,6.3247485E2,3.212638E2,1.8243528E3,1.0015588E3],"split_indices":[11,11,11,11,11,22,11,11,15,10,5,11,6,9,2,0,0,0,0,0,0,0,0,0,0,0,0,0,0,0,0],"split_type":[0,0,0,0,0,0,0,0,0,0,0,0,0,0,0,0,0,0,0,0,0,0,0,0,0,0,0,0,0,0,0],"sum_hessian":[1.943E3,1.007E3,9.36E2,4.05E2,6.02E2,8.07E2,1.29E2,2.07E2,1.98E2,3.68E2,2.34E2,3.79E2,4.28E2,1.05E2,2.4E1,9.2E1,1.15E2,1.96E2,2E0,2.51E2,1.17E2,2.32E2,2E0,2.17E2,1.62E2,7.8E1,3.5E2,8.7E1,1.8E1,1.2E1,1.2E1],"tree_param":{"num_deleted":"0","num_feature":"29","num_nodes":"31","size_leaf_vector":"1"}},{"base_weights":[1.500417E2,-3.8217622E3,5.3310913E3,-6.6730176E3,-1.7110221E3,3.873574E3,1.9395994E4,-7.378259E3,-4.762512E3,-2.685449E3,-1.529099E2,2.8167476E3,7.6473604E3,1.5206326E4,3.182619E4,-3.7433218E2,1.7988512E2,-2.2454373E2,-3.2637848E2,2.8270114E2,-1.4152386E2,-8.371444E1,1.3788716E1,9.571912E1,1.96373E2,3.9117435E2,-7.4283646E1,6.198929E2,8.8475745E2,1.8009211E3,9.747007E2],"categories":[],"categories_nodes":[],"categories_segments":[],"categories_sizes":[],"default_left":[0,0,0,0,0,0,0,0,0,0,0,0,0,0,0,0,0,0,0,0,0,0,0,0,0,0,0,0,0,0,0],"id":15,"left_children":[1,3,5,7,9,11,13,15,17,19,21,23,25,27,29,-1,-1,-1,-1,-1,-1,-1,-1,-1,-1,-1,-1,-1,-1,-1,-1],"loss_changes":[4.0024228E10,6.6146847E9,1.7226732E10,5.954294E8,9.6217024E8,3.0334474E9,3.6302336E9,4.3140506E8,3.2535552E7,4.876923E8,1.6024856E8,5.938427E8,2.802555E8,2.0699443E8,2.8014387E8,0E0,0E0,0E0,0E0,0E0,0E0,0E0,0E0,0E0,0E0,0E0,0E0,0E0,0E0,0E0,0E0],"parents":[2147483647,0,0,1,1,2,2,3,3,4,4,5,5,6,6,7,7,8,8,9,9,10,10,11,11,12,12,13,13,14,14],"right_children":[2,4,6,8,10,12,14,16,18,20,22,24,26,28,30,-1,-1,-1,-1,-1,-1,-1,-1,-1,-1,-1,-1,-1,-1,-1,-1],"split_conditions":[1.4618374E-1,-6.8779206E-1,1.7868912E0,-9.7688353E-1,-2.1934286E-1,9.075083E-1,3.2611063E0,1.5566774E-1,-9.284364E-3,-6.696293E-1,-3.013989E-1,4.9560767E-1,-4.6321195E-1,2.3529656E0,-9.001482E-1,-3.7433218E2,1.7988512E2,-2.2454373E2,-3.2637848E2,2.8270114E2,-1.4152386E2,-8.371444E1,1.3788716E1,9.571912E1,1.96373E2,3.9117435E2,-7.4283646E1,6.198929E2,8.8475745E2,1.8009211E3,9.747007E2],"split_indices":[7,7,7,7,7,7,7,15,9,7,27,7,2,7,2,0,0,0,0,0,0,0,0,0,0,0,0,0,0,0,0],"split_type":[0,0,0,0,0,0,0,0,0,0,0,0,0,0,0,0,0,0,0,0,0,0,0,0,0,0,0,0,0,0,0],"sum_hessian":[1.943E3,1.1E3,8.43E2,4.67E2,6.33E2,7.65E2,7.8E1,3.39E2,1.28E2,3.89E2,2.44E2,5.99E2,1.66E2,6E1,1.8E1,3.36E2,3E0,1.14E2,1.4E1,6E0,3.83E2,5.3E1,1.91E2,3.32E2,2.67E2,1.63E2,3E0,3.1E1,2.9E1,1.2E1,6E0],"tree_param":{"num_deleted":"0","num_feature":"29","num_nodes":"31","size_leaf_vector":"1"}},{"base_weights":[1.22717674E2,-3.6931025E3,5.1594517E3,-6.923535E3,-1.9936544E3,3.983082E3,2.009178E4,-7.0166045E3,3.462787E3,-3.177147E3,-5.145317E2,2.4557798E3,7.163271E3,1.519996E3,1.5652457E4,-4.222083E2,-3.2155588E2,4.3792267E2,-3.106053E2,3.3925803E2,-1.6097192E2,-6.6985344E1,7.7521143E0,6.862961E1,1.5625488E2,2.8318585E2,4.543194E2,8.1902997E2,1.204935E1],"categories":[],"categories_nodes":[],"categories_segments":[],"categories_sizes":[],"default_left":[0,0,0,0,0,0,0,0,0,0,0,0,0,0,0,0,0,0,0,0,0,0,0,0,0,0,0,0,0],"id":16,"left_children":[1,3,5,7,9,11,13,15,17,19,21,23,25,-1,27,-1,-1,-1,-1,-1,-1,-1,-1,-1,-1,-1,-1,-1,-1],"loss_changes":[3.6785525E10,5.964757E9,1.4411872E10,3.8678938E8,1.2499948E9,3.702954E9,2.2698353E9,2.566185E8,2.5934842E8,1.8910925E8,1.7646029E8,3.7198387E8,6.63723E8,0E0,4.898089E8,0E0,0E0,0E0,0E0,0E0,0E0,0E0,0E0,0E0,0E0,0E0,0E0,0E0,0E0],"parents":[2147483647,0,0,1,1,2,2,3,3,4,4,5,5,6,6,7,7,8,8,9,9,10,10,11,11,12,12,14,14],"right_children":[2,4,6,8,10,12,14,16,18,20,22,24,26,-1,28,-1,-1,-1,-1,-1,-1,-1,-1,-1,-1,-1,-1,-1,-1],"split_conditions":[1.4618374E-1,-8.785016E-1,2.2394478E0,2.3076138E-1,-3.1923833E-1,7.619816E-1,-7.794067E-2,-1.2947327E0,-1.3907015E0,-1.2306641E0,-1.0279814E-1,3.3992043E-1,1.2631967E0,1.519996E3,1.9062729E0,-4.222083E2,-3.2155588E2,4.3792267E2,-3.106053E2,3.3925803E2,-1.6097192E2,-6.6985344E1,7.7521143E0,6.862961E1,1.5625488E2,2.8318585E2,4.543194E2,8.1902997E2,1.204935E1],"split_indices":[7,7,7,15,7,7,20,7,1,22,7,7,7,0,10,0,0,0,0,0,0,0,0,0,0,0,0,0,0],"split_type":[0,0,0,0,0,0,0,0,0,0,0,0,0,0,0,0,0,0,0,0,0,0,0,0,0,0,0,0,0],"sum_hessian":[1.912E3,1.088E3,8.24E2,3.74E2,7.14E2,7.65E2,5.9E1,3.71E2,3E0,3.96E2,3.18E2,5.18E2,2.47E2,1.6E1,4.3E1,1.04E2,2.67E2,2E0,1E0,1E0,3.95E2,1.42E2,1.76E2,1.99E2,3.19E2,1.41E2,1.06E2,4.1E1,2E0],"tree_param":{"num_deleted":"0","num_feature":"29","num_nodes":"29","size_leaf_vector":"1"}},{"base_weights":[4.0730537E1,-3.8880955E3,3.9450864E3,-6.3938926E3,-2.1741846E3,2.6274734E3,1.3113994E4,-7.376935E3,-5.378061E3,-3.341473E3,-1.1523777E3,1.4154315E3,4.486783E3,1.0496722E4,2.7507457E4,-4.009159E2,-3.4042136E2,-2.7151794E2,-1.104349E1,3.4871298E2,-1.703359E2,4.9419735E1,-8.3926765E1,-2.7392374E2,7.608144E1,-2.8951162E1,2.4148033E2,5.5652563E2,1.2849947E2,1.4495103E3,5.2151544E2],"categories":[],"categories_nodes":[],"categories_segments":[],"categories_sizes":[],"default_left":[0,0,0,0,0,0,0,0,0,0,0,0,0,0,0,0,0,0,0,0,0,0,0,0,0,0,0,0,0,0,0],"id":17,"left_children":[1,3,5,7,9,11,13,15,17,19,21,23,25,27,29,-1,-1,-1,-1,-1,-1,-1,-1,-1,-1,-1,-1,-1,-1,-1,-1],"loss_changes":[2.9513265E10,4.1047296E9,1.1623778E10,3.487836E8,6.772055E8,1.8979082E9,4.269527E9,1.6510976E7,5.139456E7,2.0279117E8,3.4633245E8,3.8391066E8,5.8110976E8,4.9387725E8,1.534034E8,0E0,0E0,0E0,0E0,0E0,0E0,0E0,0E0,0E0,0E0,0E0,0E0,0E0,0E0,0E0,0E0],"parents":[2147483647,0,0,1,1,2,2,3,3,4,4,5,5,6,6,7,7,8,8,9,9,10,10,11,11,12,12,13,13,14,14],"right_children":[2,4,6,8,10,12,14,16,18,20,22,24,26,28,30,-1,-1,-1,-1,-1,-1,-1,-1,-1,-1,-1,-1,-1,-1,-1,-1],"split_conditions":[-1.4147861E-2,-8.499648E-1,1.5146433E0,-1.1628321E0,-4.7613066E-1,5.680077E-1,3.5142212E0,-1.3598186E0,2.3076138E-1,-1.1604388E0,-4.3442935E-1,-1.4521563E0,-1.1120049E0,1.6942853E0,-2.6299069E-2,-4.009159E2,-3.4042136E2,-2.7151794E2,-1.104349E1,3.4871298E2,-1.703359E2,4.9419735E1,-8.3926765E1,-2.7392374E2,7.608144E1,-2.8951162E1,2.4148033E2,5.5652563E2,1.2849947E2,1.4495103E3,5.2151544E2],"split_indices":[11,11,11,11,11,11,11,11,15,12,8,19,6,10,1,0,0,0,0,0,0,0,0,0,0,0,0,0,0,0,0],"split_type":[0,0,0,0,0,0,0,0,0,0,0,0,0,0,0,0,0,0,0,0,0,0,0,0,0,0,0,0,0,0,0],"sum_hessian":[1.922E3,9.58E2,9.64E2,3.88E2,5.7E2,8.44E2,1.2E2,1.94E2,1.94E2,2.65E2,3.05E2,5.12E2,3.32E2,1.03E2,1.7E1,8.5E1,1.09E2,1.92E2,2E0,1E0,2.64E2,6E1,2.45E2,7E0,5.05E2,2.1E1,3.11E2,9.5E1,8E0,1.5E1,2E0],"tree_param":{"num_deleted":"0","num_feature":"29","num_nodes":"31","size_leaf_vector":"1"}},{"base_weights":[1.1560337E2,-3.3389983E3,4.641199E3,-5.750514E3,-1.5506732E3,3.2692207E3,1.640618E4,-6.8218384E3,-4.5488804E3,-2.1755828E3,4.7989517E1,2.3835508E3,6.3654214E3,1.3036213E4,2.8787373E4,-3.955402E2,-3.1362146E2,-1.2334745E2,-2.4344221E2,1.763237E2,-1.1423946E2,1.2917725E1,-1.3371324E2,5.8550747E1,1.5050932E2,2.635791E2,3.9292215E2,6.928414E2,3.3223935E2,1.5937709E3,8.64936E2],"categories":[],"categories_nodes":[],"categories_segments":[],"categories_sizes":[],"default_left":[0,0,0,0,0,0,0,0,0,0,0,0,0,0,0,0,0,0,0,0,0,0,0,0,0,0,0,0,0,0,0],"id":18,"left_children":[1,3,5,7,9,11,13,15,17,19,21,23,25,27,29,-1,-1,-1,-1,-1,-1,-1,-1,-1,-1,-1,-1,-1,-1,-1,-1],"loss_changes":[3.0517684E10,4.765103E9,1.3585762E10,5.753037E8,6.364799E8,2.0634245E9,3.2964526E9,9.815654E7,1.3787085E8,2.9325466E8,1.0377096E8,4.455278E8,2.329385E8,2.803108E8,8.71895E7,0E0,0E0,0E0,0E0,0E0,0E0,0E0,0E0,0E0,0E0,0E0,0E0,0E0,0E0,0E0,0E0],"parents":[2147483647,0,0,1,1,2,2,3,3,4,4,5,5,6,6,7,7,8,8,9,9,10,10,11,11,12,12,13,13,14,14],"right_children":[2,4,6,8,10,12,14,16,18,20,22,24,26,28,30,-1,-1,-1,-1,-1,-1,-1,-1,-1,-1,-1,-1,-1,-1,-1,-1],"split_conditions":[1.4618374E-1,-6.8779206E-1,1.6915364E0,-1.0798557E0,-1.1809149E-1,8.948592E-1,3.2611063E0,-1.3704112E0,-9.004992E-1,-6.696293E-1,2.1497272E-1,3.3992043E-1,1.2631967E0,2.2378457E0,-9.090861E-1,-3.955402E2,-3.1362146E2,-1.2334745E2,-2.4344221E2,1.763237E2,-1.1423946E2,1.2917725E1,-1.3371324E2,5.8550747E1,1.5050932E2,2.635791E2,3.9292215E2,6.928414E2,3.3223935E2,1.5937709E3,8.64936E2],"split_indices":[7,7,7,11,7,7,7,7,23,7,11,7,7,12,2,0,0,0,0,0,0,0,0,0,0,0,0,0,0,0,0],"split_type":[0,0,0,0,0,0,0,0,0,0,0,0,0,0,0,0,0,0,0,0,0,0,0,0,0,0,0,0,0,0,0],"sum_hessian":[1.95E3,1.106E3,8.44E2,4.7E2,6.36E2,7.57E2,8.7E1,2.46E2,2.24E2,4.57E2,1.79E2,5.9E2,1.67E2,7E1,1.7E1,7.8E1,1.68E2,3.1E1,1.93E2,8E0,4.49E2,1.67E2,1.2E1,2.02E2,3.88E2,9.9E1,6.8E1,6.1E1,9E0,1.2E1,5E0],"tree_param":{"num_deleted":"0","num_feature":"29","num_nodes":"31","size_leaf_vector":"1"}},{"base_weights":[-6.1675182E1,-3.869794E3,3.3992827E3,-5.6118877E3,-2.0255076E3,2.1740225E3,1.2373308E4,-6.4890166E3,-4.500311E3,-2.5484197E3,-1.0898385E3,3.607443E3,8.8267053E2,9.255303E3,2.4589605E4,-3.595889E2,-2.9475473E2,-2.3556416E2,-1.6524083E2,-1.05935814E2,-1.7782658E2,7.679914E1,-7.459059E1,1.4788535E2,3.0339185E2,-6.044549E1,6.810949E1,6.0506903E2,3.846016E2,1.6015541E3,8.493165E2],"categories":[],"categories_nodes":[],"categories_segments":[],"categories_sizes":[],"default_left":[0,0,0,0,0,0,0,0,0,0,0,0,0,0,0,0,0,0,0,0,0,0,0,0,0,0,0,0,0,0,0],"id":19,"left_children":[1,3,5,7,9,11,13,15,17,19,21,23,25,27,29,-1,-1,-1,-1,-1,-1,-1,-1,-1,-1,-1,-1,-1,-1,-1,-1],"loss_changes":[2.5384151E10,2.9348803E9,1.1067574E10,4.300206E8,2.1592755E8,1.6424E9,4.381364E9,6.654157E7,3.764736E7,1.1635674E8,1.73284E8,6.550666E8,4.720318E8,3.4293658E8,8.138189E8,0E0,0E0,0E0,0E0,0E0,0E0,0E0,0E0,0E0,0E0,0E0,0E0,0E0,0E0,0E0,0E0],"parents":[2147483647,0,0,1,1,2,2,3,3,4,4,5,5,6,6,7,7,8,8,9,9,10,10,11,11,12,12,13,13,14,14],"right_children":[2,4,6,8,10,12,14,16,18,20,22,24,26,28,30,-1,-1,-1,-1,-1,-1,-1,-1,-1,-1,-1,-1,-1,-1,-1,-1],"split_conditions":[-1.1756423E-1,-7.072321E-1,1.5146433E0,-1.0798557E0,-3.700441E-1,-6.2163854E-1,2.9778457E0,-1.3367084E0,3.070598E-1,-7.227803E-2,-4.3442935E-1,9.132292E-1,3.9993864E-2,1.5062553E0,-7.602956E-2,-3.595889E2,-2.9475473E2,-2.3556416E2,-1.6524083E2,-1.05935814E2,-1.7782658E2,7.679914E1,-7.459059E1,1.4788535E2,3.0339185E2,-6.044549E1,6.810949E1,6.0506903E2,3.846016E2,1.6015541E3,8.493165E2],"split_indices":[11,11,11,11,11,2,11,11,18,10,8,11,3,8,1,0,0,0,0,0,0,0,0,0,0,0,0,0,0,0,0],"split_type":[0,0,0,0,0,0,0,0,0,0,0,0,0,0,0,0,0,0,0,0,0,0,0,0,0,0,0,0,0,0,0],"sum_hessian":[1.924E3,9.16E2,1.008E3,4.7E2,4.46E2,8.88E2,1.2E2,2.6E2,2.1E2,2.85E2,1.61E2,4.2E2,4.68E2,9.7E1,2.3E1,1.14E2,1.46E2,1.76E2,3.4E1,2.02E2,8.3E1,2.1E1,1.4E2,3.34E2,8.6E1,8.7E1,3.81E2,3.2E1,6.5E1,1E1,1.3E1],"tree_param":{"num_deleted":"0","num_feature":"29","num_nodes":"31","size_leaf_vector":"1"}},{"base_weights":[1.0902059E0,-3.1022336E3,4.153632E3,-5.3867417E3,-1.4461998E3,3.2129182E3,1.752176E4,-6.6026343E3,-4.628131E3,-2.3269155E3,-5.053564E2,2.249753E3,6.490193E3,1.5257559E3,1.35798955E4,-3.3235275E2,3.2604153E1,-4.57395E1,-2.364401E2,2.7723544E2,-1.2071099E2,-9.631812E1,-8.985057E0,6.778875E1,1.5623773E2,3.49535E2,1.4066339E2,7.3034906E2,-1.7135157E1],"categories":[],"categories_nodes":[],"categories_segments":[],"categories_sizes":[],"default_left":[0,0,0,0,0,0,0,0,0,0,0,0,0,0,0,0,0,0,0,0,0,0,0,0,0,0,0,0,0],"id":20,"left_children":[1,3,5,7,9,11,13,15,17,19,21,23,25,-1,27,-1,-1,-1,-1,-1,-1,-1,-1,-1,-1,-1,-1,-1,-1],"loss_changes":[2.530944E10,4.2445517E9,1.0507189E10,4.0480973E8,5.3991E8,2.466453E9,2.402601E9,6.201856E7,1.055785E8,2.4498112E8,1.4634816E8,4.7214285E8,3.0791117E8,0E0,6.341924E8,0E0,0E0,0E0,0E0,0E0,0E0,0E0,0E0,0E0,0E0,0E0,0E0,0E0,0E0],"parents":[2147483647,0,0,1,1,2,2,3,3,4,4,5,5,6,6,7,7,8,8,9,9,10,10,11,11,12,12,14,14],"right_children":[2,4,6,8,10,12,14,16,18,20,22,24,26,-1,28,-1,-1,-1,-1,-1,-1,-1,-1,-1,-1,-1,-1,-1,-1],"split_conditions":[1.4618374E-1,-7.112524E-1,2.2394478E0,-1.1963508E0,-3.1923833E-1,9.4875306E-1,-8.528049E-2,-8.742574E-1,-1.3907015E0,-1.2278006E0,-6.1244047E-1,4.7311437E-1,1.9052745E0,1.5257559E3,1.6942853E0,-3.3235275E2,3.2604153E1,-4.57395E1,-2.364401E2,2.7723544E2,-1.2071099E2,-9.631812E1,-8.985057E0,6.778875E1,1.5623773E2,3.49535E2,1.4066339E2,7.3034906E2,-1.7135157E1],"split_indices":[7,7,7,7,7,7,20,8,1,22,23,7,8,0,10,0,0,0,0,0,0,0,0,0,0,0,0,0,0],"split_type":[0,0,0,0,0,0,0,0,0,0,0,0,0,0,0,0,0,0,0,0,0,0,0,0,0,0,0,0,0],"sum_hessian":[1.962E3,1.123E3,8.39E2,4.71E2,6.52E2,7.85E2,5.4E1,1.78E2,2.93E2,3.36E2,3.16E2,6.08E2,1.77E2,1.1E1,4.3E1,1.77E2,1E0,8E0,2.85E2,3E0,3.33E2,5.8E1,2.58E2,3.02E2,3.06E2,1.55E2,2.2E1,4E1,3E0],"tree_param":{"num_deleted":"0","num_feature":"29","num_nodes":"29","size_leaf_vector":"1"}},{"base_weights":[3.6081066E0,-2.7254456E3,4.174084E3,-4.7908755E3,-8.671644E2,3.0032798E3,1.3355839E4,-5.814719E3,-3.8252544E3,-1.7502399E3,1.2206823E2,2.3162463E3,5.580278E3,1.06001045E4,2.0033148E4,-3.4131396E2,-2.6754358E2,1.0294866E2,-1.9578496E2,2.6683917E2,-9.16421E1,2.9877555E0,3.0421048E2,-9.5202156E1,1.2458462E2,2.933337E2,-1.720152E2,5.68667E2,2.3484941E2,1.1254231E3,6.1344855E2],"categories":[],"categories_nodes":[],"categories_segments":[],"categories_sizes":[],"default_left":[0,0,0,0,0,0,0,0,0,0,0,0,0,0,0,0,0,0,0,0,0,0,0,0,0,0,0,0,0,0,0],"id":21,"left_children":[1,3,5,7,9,11,13,15,17,19,21,23,25,27,29,-1,-1,-1,-1,-1,-1,-1,-1,-1,-1,-1,-1,-1,-1,-1,-1],"loss_changes":[2.1954814E10,4.471129E9,8.1621647E9,5.2348826E8,5.374574E8,1.1874632E9,1.3701233E9,8.828416E7,1.6080307E8,2.0003725E8,1.07748664E8,4.02357E8,3.870341E8,2.3414272E8,1.8509517E8,0E0,0E0,0E0,0E0,0E0,0E0,0E0,0E0,0E0,0E0,0E0,0E0,0E0,0E0,0E0,0E0],"parents":[2147483647,0,0,1,1,2,2,3,3,4,4,5,5,6,6,7,7,8,8,9,9,10,10,11,11,12,12,13,13,14,14],"right_children":[2,4,6,8,10,12,14,16,18,20,22,24,26,28,30,-1,-1,-1,-1,-1,-1,-1,-1,-1,-1,-1,-1,-1,-1,-1,-1],"split_conditions":[2.006722E-1,-5.757881E-1,1.6915364E0,-1.0604872E0,-2.125318E-1,9.4875306E-1,2.887255E0,-1.3704112E0,-1.1660795E0,-1.2278006E0,2.2393079E0,-1.1120049E0,-4.7663194E-1,-3.614296E-1,-1.0011847E0,-3.4131396E2,-2.6754358E2,1.0294866E2,-1.9578496E2,2.6683917E2,-9.16421E1,2.9877555E0,3.0421048E2,-9.5202156E1,1.2458462E2,2.933337E2,-1.720152E2,5.68667E2,2.3484941E2,1.1254231E3,6.1344855E2],"split_indices":[7,7,7,11,7,7,7,7,7,22,14,6,2,3,23,0,0,0,0,0,0,0,0,0,0,0,0,0,0,0,0],"split_type":[0,0,0,0,0,0,0,0,0,0,0,0,0,0,0,0,0,0,0,0,0,0,0,0,0,0,0,0,0,0,0],"sum_hessian":[1.927E3,1.165E3,7.62E2,5.51E2,6.14E2,6.77E2,8.5E1,2.65E2,2.86E2,3.24E2,2.9E2,5.36E2,1.41E2,6.2E1,2.3E1,7.9E1,1.86E2,4E0,2.82E2,3E0,3.21E2,2.88E2,2E0,2.1E1,5.15E2,1.37E2,4E0,5.4E1,8E0,1.6E1,7E0],"tree_param":{"num_deleted":"0","num_feature":"29","num_nodes":"31","size_leaf_vector":"1"}},{"base_weights":[1.0731732E1,-3.3335088E3,2.955747E3,-4.7980522E3,-1.7287085E3,2.4795479E3,2.0412732E4,-5.5936025E3,-3.8447437E3,-2.1492942E3,-9.182758E2,1.5967579E3,6.852219E3,2.7511264E4,1.2899825E4,-3.205759E2,-2.630055E2,-1.9922806E2,-1.21216934E2,2.123584E1,-1.122568E2,7.7765216E2,-5.673283E1,1.4521948E2,2.969521E1,3.696037E2,-7.379528E1,3.9104257E2,1.4250198E3,-1.8449415E1,6.936977E2],"categories":[],"categories_nodes":[],"categories_segments":[],"categories_sizes":[],"default_left":[0,0,0,0,0,0,0,0,0,0,0,0,0,0,0,0,0,0,0,0,0,0,0,0,0,0,0,0,0,0,0],"id":22,"left_children":[1,3,5,7,9,11,13,15,17,19,21,23,25,27,29,-1,-1,-1,-1,-1,-1,-1,-1,-1,-1,-1,-1,-1,-1,-1,-1],"loss_changes":[1.8929474E10,2.1069752E9,8.445275E9,3.3494323E8,1.4493542E8,3.8337674E9,1.0850365E9,3.555789E7,3.3435904E7,7.076915E7,5.486949E8,1.0867067E9,7.6173875E8,3.029504E7,1.9900237E8,0E0,0E0,0E0,0E0,0E0,0E0,0E0,0E0,0E0,0E0,0E0,0E0,0E0,0E0,0E0,0E0],"parents":[2147483647,0,0,1,1,2,2,3,3,4,4,5,5,6,6,7,7,8,8,9,9,10,10,11,11,12,12,13,13,14,14],"right_children":[2,4,6,8,10,12,14,16,18,20,22,24,26,28,30,-1,-1,-1,-1,-1,-1,-1,-1,-1,-1,-1,-1,-1,-1,-1,-1],"split_conditions":[-1.1756423E-1,-7.072321E-1,2.9778457E0,-1.0798557E0,-3.5859907E-1,1.1002014E0,-9.001482E-1,-1.4093404E0,2.3076138E-1,-8.3193713E-1,-6.399847E-1,-6.2163854E-1,-3.12073E-1,-1.0230299E0,1.0963398E0,-3.205759E2,-2.630055E2,-1.9922806E2,-1.21216934E2,2.123584E1,-1.122568E2,7.7765216E2,-5.673283E1,1.4521948E2,2.969521E1,3.696037E2,-7.379528E1,3.9104257E2,1.4250198E3,-1.8449415E1,6.936977E2],"split_indices":[11,11,11,11,11,11,2,11,15,8,8,2,28,2,5,0,0,0,0,0,0,0,0,0,0,0,0,0,0,0,0],"split_type":[0,0,0,0,0,0,0,0,0,0,0,0,0,0,0,0,0,0,0,0,0,0,0,0,0,0,0,0,0,0,0],"sum_hessian":[1.92E3,8.99E2,1.021E3,4.69E2,4.3E2,9.95E2,2.6E1,2.53E2,2.16E2,2.82E2,1.48E2,8.29E2,1.66E2,1.2E1,1.4E1,6.8E1,1.85E2,1.95E2,2.1E1,1E1,2.72E2,1E0,1.47E2,3.59E2,4.7E2,1.56E2,1E1,1E0,1.1E1,1E0,1.3E1],"tree_param":{"num_deleted":"0","num_feature":"29","num_nodes":"31","size_leaf_vector":"1"}},{"base_weights":[4.1548233E1,-2.6657373E3,3.529065E3,-4.5239233E3,-1.223825E3,2.585082E3,1.1961922E4,-5.3987114E3,-3.7305613E3,-1.9853148E3,-4.0261203E2,1.5106624E3,4.261298E3,9.075271E3,1.9040965E4,-3.0043933E2,-2.4443318E2,-2.1329686E2,-1.5489928E2,1.3818031E2,-1.0651159E2,-2.3167221E1,2.892295E2,3.935186E1,1.0176286E2,-2.7102423E2,2.2049718E2,4.7861465E2,-3.244302E1,1.161555E3,6.854229E2],"categories":[],"categories_nodes":[],"categories_segments":[],"categories_sizes":[],"default_left":[0,0,0,0,0,0,0,0,0,0,0,0,0,0,0,0,0,0,0,0,0,0,0,0,0,0,0,0,0,0,0],"id":23,"left_children":[1,3,5,7,9,11,13,15,17,19,21,23,25,27,29,-1,-1,-1,-1,-1,-1,-1,-1,-1,-1,-1,-1,-1,-1,-1,-1],"loss_changes":[1.8515147E10,2.9524562E9,6.791203E9,3.143803E8,3.8879085E8,1.3839032E9,1.5845847E9,4.126003E7,7.348224E7,2.2817523E8,1.1578515E8,1.7757402E8,4.57088E8,3.1069594E8,2.1779149E8,0E0,0E0,0E0,0E0,0E0,0E0,0E0,0E0,0E0,0E0,0E0,0E0,0E0,0E0,0E0,0E0],"parents":[2147483647,0,0,1,1,2,2,3,3,4,4,5,5,6,6,7,7,8,8,9,9,10,10,11,11,12,12,13,13,14,14],"right_children":[2,4,6,8,10,12,14,16,18,20,22,24,26,28,30,-1,-1,-1,-1,-1,-1,-1,-1,-1,-1,-1,-1,-1,-1,-1,-1],"split_conditions":[1.4618374E-1,-6.8779206E-1,1.6915364E0,-1.0919147E0,-3.1923833E-1,6.3506615E-1,2.887255E0,-1.3250041E0,-9.496393E-1,-6.696293E-1,2.2393079E0,3.3992043E-1,-1.2605333E0,1.6942853E0,-9.001482E-1,-3.0043933E2,-2.4443318E2,-2.1329686E2,-1.5489928E2,1.3818031E2,-1.0651159E2,-2.3167221E1,2.892295E2,3.935186E1,1.0176286E2,-2.7102423E2,2.2049718E2,4.7861465E2,-3.244302E1,1.161555E3,6.854229E2],"split_indices":[7,7,7,7,7,7,7,7,7,7,14,7,6,10,2,0,0,0,0,0,0,0,0,0,0,0,0,0,0,0,0],"split_type":[0,0,0,0,0,0,0,0,0,0,0,0,0,0,0,0,0,0,0,0,0,0,0,0,0,0,0,0,0,0,0],"sum_hessian":[1.959E3,1.103E3,8.56E2,4.81E2,6.22E2,7.71E2,8.5E1,2.26E2,2.55E2,3.22E2,3E2,4.71E2,3E2,6.2E1,2.3E1,9.8E1,1.28E2,1.35E2,1.2E2,9E0,3.13E2,2.98E2,2E0,1.99E2,2.72E2,4E0,2.96E2,5.9E1,3E0,1.1E1,1.2E1],"tree_param":{"num_deleted":"0","num_feature":"29","num_nodes":"31","size_leaf_vector":"1"}},{"base_weights":[-6.761305E0,-2.4431484E3,3.3896975E3,-4.712618E3,-1.3291973E3,2.6468745E3,1.3698935E4,-4.7938857E3,3.9218086E3,-2.1570764E3,-2.5394402E2,1.9209906E3,5.6311636E3,1.0135869E3,9.849429E3,-2.7735388E2,-2.1632173E2,4.444024E2,-2.7442276E2,-9.4016655E1,-1.6580002E2,-6.353526E1,4.095642E0,6.2702023E1,1.4227911E2,-1.3531876E2,2.9416537E2,5.256254E2,-4.7431187E1],"categories":[],"categories_nodes":[],"categories_segments":[],"categories_sizes":[],"default_left":[0,0,0,0,0,0,0,0,0,0,0,0,0,0,0,0,0,0,0,0,0,0,0,0,0,0,0,0,0],"id":24,"left_children":[1,3,5,7,9,11,13,15,17,19,21,23,25,-1,27,-1,-1,-1,-1,-1,-1,-1,-1,-1,-1,-1,-1,-1,-1],"loss_changes":[1.5987476E10,2.837824E9,6.143696E9,2.784292E8,6.724279E8,1.6225331E9,1.1666463E9,1.0521446E8,2.3571613E8,1.3071411E8,1.12794536E8,3.7135872E8,3.249541E8,0E0,2.6773146E8,0E0,0E0,0E0,0E0,0E0,0E0,0E0,0E0,0E0,0E0,0E0,0E0,0E0,0E0],"parents":[2147483647,0,0,1,1,2,2,3,3,4,4,5,5,6,6,7,7,8,8,9,9,10,10,11,11,12,12,14,14],"right_children":[2,4,6,8,10,12,14,16,18,20,22,24,26,-1,28,-1,-1,-1,-1,-1,-1,-1,-1,-1,-1,-1,-1,-1,-1],"split_conditions":[1.7721188E-1,-9.390443E-1,2.2394478E0,1.5566774E-1,-3.1923833E-1,1.0528108E0,-3.306557E-2,-1.2644614E0,-1.3907015E0,-1.8885139E-1,-2.005885E-1,5.582876E-1,-1.2366352E0,1.0135869E3,1.9062729E0,-2.7735388E2,-2.1632173E2,4.444024E2,-2.7442276E2,-9.4016655E1,-1.6580002E2,-6.353526E1,4.095642E0,6.2702023E1,1.4227911E2,-1.3531876E2,2.9416537E2,5.256254E2,-4.7431187E1],"split_indices":[7,7,7,15,7,7,1,7,1,9,27,7,6,0,10,0,0,0,0,0,0,0,0,0,0,0,0,0,0],"split_type":[0,0,0,0,0,0,0,0,0,0,0,0,0,0,0,0,0,0,0,0,0,0,0,0,0,0,0,0,0],"sum_hessian":[1.93E3,1.124E3,8.06E2,3.69E2,7.55E2,7.53E2,5.3E1,3.66E2,3E0,4.26E2,3.29E2,6.07E2,1.46E2,1.8E1,3.5E1,1.36E2,2.3E2,2E0,1E0,3.46E2,8E1,8.1E1,2.48E2,3.54E2,2.53E2,4E0,1.42E2,3.3E1,2E0],"tree_param":{"num_deleted":"0","num_feature":"29","num_nodes":"29","size_leaf_vector":"1"}},{"base_weights":[-3.7469994E1,-2.6961113E3,2.8448882E3,-4.458315E3,-1.6395349E3,2.3421243E3,1.5390821E4,6.4577625E2,-4.5417026E3,-2.4260425E3,-9.517211E2,1.5904377E3,5.578286E3,1.0017872E4,9.8354706E2,-2.1254907E2,4.2958902E2,-2.815084E2,-2.1367155E2,-9.8476204E1,-1.6150284E2,1.6089487E2,-5.178779E1,3.1238754E1,1.140819E2,2.9382455E2,1.0968125E1,-5.2783886E1,5.365678E2],"categories":[],"categories_nodes":[],"categories_segments":[],"categories_sizes":[],"default_left":[0,0,0,0,0,0,0,0,0,0,0,0,0,0,0,0,0,0,0,0,0,0,0,0,0,0,0,0,0],"id":25,"left_children":[1,3,5,7,9,11,13,15,17,19,21,23,25,27,-1,-1,-1,-1,-1,-1,-1,-1,-1,-1,-1,-1,-1,-1,-1],"loss_changes":[1.4996804E10,1.888107E9,5.8868285E9,1.6509338E8,3.4283046E8,2.1901798E9,6.30826E8,3.0889104E8,8.544102E7,1.0265139E8,1.2316698E8,4.891621E8,2.7038054E8,1.5354317E8,0E0,0E0,0E0,0E0,0E0,0E0,0E0,0E0,0E0,0E0,0E0,0E0,0E0,0E0,0E0],"parents":[2147483647,0,0,1,1,2,2,3,3,4,4,5,5,6,6,7,7,8,8,9,9,10,10,11,11,12,12,13,13],"right_children":[2,4,6,8,10,12,14,16,18,20,22,24,26,28,-1,-1,-1,-1,-1,-1,-1,-1,-1,-1,-1,-1,-1,-1,-1],"split_conditions":[2.7543863E-2,-9.012051E-1,2.5118902E0,-1.3907015E0,-4.811901E-1,1.0528108E0,-5.9472066E-1,-9.2527E-2,-1.3931147E0,-4.622416E-3,-1.6935683E0,3.3992043E-1,-3.12073E-1,-9.158111E-1,9.8354706E2,-2.1254907E2,4.2958902E2,-2.815084E2,-2.1367155E2,-9.8476204E1,-1.6150284E2,1.6089487E2,-5.178779E1,3.1238754E1,1.140819E2,2.9382455E2,1.0968125E1,-5.2783886E1,5.365678E2],"split_indices":[7,7,7,1,7,7,6,0,7,10,28,7,28,6,0,0,0,0,0,0,0,0,0,0,0,0,0,0,0],"split_type":[0,0,0,0,0,0,0,0,0,0,0,0,0,0,0,0,0,0,0,0,0,0,0,0,0,0,0,0,0],"sum_hessian":[1.955E3,1.017E3,9.38E2,3.8E2,6.37E2,9.03E2,3.5E1,6E0,3.74E2,2.96E2,3.41E2,7.34E2,1.69E2,1.7E1,1.8E1,4E0,2E0,7E1,3.04E2,1.91E2,1.05E2,6E0,3.35E2,3.07E2,4.27E2,1.6E2,9E0,1E0,1.6E1],"tree_param":{"num_deleted":"0","num_feature":"29","num_nodes":"29","size_leaf_vector":"1"}},{"base_weights":[2.817043E1,-2.4159722E3,2.9022947E3,-3.851206E3,-1.1891461E3,2.2057473E3,1.2748033E4,-4.6004336E3,-3.0730837E3,-1.8524663E3,-5.4718024E2,1.4930839E3,4.676462E3,9.853386E3,2.0389133E4,-2.567568E2,-1.9849661E2,4.805067E1,-1.582084E2,1.4188493E2,-1.0109121E2,-7.710782E1,-1.1184931E1,1.11453636E2,4.450478E1,3.4107834E2,2.0262286E2,5.180754E2,-2.7239843E1,1.1499562E3,6.320481E2],"categories":[],"categories_nodes":[],"categories_segments":[],"categories_sizes":[],"default_left":[0,0,0,0,0,0,0,0,0,0,0,0,0,0,0,0,0,0,0,0,0,0,0,0,0,0,0,0,0,0,0],"id":26,"left_children":[1,3,5,7,9,11,13,15,17,19,21,23,25,27,29,-1,-1,-1,-1,-1,-1,-1,-1,-1,-1,-1,-1,-1,-1,-1,-1],"loss_changes":[1.3466469E10,1.8195912E9,6.0138015E9,2.639488E8,2.3745062E8,1.4439063E9,1.0819594E9,6.0862464E7,9.012454E7,2.2417434E8,9.170597E7,2.8248704E8,2.1865037E8,2.3812122E8,1.2608512E7,0E0,0E0,0E0,0E0,0E0,0E0,0E0,0E0,0E0,0E0,0E0,0E0,0E0,0E0,0E0,0E0],"parents":[2147483647,0,0,1,1,2,2,3,3,4,4,5,5,6,6,7,7,8,8,9,9,10,10,11,11,12,12,13,13,14,14],"right_children":[2,4,6,8,10,12,14,16,18,20,22,24,26,28,30,-1,-1,-1,-1,-1,-1,-1,-1,-1,-1,-1,-1,-1,-1,-1,-1],"split_conditions":[7.958677E-2,-6.8779206E-1,2.116849E0,-1.0908605E0,-3.714564E-1,9.075083E-1,3.2611063E0,-1.2644614E0,-1.1660795E0,-6.696293E-1,-4.6363106E-1,-6.2163854E-1,7.0217097E-1,1.7890031E0,-7.602956E-2,-2.567568E2,-1.9849661E2,4.805067E1,-1.582084E2,1.4188493E2,-1.0109121E2,-7.710782E1,-1.1184931E1,1.11453636E2,4.450478E1,3.4107834E2,2.0262286E2,5.180754E2,-2.7239843E1,1.1499562E3,6.320481E2],"split_indices":[7,7,7,11,7,7,7,7,7,7,22,2,8,10,1,0,0,0,0,0,0,0,0,0,0,0,0,0,0,0,0],"split_type":[0,0,0,0,0,0,0,0,0,0,0,0,0,0,0,0,0,0,0,0,0,0,0,0,0,0,0,0,0,0,0],"sum_hessian":[1.915E3,1.035E3,8.8E2,4.76E2,5.59E2,8.23E2,5.7E1,2.4E2,2.36E2,2.74E2,2.85E2,6.4E2,1.83E2,4.3E1,1.4E1,1.26E2,1.14E2,5E0,2.31E2,9E0,2.65E2,6.9E1,2.16E2,2.87E2,3.53E2,3.9E1,1.44E2,4.1E1,2E0,9E0,5E0],"tree_param":{"num_deleted":"0","num_feature":"29","num_nodes":"31","size_leaf_vector":"1"}},{"base_weights":[6.505912E1,-1.9930553E3,3.1599836E3,-3.619465E3,-8.4117004E2,2.4269727E3,1.1141908E4,-4.301061E3,-2.787826E3,-1.3524382E3,1.15396416E2,1.7050403E3,4.6278047E3,8.1682876E3,1.5691913E4,-2.582149E2,-1.9630083E2,-6.893819E1,-1.5387094E2,-7.126237E1,2.7281525E2,2.3555863E0,2.7812338E2,5.6409595E1,1.22618675E2,-2.451177E2,2.381978E2,4.5853424E2,-5.417922E1,8.481764E2,4.418942E2],"categories":[],"categories_nodes":[],"categories_segments":[],"categories_sizes":[],"default_left":[0,0,0,0,0,0,0,0,0,0,0,0,0,0,0,0,0,0,0,0,0,0,0,0,0,0,0,0,0,0,0],"id":27,"left_children":[1,3,5,7,9,11,13,15,17,19,21,23,25,27,29,-1,-1,-1,-1,-1,-1,-1,-1,-1,-1,-1,-1,-1,-1,-1,-1],"loss_changes":[1.2567365E10,2.216979E9,4.58342E9,2.6632806E8,3.4005408E8,1.1408494E9,7.648031E8,6.649037E7,8.716109E7,2.3234611E8,9.012217E7,2.326126E8,2.5431782E8,3.9944704E8,6.797005E7,0E0,0E0,0E0,0E0,0E0,0E0,0E0,0E0,0E0,0E0,0E0,0E0,0E0,0E0,0E0,0E0],"parents":[2147483647,0,0,1,1,2,2,3,3,4,4,5,5,6,6,7,7,8,8,9,9,10,10,11,11,12,12,13,13,14,14],"right_children":[2,4,6,8,10,12,14,16,18,20,22,24,26,28,30,-1,-1,-1,-1,-1,-1,-1,-1,-1,-1,-1,-1,-1,-1,-1,-1],"split_conditions":[2.006722E-1,-6.8779206E-1,2.116849E0,-1.0604872E0,-1.1809149E-1,9.4875306E-1,2.887255E0,-1.3704112E0,-1.0715865E0,1.4089954E0,2.218613E0,5.582876E-1,-1.2605333E0,1.6942853E0,-8.396437E-1,-2.582149E2,-1.9630083E2,-6.893819E1,-1.5387094E2,-7.126237E1,2.7281525E2,2.3555863E0,2.7812338E2,5.6409595E1,1.22618675E2,-2.451177E2,2.381978E2,4.5853424E2,-5.417922E1,8.481764E2,4.418942E2],"split_indices":[7,7,7,11,7,7,7,7,18,27,14,7,6,10,2,0,0,0,0,0,0,0,0,0,0,0,0,0,0,0,0],"split_type":[0,0,0,0,0,0,0,0,0,0,0,0,0,0,0,0,0,0,0,0,0,0,0,0,0,0,0,0,0,0,0],"sum_hessian":[1.971E3,1.184E3,7.87E2,4.9E2,6.94E2,7.22E2,6.5E1,2.67E2,2.23E2,4.52E2,2.42E2,5.45E2,1.77E2,4.1E1,2.4E1,7.7E1,1.9E2,3.9E1,1.84E2,4.48E2,4E0,2.4E2,2E0,3.09E2,2.36E2,2E0,1.75E2,3.7E1,4E0,1.9E1,5E0],"tree_param":{"num_deleted":"0","num_feature":"29","num_nodes":"31","size_leaf_vector":"1"}},{"base_weights":[1.7120687E1,-1.6619017E3,3.5014006E3,-3.1877668E3,-3.1079337E2,2.721597E3,1.426102E4,-4.015863E3,-2.391817E3,-1.0508013E3,2.9726273E2,2.1202874E3,5.4131597E3,2.1637678E4,1.0945507E4,2.937535E2,-2.0345634E2,2.3609558E2,-1.2379457E2,-5.7947414E1,2.3199141E2,-4.4638924E1,3.118631E1,7.1729805E1,1.5227454E2,3.1852496E2,1.5992429E2,2.523461E2,1.1343558E3,5.673425E2,-2.7370117E1],"categories":[],"categories_nodes":[],"categories_segments":[],"categories_sizes":[],"default_left":[0,0,0,0,0,0,0,0,0,0,0,0,0,0,0,0,0,0,0,0,0,0,0,0,0,0,0,0,0,0,0],"id":28,"left_children":[1,3,5,7,9,11,13,15,17,19,21,23,25,27,29,-1,-1,-1,-1,-1,-1,-1,-1,-1,-1,-1,-1,-1,-1,-1,-1],"loss_changes":[1.1244024E10,2.6729162E9,5.205182E9,3.9180083E8,3.103392E8,9.337042E8,7.903754E8,1.803735E8,1.98891E8,1.9677434E8,1.4780024E8,2.9951053E8,2.043648E8,9.443226E7,1.4920218E8,0E0,0E0,0E0,0E0,0E0,0E0,0E0,0E0,0E0,0E0,0E0,0E0,0E0,0E0,0E0,0E0],"parents":[2147483647,0,0,1,1,2,2,3,3,4,4,5,5,6,6,7,7,8,8,9,9,10,10,11,11,12,12,13,13,14,14],"right_children":[2,4,6,8,10,12,14,16,18,20,22,24,26,28,30,-1,-1,-1,-1,-1,-1,-1,-1,-1,-1,-1,-1,-1,-1,-1,-1],"split_conditions":[3.3235258E-1,-5.220564E-1,2.5118902E0,-1.0318747E0,-1.1809149E-1,1.2631967E0,-8.528049E-2,-1.3907015E0,-1.1660795E0,1.4089954E0,-2.005885E-1,6.398231E-1,1.6921619E0,-1.0230299E0,1.7890031E0,2.937535E2,-2.0345634E2,2.3609558E2,-1.2379457E2,-5.7947414E1,2.3199141E2,-4.4638924E1,3.118631E1,7.1729805E1,1.5227454E2,3.1852496E2,1.5992429E2,2.523461E2,1.1343558E3,5.673425E2,-2.7370117E1],"split_indices":[7,7,7,11,7,7,20,1,7,27,27,7,8,2,10,0,0,0,0,0,0,0,0,0,0,0,0,0,0,0,0],"split_type":[0,0,0,0,0,0,0,0,0,0,0,0,0,0,0,0,0,0,0,0,0,0,0,0,0,0,0,0,0,0,0],"sum_hessian":[1.92E3,1.296E3,6.24E2,6.08E2,6.88E2,5.83E2,4.1E1,2.96E2,3.12E2,3.1E2,3.78E2,4.78E2,1.05E2,1.1E1,3E1,1E0,2.95E2,3E0,3.09E2,3.05E2,5E0,8.1E1,2.97E2,2.76E2,2.02E2,7.2E1,3.3E1,1E0,1E1,2.9E1,1E0],"tree_param":{"num_deleted":"0","num_feature":"29","num_nodes":"31","size_leaf_vector":"1"}},{"base_weights":[-3.8773205E1,-2.105598E3,2.4127283E3,-3.63401E3,-1.2506365E3,1.9116656E3,1.2766207E4,8.047712E2,-3.7075688E3,-1.8519755E3,-5.8809076E2,9.862349E2,3.4394458E3,2.224368E4,9.794587E3,-1.9000945E2,4.1057242E2,-2.3359837E2,-1.7366539E2,-9.4926575E1,2.1294812E2,-6.7701225E1,-1.6623167E1,-1.3267792E1,6.0580505E1,1.8323253E2,-4.0165718E1,2.460375E2,1.1896976E3,1.7688745E2,5.6715265E2],"categories":[],"categories_nodes":[],"categories_segments":[],"categories_sizes":[],"default_left":[0,0,0,0,0,0,0,0,0,0,0,0,0,0,0,0,0,0,0,0,0,0,0,0,0,0,0,0,0,0,0],"id":29,"left_children":[1,3,5,7,9,11,13,15,17,19,21,23,25,27,29,-1,-1,-1,-1,-1,-1,-1,-1,-1,-1,-1,-1,-1,-1,-1,-1],"loss_changes":[9.88032E9,1.3779794E9,4.603061E9,1.2673126E8,2.6983283E8,1.2012119E9,9.3683405E8,2.6995722E8,6.804173E7,1.0936806E8,6.318277E7,1.5038685E8,3.0965632E8,1.2461312E8,2.7959194E8,0E0,0E0,0E0,0E0,0E0,0E0,0E0,0E0,0E0,0E0,0E0,0E0,0E0,0E0,0E0,0E0],"parents":[2147483647,0,0,1,1,2,2,3,3,4,4,5,5,6,6,7,7,8,8,9,9,10,10,11,11,12,12,13,13,14,14],"right_children":[2,4,6,8,10,12,14,16,18,20,22,24,26,28,30,-1,-1,-1,-1,-1,-1,-1,-1,-1,-1,-1,-1,-1,-1,-1,-1],"split_conditions":[5.9910387E-2,-9.012051E-1,2.5118902E0,-1.3907015E0,-4.3048555E-1,6.3506615E-1,-8.528049E-2,-9.2527E-2,-1.3931147E0,1.4997967E0,-6.0242844E-1,-9.817753E-1,-2.5512454E-1,-1.0230299E0,1.0963398E0,-1.9000945E2,4.1057242E2,-2.3359837E2,-1.7366539E2,-9.4926575E1,2.1294812E2,-6.7701225E1,-1.6623167E1,-1.3267792E1,6.0580505E1,1.8323253E2,-4.0165718E1,2.460375E2,1.1896976E3,1.7688745E2,5.6715265E2],"split_indices":[7,7,7,1,7,7,20,0,7,23,23,6,3,2,5,0,0,0,0,0,0,0,0,0,0,0,0,0,0,0,0],"split_type":[0,0,0,0,0,0,0,0,0,0,0,0,0,0,0,0,0,0,0,0,0,0,0,0,0,0,0,0,0,0,0],"sum_hessian":[1.948E3,1.057E3,8.91E2,3.78E2,6.79E2,8.51E2,4E1,6E0,3.72E2,3.55E2,3.24E2,5.31E2,3.2E2,8E0,3.2E1,4E0,2E0,6.9E1,3.03E2,3.53E2,2E0,8E1,2.44E2,8.1E1,4.5E2,3.04E2,1.6E1,1E0,7E0,7E0,2.5E1],"tree_param":{"num_deleted":"0","num_feature":"29","num_nodes":"31","size_leaf_vector":"1"}},{"base_weights":[1.1970786E2,-1.5971531E3,2.6959402E3,-3.1595535E3,-5.518205E2,2.2259604E3,1.3338332E4,-3.7148557E3,-2.4244792E3,-1.264348E3,1.0958244E1,1.5275599E3,4.558589E3,2.1614299E4,9.82545E3,-2.2126558E2,-1.7297777E2,-1.2695287E2,1.8281338E1,-3.986949E1,-1.02323616E2,4.3972467E2,-6.192774E0,-1.2689567E2,8.964077E1,2.4583406E2,-5.8105293E1,4.4338217E2,1.1994697E3,5.4132007E2,-5.6183136E1],"categories":[],"categories_nodes":[],"categories_segments":[],"categories_sizes":[],"default_left":[0,0,0,0,0,0,0,0,0,0,0,0,0,0,0,0,0,0,0,0,0,0,0,0,0,0,0,0,0,0,0],"id":30,"left_children":[1,3,5,7,9,11,13,15,17,19,21,23,25,27,29,-1,-1,-1,-1,-1,-1,-1,-1,-1,-1,-1,-1,-1,-1,-1,-1],"loss_changes":[8.682296E9,1.922199E9,3.8966518E9,1.836585E8,2.8351757E8,1.2197558E9,7.4702234E8,3.311872E7,6.678349E7,1.1231658E8,4.700091E8,6.31094E8,3.601106E8,5.9741696E7,2.861532E8,0E0,0E0,0E0,0E0,0E0,0E0,0E0,0E0,0E0,0E0,0E0,0E0,0E0,0E0,0E0,0E0],"parents":[2147483647,0,0,1,1,2,2,3,3,4,4,5,5,6,6,7,7,8,8,9,9,10,10,11,11,12,12,13,13,14,14],"right_children":[2,4,6,8,10,12,14,16,18,20,22,24,26,28,30,-1,-1,-1,-1,-1,-1,-1,-1,-1,-1,-1,-1,-1,-1,-1,-1],"split_conditions":[2.2234596E-1,-7.072321E-1,2.6565046E0,-1.0604872E0,-3.3471859E-1,1.1002014E0,-7.487465E-1,-1.4093404E0,1.3783965E0,-4.0730333E-1,-6.399847E-1,-1.1120049E0,-3.12073E-1,-1.0230299E0,1.7890031E0,-2.2126558E2,-1.7297777E2,-1.2695287E2,1.8281338E1,-3.986949E1,-1.02323616E2,4.3972467E2,-6.192774E0,-1.2689567E2,8.964077E1,2.4583406E2,-5.8105293E1,4.4338217E2,1.1994697E3,5.4132007E2,-5.6183136E1],"split_indices":[11,11,11,11,11,11,3,11,5,12,8,6,28,2,10,0,0,0,0,0,0,0,0,0,0,0,0,0,0,0,0],"split_type":[0,0,0,0,0,0,0,0,0,0,0,0,0,0,0,0,0,0,0,0,0,0,0,0,0,0,0,0,0,0,0],"sum_hessian":[1.961E3,1.177E3,7.84E2,4.71E2,7.06E2,7.52E2,3.2E1,2.66E2,2.05E2,3.11E2,3.95E2,5.8E2,1.72E2,8E0,2.4E1,6.6E1,2E2,1.97E2,8E0,1.96E2,1.15E2,5E0,3.9E2,3.5E1,5.45E2,1.62E2,1E1,2E0,6E0,2.2E1,2E0],"tree_param":{"num_deleted":"0","num_feature":"29","num_nodes":"31","size_leaf_vector":"1"}},{"base_weights":[-3.8707363E1,-1.6185714E3,2.6414724E3,-2.8221006E3,-4.47012E2,2.157965E3,1.1364157E4,-1.448748E3,-3.105341E3,-9.6617676E2,1.9983212E2,1.6206313E3,4.807502E3,1.0933191E3,9.485473E3,-9.741152E1,4.5152197E2,-1.8441026E2,-1.3347675E2,-5.0414227E1,2.1061563E2,7.1790996E0,2.672867E2,-8.82953E1,8.887452E1,2.7691415E2,1.2120919E2,9.052914E1,5.2242194E2],"categories":[],"categories_nodes":[],"categories_segments":[],"categories_sizes":[],"default_left":[0,0,0,0,0,0,0,0,0,0,0,0,0,0,0,0,0,0,0,0,0,0,0,0,0,0,0,0,0],"id":31,"left_children":[1,3,5,7,9,11,13,15,17,19,21,23,25,-1,27,-1,-1,-1,-1,-1,-1,-1,-1,-1,-1,-1,-1,-1,-1],"loss_changes":[8.31201E9,1.7400952E9,3.045804E9,2.3239578E8,2.1075141E8,9.759752E8,5.423411E8,5.724153E8,1.181783E8,8.013021E7,8.0280616E7,3.0911526E8,1.8860954E8,0E0,2.3236454E8,0E0,0E0,0E0,0E0,0E0,0E0,0E0,0E0,0E0,0E0,0E0,0E0,0E0,0E0],"parents":[2147483647,0,0,1,1,2,2,3,3,4,4,5,5,6,6,7,7,8,8,9,9,10,10,11,11,12,12,14,14],"right_children":[2,4,6,8,10,12,14,16,18,20,22,24,26,-1,28,-1,-1,-1,-1,-1,-1,-1,-1,-1,-1,-1,-1,-1,-1],"split_conditions":[2.4153851E-1,-5.455167E-1,2.5118902E0,-1.0715865E0,-1.0279814E-1,1.2631967E0,-1.465862E0,-1.4053987E-2,-1.1373217E0,1.4167336E0,2.2393079E0,-1.1120049E0,1.9052745E0,1.0933191E3,1.0963398E0,-9.741152E1,4.5152197E2,-1.8441026E2,-1.3347675E2,-5.0414227E1,2.1061563E2,7.1790996E0,2.672867E2,-8.82953E1,8.887452E1,2.7691415E2,1.2120919E2,9.052914E1,5.2242194E2],"split_indices":[7,7,7,18,7,7,14,16,7,27,14,6,8,0,5,0,0,0,0,0,0,0,0,0,0,0,0,0,0],"split_type":[0,0,0,0,0,0,0,0,0,0,0,0,0,0,0,0,0,0,0,0,0,0,0,0,0,0,0,0,0],"sum_hessian":[1.961E3,1.234E3,7.27E2,6.08E2,6.26E2,6.9E2,3.7E1,1.05E2,5.03E2,3.47E2,2.79E2,5.75E2,1.15E2,4E0,3.3E1,1.01E2,4E0,2.12E2,2.91E2,3.45E2,2E0,2.77E2,2E0,2.5E1,5.5E2,8.7E1,2.8E1,4E0,2.9E1],"tree_param":{"num_deleted":"0","num_feature":"29","num_nodes":"29","size_leaf_vector":"1"}},{"base_weights":[-4.2440903E1,-1.6384337E3,2.339263E3,-2.7201948E3,-4.943091E2,1.6578336E3,8.415927E3,-3.253171E3,-2.0577458E3,3.6618057E3,-5.531145E2,1.0697347E3,2.9419326E3,6.4511685E3,1.4177484E4,2.644002E2,-1.647731E2,-9.012943E1,-1.8010179E2,3.8290445E2,-1.3379102E1,-5.416217E1,-3.2403412E0,5.697897E1,-1.6011353E2,-2.488422E2,1.5189258E2,3.6935437E2,1.6341885E1,9.242392E2,5.3837976E2],"categories":[],"categories_nodes":[],"categories_segments":[],"categories_sizes":[],"default_left":[0,0,0,0,0,0,0,0,0,0,0,0,0,0,0,0,0,0,0,0,0,0,0,0,0,0,0,0,0,0,0],"id":32,"left_children":[1,3,5,7,9,11,13,15,17,19,21,23,25,27,29,-1,-1,-1,-1,-1,-1,-1,-1,-1,-1,-1,-1,-1,-1,-1,-1],"loss_changes":[7.351518E9,1.4318761E9,3.1993216E9,2.0338278E8,1.3986813E8,5.2472154E8,7.915039E8,1.3590502E8,9.910886E7,1.2767273E8,1.4411818E8,1.471682E8,1.8146253E8,3.4149837E8,8.002432E7,0E0,0E0,0E0,0E0,0E0,0E0,0E0,0E0,0E0,0E0,0E0,0E0,0E0,0E0,0E0,0E0],"parents":[2147483647,0,0,1,1,2,2,3,3,4,4,5,5,6,6,7,7,8,8,9,9,10,10,11,11,12,12,13,13,14,14],"right_children":[2,4,6,8,10,12,14,16,18,20,22,24,26,28,30,-1,-1,-1,-1,-1,-1,-1,-1,-1,-1,-1,-1,-1,-1,-1,-1],"split_conditions":[1.8856364E-1,-5.455167E-1,1.6915364E0,-1.0219703E0,-1.664006E0,7.3328584E-1,3.2611063E0,-1.3907015E0,-9.284364E-3,-2.3831123E-1,-2.4961421E-1,9.771358E-1,-1.2801788E0,1.9055942E0,-9.1402E-2,2.644002E2,-1.647731E2,-9.012943E1,-1.8010179E2,3.8290445E2,-1.3379102E1,-5.416217E1,-3.2403412E0,5.697897E1,-1.6011353E2,-2.488422E2,1.5189258E2,3.6935437E2,1.6341885E1,9.242392E2,5.3837976E2],"split_indices":[7,7,7,11,26,7,7,1,9,16,7,10,6,9,1,0,0,0,0,0,0,0,0,0,0,0,0,0,0,0,0],"split_type":[0,0,0,0,0,0,0,0,0,0,0,0,0,0,0,0,0,0,0,0,0,0,0,0,0,0,0,0,0,0,0],"sum_hessian":[1.932E3,1.157E3,7.75E2,5.94E2,5.63E2,6.98E2,7.7E1,3.27E2,2.67E2,7E0,5.56E2,4.8E2,2.18E2,5.9E1,1.8E1,1E0,3.26E2,2.31E2,3.6E1,3E0,4E0,2.66E2,2.9E2,4.73E2,7E0,2E0,2.16E2,5.1E1,8E0,6E0,1.2E1],"tree_param":{"num_deleted":"0","num_feature":"29","num_nodes":"31","size_leaf_vector":"1"}},{"base_weights":[3.660539E1,-1.3664614E3,2.2836997E3,-2.5165427E3,-2.6813724E2,1.8859863E3,1.0388619E4,-3.0680278E3,-1.8117338E3,2.6197942E3,-3.8923175E2,1.2864774E3,4.023805E3,1.4040295E4,5.1747363E3,2.5779025E2,-1.5544096E2,-6.1956066E1,-1.1767515E2,4.2253143E1,4.7748535E2,-4.778239E1,6.955965E-1,9.400813E1,3.398582E1,2.1834053E2,-7.275293E1,9.17632E2,5.440622E2,3.0810052E2,-5.7872723E1],"categories":[],"categories_nodes":[],"categories_segments":[],"categories_sizes":[],"default_left":[0,0,0,0,0,0,0,0,0,0,0,0,0,0,0,0,0,0,0,0,0,0,0,0,0,0,0,0,0,0,0],"id":33,"left_children":[1,3,5,7,9,11,13,15,17,19,21,23,25,27,29,-1,-1,-1,-1,-1,-1,-1,-1,-1,-1,-1,-1,-1,-1,-1,-1],"loss_changes":[6.176349E9,1.5226988E9,2.4076536E9,2.2338125E8,2.1714214E8,9.163236E8,5.937244E8,1.2639539E8,7.80521E7,2.9939827E8,1.3565146E8,2.0152864E8,3.014011E8,7.275904E7,1.0715798E8,0E0,0E0,0E0,0E0,0E0,0E0,0E0,0E0,0E0,0E0,0E0,0E0,0E0,0E0,0E0,0E0],"parents":[2147483647,0,0,1,1,2,2,3,3,4,4,5,5,6,6,7,7,8,8,9,9,10,10,11,11,12,12,13,13,14,14],"right_children":[2,4,6,8,10,12,14,16,18,20,22,24,26,28,30,-1,-1,-1,-1,-1,-1,-1,-1,-1,-1,-1,-1,-1,-1,-1,-1],"split_conditions":[2.2234596E-1,-5.619683E-1,2.6565046E0,-1.0219703E0,-6.021988E-1,1.1002014E0,-1.0011847E0,-1.3907015E0,-7.027093E-1,1.3783965E0,-2.6725897E-1,-7.3046017E-1,-3.12073E-1,-9.727903E-1,1.9062729E0,2.5779025E2,-1.5544096E2,-6.1956066E1,-1.1767515E2,4.2253143E1,4.7748535E2,-4.778239E1,6.955965E-1,9.400813E1,3.398582E1,2.1834053E2,-7.275293E1,9.17632E2,5.440622E2,3.0810052E2,-5.7872723E1],"split_indices":[11,11,11,11,8,11,23,1,8,5,11,22,28,2,10,0,0,0,0,0,0,0,0,0,0,0,0,0,0,0,0],"split_type":[0,0,0,0,0,0,0,0,0,0,0,0,0,0,0,0,0,0,0,0,0,0,0,0,0,0,0,0,0,0,0],"sum_hessian":[1.957E3,1.205E3,7.52E2,5.88E2,6.17E2,7.18E2,3.4E1,3.28E2,2.6E2,2.4E1,5.93E2,5.62E2,1.56E2,1.9E1,1.5E1,1E0,3.27E2,1.28E2,1.32E2,2E1,4E0,2.46E2,3.47E2,2.83E2,2.79E2,1.47E2,9E0,6E0,1.3E1,1.3E1,2E0],"tree_param":{"num_deleted":"0","num_feature":"29","num_nodes":"31","size_leaf_vector":"1"}},{"base_weights":[5.2992237E1,-1.1586517E3,2.8217866E3,-2.49621E3,-1.7892273E2,1.9853921E3,8.0428115E3,-3.2357432E3,-1.9995035E3,-7.7160016E2,3.075462E2,1.4752449E3,3.0029946E3,1.4682861E4,6.5574653E3,-9.360971E1,-1.6976155E2,-1.0539611E2,3.758138E0,4.299537E2,-4.385459E1,1.7847519E1,-3.405181E2,-1.3915668E2,8.128123E1,-2.4062071E2,1.5627046E2,4.318104E2,8.541268E2,3.561185E2,7.151929E1],"categories":[],"categories_nodes":[],"categories_segments":[],"categories_sizes":[],"default_left":[0,0,0,0,0,0,0,0,0,0,0,0,0,0,0,0,0,0,0,0,0,0,0,0,0,0,0,0,0,0,0],"id":34,"left_children":[1,3,5,7,9,11,13,15,17,19,21,23,25,27,29,-1,-1,-1,-1,-1,-1,-1,-1,-1,-1,-1,-1,-1,-1,-1,-1],"loss_changes":[6.4914396E9,1.763412E9,2.556098E9,2.0254131E8,2.2454958E8,2.5980557E8,7.0260224E8,4.3009024E7,7.731034E7,3.5451552E8,1.5293904E8,2.2289171E8,1.7672653E8,5.5611904E7,1.8676147E8,0E0,0E0,0E0,0E0,0E0,0E0,0E0,0E0,0E0,0E0,0E0,0E0,0E0,0E0,0E0,0E0],"parents":[2147483647,0,0,1,1,2,2,3,3,4,4,5,5,6,6,7,7,8,8,9,9,10,10,11,11,12,12,13,13,14,14],"right_children":[2,4,6,8,10,12,14,16,18,20,22,24,26,28,30,-1,-1,-1,-1,-1,-1,-1,-1,-1,-1,-1,-1,-1,-1,-1,-1],"split_conditions":[4.1641164E-1,-5.6967175E-1,1.7868912E0,-1.1373217E0,-1.0279814E-1,9.075083E-1,-1.3879129E0,-8.134939E-1,1.4074033E0,-1.2068032E0,1.3709143E0,-1.0973736E0,-1.2605333E0,-1.0230299E0,-3.614296E-1,-9.360971E1,-1.6976155E2,-1.0539611E2,3.758138E0,4.299537E2,-4.385459E1,1.7847519E1,-3.405181E2,-1.3915668E2,8.128123E1,-2.4062071E2,1.5627046E2,4.318104E2,8.541268E2,3.561185E2,7.151929E1],"split_indices":[7,11,7,7,7,7,16,14,5,22,5,6,6,2,3,0,0,0,0,0,0,0,0,0,0,0,0,0,0,0,0],"split_type":[0,0,0,0,0,0,0,0,0,0,0,0,0,0,0,0,0,0,0,0,0,0,0,0,0,0,0,0,0,0,0],"sum_hessian":[1.933E3,1.345E3,5.88E2,5.68E2,7.77E2,5.08E2,8E1,2.26E2,3.42E2,3.5E2,4.27E2,3.4E2,1.68E2,1.3E1,6.7E1,2.5E1,2.01E2,3.25E2,1.7E1,3E0,3.47E2,4.25E2,2E0,1.1E1,3.29E2,2E0,1.66E2,5E0,8E0,6E1,7E0],"tree_param":{"num_deleted":"0","num_feature":"29","num_nodes":"31","size_leaf_vector":"1"}},{"base_weights":[5.7380417E1,-1.1722677E3,2.474061E3,-2.196252E3,-2.1319908E2,2.0561543E3,1.190801E4,-2.724922E3,-1.5000334E3,-1.0794478E3,8.4567215E1,1.4680928E3,4.299268E3,1.8666986E4,9.216153E3,-1.3930168E2,1.6899792E2,-8.5368065E1,3.20769E1,-1.7431226E2,-4.3105324E1,1.9768544E-1,1.5644865E2,-6.823436E1,7.997019E1,2.3446497E2,4.7220158E1,1.4462675E2,1.0406986E3,5.1452716E2,3.0248273E2],"categories":[],"categories_nodes":[],"categories_segments":[],"categories_sizes":[],"default_left":[0,0,0,0,0,0,0,0,0,0,0,0,0,0,0,0,0,0,0,0,0,0,0,0,0,0,0,0,0,0,0],"id":35,"left_children":[1,3,5,7,9,11,13,15,17,19,21,23,25,27,29,-1,-1,-1,-1,-1,-1,-1,-1,-1,-1,-1,-1,-1,-1,-1,-1],"loss_changes":[5.8600556E9,1.283099E9,2.5972864E9,2.2853248E8,1.744585E8,8.352671E8,3.3739955E8,1.4297882E8,1.2319731E8,8.749019E7,1.2367943E8,1.9077414E8,1.6829363E8,1.7686758E8,1.2590976E7,0E0,0E0,0E0,0E0,0E0,0E0,0E0,0E0,0E0,0E0,0E0,0E0,0E0,0E0,0E0,0E0],"parents":[2147483647,0,0,1,1,2,2,3,3,4,4,5,5,6,6,7,7,8,8,9,9,10,10,11,11,12,12,13,13,14,14],"right_children":[2,4,6,8,10,12,14,16,18,20,22,24,26,28,30,-1,-1,-1,-1,-1,-1,-1,-1,-1,-1,-1,-1,-1,-1,-1,-1],"split_conditions":[3.3992043E-1,-5.220564E-1,2.887255E0,-9.496393E-1,-1.7529017E-1,1.3691465E0,-1.465862E0,2.3076138E-1,1.3990015E0,-1.4521563E0,2.67225E-1,-1.0973736E0,2.2378457E0,-1.0230299E0,-1.0011847E0,-1.3930168E2,1.6899792E2,-8.5368065E1,3.20769E1,-1.7431226E2,-4.3105324E1,1.9768544E-1,1.5644865E2,-6.823436E1,7.997019E1,2.3446497E2,4.7220158E1,1.4462675E2,1.0406986E3,5.1452716E2,3.0248273E2],"split_indices":[7,7,7,7,27,7,14,15,5,19,5,6,12,2,23,0,0,0,0,0,0,0,0,0,0,0,0,0,0,0,0],"split_type":[0,0,0,0,0,0,0,0,0,0,0,0,0,0,0,0,0,0,0,0,0,0,0,0,0,0,0,0,0,0,0],"sum_hessian":[1.97E3,1.306E3,6.64E2,6.31E2,6.75E2,6.37E2,2.7E1,3.57E2,2.74E2,1.72E2,5.03E2,5.06E2,1.31E2,6E0,2.1E1,3.54E2,3E0,2.5E2,2.4E1,1.3E1,1.59E2,4.91E2,1.2E1,2.2E1,4.84E2,1.17E2,1.4E1,1E0,5E0,1.4E1,7E0],"tree_param":{"num_deleted":"0","num_feature":"29","num_nodes":"31","size_leaf_vector":"1"}},{"base_weights":[-3.9508194E1,-1.5968591E3,1.5455197E3,-2.537999E3,-1.0120465E3,1.0597035E3,6.5877065E3,9.787846E2,-2.5981611E3,-1.5576279E3,-5.911273E2,5.9031244E2,2.060301E3,8.190198E2,5.7605693E3,-1.5589157E2,3.7401083E2,-1.7380931E2,-1.18975746E2,-4.8321327E1,-1.10893814E2,-4.7384277E1,-7.9962664E0,3.5357693E1,-5.2719135E1,1.1340938E2,-4.5191994E1,3.786727E2,2.0731892E2],"categories":[],"categories_nodes":[],"categories_segments":[],"categories_sizes":[],"default_left":[0,0,0,0,0,0,0,0,0,0,0,0,0,0,0,0,0,0,0,0,0,0,0,0,0,0,0,0,0],"id":36,"left_children":[1,3,5,7,9,11,13,15,17,19,21,23,25,-1,27,-1,-1,-1,-1,-1,-1,-1,-1,-1,-1,-1,-1,-1,-1],"loss_changes":[4.771503E9,5.3406208E8,2.339713E9,8.14615E7,1.3755558E8,4.0974624E8,5.860311E8,2.0975912E8,6.218368E7,1.0012557E8,5.243049E7,1.1547022E8,1.7397133E8,0E0,1.9977856E8,0E0,0E0,0E0,0E0,0E0,0E0,0E0,0E0,0E0,0E0,0E0,0E0,0E0,0E0],"parents":[2147483647,0,0,1,1,2,2,3,3,4,4,5,5,6,6,7,7,8,8,9,9,10,10,11,11,12,12,14,14],"right_children":[2,4,6,8,10,12,14,16,18,20,22,24,26,-1,28,-1,-1,-1,-1,-1,-1,-1,-1,-1,-1,-1,-1,-1,-1],"split_conditions":[-9.713728E-3,-9.012051E-1,1.6915364E0,-1.3907015E0,-4.00187E-2,6.265313E-1,-1.4498187E0,-9.2527E-2,-1.3931147E0,-9.004992E-1,-4.047549E-1,8.9857465E-1,-2.319626E-1,8.190198E2,5.71026E-1,-1.5589157E2,3.7401083E2,-1.7380931E2,-1.18975746E2,-4.8321327E1,-1.10893814E2,-4.7384277E1,-7.9962664E0,3.5357693E1,-5.2719135E1,1.1340938E2,-4.5191994E1,3.786727E2,2.0731892E2],"split_indices":[7,7,7,1,27,7,14,0,7,23,7,9,3,0,0,0,0,0,0,0,0,0,0,0,0,0,0,0,0],"split_type":[0,0,0,0,0,0,0,0,0,0,0,0,0,0,0,0,0,0,0,0,0,0,0,0,0,0,0,0,0],"sum_hessian":[1.931E3,9.74E2,9.57E2,3.72E2,6.02E2,8.74E2,8.3E1,6E0,3.66E2,2.61E2,3.41E2,5.96E2,2.78E2,5E0,7.8E1,4E0,2E0,7E1,2.96E2,1.39E2,1.22E2,1.86E2,1.55E2,5.57E2,3.9E1,2.6E2,1.8E1,3.5E1,4.3E1],"tree_param":{"num_deleted":"0","num_feature":"29","num_nodes":"29","size_leaf_vector":"1"}},{"base_weights":[-1.0776694E1,-8.484938E2,2.4783638E3,-1.9196599E3,9.99642E1,1.9535365E3,7.1405205E3,-2.5237397E3,-1.3377738E3,-8.927344E2,3.1241623E2,1.4039878E3,3.0734143E3,1.0755541E4,4.8839307E3,-1.5984627E2,-1.167842E2,-8.968738E1,-3.843624E1,-1.4406085E2,1.4843134E1,-4.346944E1,2.7010447E1,9.661181E1,-1.4264396E0,1.6960408E2,-7.6796814E1,1.20535545E2,5.5523035E2,2.8295334E2,-9.783965E1],"categories":[],"categories_nodes":[],"categories_segments":[],"categories_sizes":[],"default_left":[0,0,0,0,0,0,0,0,0,0,0,0,0,0,0,0,0,0,0,0,0,0,0,0,0,0,0,0,0,0,0],"id":37,"left_children":[1,3,5,7,9,11,13,15,17,19,21,23,25,27,29,-1,-1,-1,-1,-1,-1,-1,-1,-1,-1,-1,-1,-1,-1,-1,-1],"loss_changes":[4.0411267E9,1.4733284E9,1.1801027E9,2.3599898E8,1.6267254E8,2.6647296E8,3.471941E8,3.468979E7,8.917658E7,3.2256243E8,1.7141579E8,2.2480224E8,2.1672435E8,2.5662208E7,1.8075354E8,0E0,0E0,0E0,0E0,0E0,0E0,0E0,0E0,0E0,0E0,0E0,0E0,0E0,0E0,0E0,0E0],"parents":[2147483647,0,0,1,1,2,2,3,3,4,4,5,5,6,6,7,7,8,8,9,9,10,10,11,11,12,12,13,13,14,14],"right_children":[2,4,6,8,10,12,14,16,18,20,22,24,26,28,30,-1,-1,-1,-1,-1,-1,-1,-1,-1,-1,-1,-1,-1,-1,-1,-1],"split_conditions":[5.412817E-1,-4.3871424E-1,2.3395379E0,-9.889558E-1,-1.1120049E0,1.1002014E0,-4.6627156E-2,-1.4093404E0,2.2301966E-1,-8.53467E-2,-1.3324115E0,8.0933005E-1,-3.12073E-1,1.4317788E0,1.9062729E0,-1.5984627E2,-1.167842E2,-8.968738E1,-3.843624E1,-1.4406085E2,1.4843134E1,-4.346944E1,2.7010447E1,9.661181E1,-1.4264396E0,1.6960408E2,-7.6796814E1,1.20535545E2,5.5523035E2,2.8295334E2,-9.783965E1],"split_indices":[11,11,11,11,6,11,17,11,25,25,18,9,28,9,10,0,0,0,0,0,0,0,0,0,0,0,0,0,0,0,0],"split_type":[0,0,0,0,0,0,0,0,0,0,0,0,0,0,0,0,0,0,0,0,0,0,0,0,0,0,0,0,0,0,0],"sum_hessian":[1.936E3,1.449E3,4.87E2,6.8E2,7.69E2,4.39E2,4.8E1,3.32E2,3.48E2,1.35E2,6.34E2,2.96E2,1.43E2,1.7E1,3.1E1,6.9E1,2.63E2,1.92E2,1.56E2,5E1,8.5E1,1.02E2,5.32E2,2.16E2,8E1,1.34E2,9E0,1E0,1.6E1,2.8E1,3E0],"tree_param":{"num_deleted":"0","num_feature":"29","num_nodes":"31","size_leaf_vector":"1"}},{"base_weights":[4.8597553E1,-1.2605311E3,1.2851677E3,-2.294606E3,-6.981253E2,4.6592407E2,2.7757053E3,3.5602905E3,-2.3773662E3,-2.1334797E3,-4.051477E2,-7.322085E2,8.2321234E2,1.3845869E3,5.1119844E3,6.2460285E1,2.3423059E2,-1.2099281E2,1.4603972E1,-1.372557E2,-3.121788E1,-1.1450769E1,-7.89281E1,-9.873922E1,3.2159374E1,1.1285492E2,3.212582E1,4.994946E1,3.319618E2,9.374389E2,2.3229488E2],"categories":[],"categories_nodes":[],"categories_segments":[],"categories_sizes":[],"default_left":[0,0,0,0,0,0,0,0,0,0,0,0,0,0,0,0,0,0,0,0,0,0,0,0,0,0,0,0,0,0,0],"id":38,"left_children":[1,3,5,7,9,11,13,15,17,19,21,23,25,27,29,-1,-1,-1,-1,-1,-1,-1,-1,-1,-1,-1,-1,-1,-1,-1,-1],"loss_changes":[3.125961E9,5.4391066E8,1.2112722E9,1.683666E8,2.5523635E8,2.754293E8,1.1369364E9,7.139964E6,3.768333E7,9.335824E7,1.04423304E8,2.5420714E8,1.2680301E8,4.4317955E8,7.455224E8,0E0,0E0,0E0,0E0,0E0,0E0,0E0,0E0,0E0,0E0,0E0,0E0,0E0,0E0,0E0,0E0],"parents":[2147483647,0,0,1,1,2,2,3,3,4,4,5,5,6,6,7,7,8,8,9,9,10,10,11,11,12,12,13,13,14,14],"right_children":[2,4,6,8,10,12,14,16,18,20,22,24,26,28,30,-1,-1,-1,-1,-1,-1,-1,-1,-1,-1,-1,-1,-1,-1,-1,-1],"split_conditions":[-1.1098191E-1,-1.0027295E0,9.3854856E-1,-1.3907015E0,-1.2982966E0,-1.0786239E0,9.8152053E-1,-1.6136675E0,9.1549397E-1,-6.396754E-2,2.0936374E-2,4.883142E-1,-1.0545976E0,1.5481732E0,-1.4468365E0,6.2460285E1,2.3423059E2,-1.2099281E2,1.4603972E1,-1.372557E2,-3.121788E1,-1.1450769E1,-7.89281E1,-9.873922E1,3.2159374E1,1.1285492E2,3.212582E1,4.994946E1,3.319618E2,9.374389E2,2.3229488E2],"split_indices":[8,8,5,1,6,6,12,1,10,27,10,19,15,13,16,0,0,0,0,0,0,0,0,0,0,0,0,0,0,0,0],"split_type":[0,0,0,0,0,0,0,0,0,0,0,0,0,0,0,0,0,0,0,0,0,0,0,0,0,0,0,0,0,0,0],"sum_hessian":[1.929E3,9.37E2,9.92E2,3.29E2,6.08E2,6.41E2,3.51E2,4E0,3.25E2,1.02E2,5.06E2,1.47E2,4.94E2,2.21E2,1.3E2,2E0,2E0,3.2E2,5E0,7.2E1,3E1,4.41E2,6.5E1,7.7E1,7E1,5.4E1,4.4E2,2.07E2,1.4E1,3E0,1.27E2],"tree_param":{"num_deleted":"0","num_feature":"29","num_nodes":"31","size_leaf_vector":"1"}},{"base_weights":[6.868196E1,-8.3749615E2,2.5600847E3,-1.8034803E3,1.9080502E1,2.1634844E3,1.0385425E4,-2.4824304E3,-1.4455146E3,-4.7579657E2,3.700536E2,1.5412594E3,3.976724E3,1.6495738E4,7.4322246E3,-1.4392175E2,-1.0715261E2,-2.0185589E1,-8.10446E1,1.8235004E2,-2.7135044E1,-2.770772E2,2.1928493E1,9.76231E1,1.5439494E1,2.2744104E2,-2.0374323E1,9.4086136E1,9.3088934E2,1.5679518E2,3.8866354E2],"categories":[],"categories_nodes":[],"categories_segments":[],"categories_sizes":[],"default_left":[0,0,0,0,0,0,0,0,0,0,0,0,0,0,0,0,0,0,0,0,0,0,0,0,0,0,0,0,0,0,0],"id":39,"left_children":[1,3,5,7,9,11,13,15,17,19,21,23,25,27,29,-1,-1,-1,-1,-1,-1,-1,-1,-1,-1,-1,-1,-1,-1,-1,-1],"loss_changes":[4.2578232E9,1.1443835E9,1.5386089E9,1.5438784E8,1.2766345E8,5.3542733E8,3.104796E8,2.38016E7,7.754496E7,8.610824E7,1.7659782E8,1.8133632E8,3.078528E8,1.82048E8,1.998208E6,0E0,0E0,0E0,0E0,0E0,0E0,0E0,0E0,0E0,0E0,0E0,0E0,0E0,0E0,0E0,0E0],"parents":[2147483647,0,0,1,1,2,2,3,3,4,4,5,5,6,6,7,7,8,8,9,9,10,10,11,11,12,12,13,13,14,14],"right_children":[2,4,6,8,10,12,14,16,18,20,22,24,26,28,30,-1,-1,-1,-1,-1,-1,-1,-1,-1,-1,-1,-1,-1,-1,-1,-1],"split_conditions":[4.9560767E-1,-4.6983832E-1,2.887255E0,-1.0919147E0,-9.713728E-3,1.3691465E0,-9.894357E-1,-2.4377507E-1,-9.802202E-1,-1.2278006E0,-1.4521563E0,8.0933005E-1,1.9055942E0,-7.132078E-1,-1.432081E0,-1.4392175E2,-1.0715261E2,-2.0185589E1,-8.10446E1,1.8235004E2,-2.7135044E1,-2.770772E2,2.1928493E1,9.76231E1,1.5439494E1,2.2744104E2,-2.0374323E1,9.4086136E1,9.3088934E2,1.5679518E2,3.8866354E2],"split_indices":[7,7,7,7,7,7,2,19,2,22,19,9,9,4,13,0,0,0,0,0,0,0,0,0,0,0,0,0,0,0,0],"split_type":[0,0,0,0,0,0,0,0,0,0,0,0,0,0,0,0,0,0,0,0,0,0,0,0,0,0,0,0,0,0,0],"sum_hessian":[1.884E3,1.382E3,5.02E2,6.49E2,7.33E2,4.79E2,2.3E1,2.22E2,4.27E2,3.04E2,4.29E2,3.58E2,1.21E2,6E0,1.7E1,9.9E1,1.23E2,6.2E1,3.65E2,4E0,3E2,4E0,4.25E2,2.68E2,9E1,1.07E2,1.4E1,1E0,5E0,2E0,1.5E1],"tree_param":{"num_deleted":"0","num_feature":"29","num_nodes":"31","size_leaf_vector":"1"}},{"base_weights":[5.4279728E1,-6.315883E2,2.8671084E3,-1.8189312E3,9.917189E1,2.3279207E3,1.0015133E4,-2.2695554E3,-1.3217426E3,-5.683041E2,4.3591187E2,2.0690457E3,6.495905E3,1.5817375E4,7.483591E3,-1.452428E2,-1.0178315E2,1.4909874E2,-6.973277E1,3.8258322E2,-3.2203194E1,-2.4273174E2,2.4284254E1,7.209652E1,1.5727554E2,1.4475076E2,4.5894516E2,2.3725208E2,9.6486505E2,4.178867E2,2.3331111E2],"categories":[],"categories_nodes":[],"categories_segments":[],"categories_sizes":[],"default_left":[0,0,0,0,0,0,0,0,0,0,0,0,0,0,0,0,0,0,0,0,0,0,0,0,0,0,0,0,0,0,0],"id":40,"left_children":[1,3,5,7,9,11,13,15,17,19,21,23,25,27,29,-1,-1,-1,-1,-1,-1,-1,-1,-1,-1,-1,-1,-1,-1,-1,-1],"loss_changes":[3.6904973E9,1.3346458E9,1.4219835E9,1.2829082E8,2.1444958E8,3.6420493E8,2.6353331E8,3.955584E7,9.233555E7,2.0420584E8,1.6930757E8,2.1891187E8,1.6665062E8,1.7814976E8,1.025664E7,0E0,0E0,0E0,0E0,0E0,0E0,0E0,0E0,0E0,0E0,0E0,0E0,0E0,0E0,0E0,0E0],"parents":[2147483647,0,0,1,1,2,2,3,3,4,4,5,5,6,6,7,7,8,8,9,9,10,10,11,11,12,12,13,13,14,14],"right_children":[2,4,6,8,10,12,14,16,18,20,22,24,26,28,30,-1,-1,-1,-1,-1,-1,-1,-1,-1,-1,-1,-1,-1,-1,-1,-1],"split_conditions":[6.265313E-1,-5.455167E-1,2.887255E0,-1.0318747E0,-1.1809149E-1,2.653433E0,-9.894357E-1,-1.3704112E0,-1.1660795E0,-1.2278006E0,-1.4521563E0,1.1897887E0,-6.806098E-1,-1.0230299E0,-8.396437E-1,-1.452428E2,-1.0178315E2,1.4909874E2,-6.973277E1,3.8258322E2,-3.2203194E1,-2.4273174E2,2.4284254E1,7.209652E1,1.5727554E2,1.4475076E2,4.5894516E2,2.3725208E2,9.6486505E2,4.178867E2,2.3331111E2],"split_indices":[7,7,7,11,7,18,2,7,7,22,19,7,3,2,2,0,0,0,0,0,0,0,0,0,0,0,0,0,0,0,0],"split_type":[0,0,0,0,0,0,0,0,0,0,0,0,0,0,0,0,0,0,0,0,0,0,0,0,0,0,0,0,0,0,0],"sum_hessian":[1.911E3,1.537E3,3.74E2,5.85E2,9.52E2,3.49E2,2.5E1,3.05E2,2.8E2,3.19E2,6.33E2,3.3E2,1.9E1,6E0,1.9E1,7.9E1,2.26E2,4E0,2.76E2,2E0,3.17E2,5E0,6.28E2,2.1E2,1.2E2,9E0,1E1,2E0,4E0,1.3E1,6E0],"tree_param":{"num_deleted":"0","num_feature":"29","num_nodes":"31","size_leaf_vector":"1"}},{"base_weights":[8.982571E0,-9.0521985E2,1.7912443E3,-1.7247502E3,-2.4437405E2,1.4962737E3,9.152852E3,-1.8831971E3,6.734551E2,-6.0011383E1,-8.845962E2,1.2139694E3,3.8503535E3,1.5102079E4,6.4793022E3,-1.2662874E2,-8.434057E1,-8.998945E1,8.183763E2,-2.6863617E1,1.5424293E1,5.1823574E1,-5.773224E1,-4.9698086E1,6.899402E1,2.2182593E2,-5.135901E1,8.5802734E1,8.523537E2,4.0048244E1,3.375134E2],"categories":[],"categories_nodes":[],"categories_segments":[],"categories_sizes":[],"default_left":[0,0,0,0,0,0,0,0,0,0,0,0,0,0,0,0,0,0,0,0,0,0,0,0,0,0,0,0,0,0,0],"id":41,"left_children":[1,3,5,7,9,11,13,15,17,19,21,23,25,27,29,-1,-1,-1,-1,-1,-1,-1,-1,-1,-1,-1,-1,-1,-1,-1,-1],"loss_changes":[3.1430042E9,6.9009696E8,1.406438E9,2.174816E8,8.339629E7,4.140028E8,2.997879E8,6.3828224E7,1.4268077E9,9.689387E7,8.316425E7,2.0797613E8,1.961129E8,1.529966E8,2.3827264E7,0E0,0E0,0E0,0E0,0E0,0E0,0E0,0E0,0E0,0E0,0E0,0E0,0E0,0E0,0E0,0E0],"parents":[2147483647,0,0,1,1,2,2,3,3,4,4,5,5,6,6,7,7,8,8,9,9,10,10,11,11,12,12,13,13,14,14],"right_children":[2,4,6,8,10,12,14,16,18,20,22,24,26,28,30,-1,-1,-1,-1,-1,-1,-1,-1,-1,-1,-1,-1,-1,-1,-1,-1],"split_conditions":[3.3235258E-1,-5.5762523E-1,2.887255E0,1.3905112E0,3.4786567E-1,1.626453E0,-1.465862E0,-1.279597E0,-8.095808E-1,-2.2412004E-1,-4.0730333E-1,-1.0671318E0,1.9055942E0,-1.0230299E0,-1.4498187E0,-1.2662874E2,-8.434057E1,-8.998945E1,8.183763E2,-2.6863617E1,1.5424293E1,5.1823574E1,-5.773224E1,-4.9698086E1,6.899402E1,2.2182593E2,-5.135901E1,8.5802734E1,8.523537E2,4.0048244E1,3.375134E2],"split_indices":[7,7,7,5,5,7,14,7,25,11,12,6,9,2,14,0,0,0,0,0,0,0,0,0,0,0,0,0,0,0,0],"split_type":[0,0,0,0,0,0,0,0,0,0,0,0,0,0,0,0,0,0,0,0,0,0,0,0,0,0,0,0,0,0,0],"sum_hessian":[1.927E3,1.274E3,6.53E2,5.68E2,7.06E2,6.29E2,2.4E1,5.33E2,3.5E1,5.49E2,1.57E2,5.63E2,6.6E1,6E0,1.8E1,1.21E2,4.12E2,3.1E1,4E0,2.39E2,3.1E2,1.9E1,1.38E2,3.9E1,5.24E2,5.9E1,7E0,1E0,5E0,1E0,1.7E1],"tree_param":{"num_deleted":"0","num_feature":"29","num_nodes":"31","size_leaf_vector":"1"}},{"base_weights":[-1.6211908E0,-8.591855E2,1.7485676E3,-1.9211149E3,-3.992787E2,1.365867E3,6.9945137E3,-2.656397E3,-1.741658E3,-8.1169464E2,1.11637764E2,8.91053E2,2.3865232E3,9.372421E3,4.2986743E3,-1.3566873E2,-1.92237E1,-8.229762E1,-1.3560954E2,-3.573838E1,-1.08378685E2,-1.5055482E2,1.07194395E1,3.973057E1,1.9996855E2,2.1022757E2,8.665835E1,3.610357E2,5.839071E2,2.4982866E2,-8.934382E1],"categories":[],"categories_nodes":[],"categories_segments":[],"categories_sizes":[],"default_left":[0,0,0,0,0,0,0,0,0,0,0,0,0,0,0,0,0,0,0,0,0,0,0,0,0,0,0,0,0,0,0],"id":42,"left_children":[1,3,5,7,9,11,13,15,17,19,21,23,25,27,29,-1,-1,-1,-1,-1,-1,-1,-1,-1,-1,-1,-1,-1,-1,-1,-1],"loss_changes":[2.902741E9,6.3316134E8,1.2672975E9,4.709837E7,1.9120467E8,2.8573875E8,2.3536051E8,8.665408E6,2.5073408E7,6.442419E7,1.3091641E8,1.188289E8,2.160231E8,2.4822784E7,1.0236442E8,0E0,0E0,0E0,0E0,0E0,0E0,0E0,0E0,0E0,0E0,0E0,0E0,0E0,0E0,0E0,0E0],"parents":[2147483647,0,0,1,1,2,2,3,3,4,4,5,5,6,6,7,7,8,8,9,9,10,10,11,11,12,12,13,13,14,14],"right_children":[2,4,6,8,10,12,14,16,18,20,22,24,26,28,30,-1,-1,-1,-1,-1,-1,-1,-1,-1,-1,-1,-1,-1,-1,-1,-1],"split_conditions":[3.3235258E-1,-8.785016E-1,2.5118902E0,-1.3931147E0,-2.1934286E-1,9.4875306E-1,-1.0011847E0,1.0808182E0,-7.835712E-1,-1.298344E-2,-1.4521563E0,1.4063488E0,7.157739E-1,-1.3639301E0,1.9062729E0,-1.3566873E2,-1.92237E1,-8.229762E1,-1.3560954E2,-3.573838E1,-1.08378685E2,-1.5055482E2,1.07194395E1,3.973057E1,1.9996855E2,2.1022757E2,8.665835E1,3.610357E2,5.839071E2,2.4982866E2,-8.934382E1],"split_indices":[7,7,7,7,7,7,23,5,8,8,19,5,8,15,10,0,0,0,0,0,0,0,0,0,0,0,0,0,0,0,0],"split_type":[0,0,0,0,0,0,0,0,0,0,0,0,0,0,0,0,0,0,0,0,0,0,0,0,0,0,0,0,0,0,0],"sum_hessian":[1.932E3,1.297E3,6.35E2,3.91E2,9.06E2,5.93E2,4.2E1,7.4E1,3.17E2,5.01E2,4.05E2,4.06E2,1.87E2,2.1E1,2.1E1,7.2E1,2E0,2.91E2,2.6E1,4.69E2,3.2E1,1.2E1,3.93E2,3.95E2,1.1E1,4.8E1,1.39E2,1.3E1,8E0,1.9E1,2E0],"tree_param":{"num_deleted":"0","num_feature":"29","num_nodes":"31","size_leaf_vector":"1"}},{"base_weights":[4.1732983E1,-8.961858E2,1.4419696E3,-1.7937196E3,-4.8159628E2,1.0813489E3,6.707042E3,-1.8402963E3,2.9164683E3,-9.0088544E2,-6.5273766E1,1.5323533E3,3.0061432E2,1.5015022E4,5.4502656E3,-1.14408035E2,-8.129916E1,3.396968E2,-2.1789839E2,-3.515112E1,-1.1339547E2,-5.1674876E0,2.522987E2,6.936676E1,2.1294518E2,2.602664E1,-2.0435228E2,7.4631645E1,8.7104865E2,3.0510223E2,9.834799E0],"categories":[],"categories_nodes":[],"categories_segments":[],"categories_sizes":[],"default_left":[0,0,0,0,0,0,0,0,0,0,0,0,0,0,0,0,0,0,0,0,0,0,0,0,0,0,0,0,0,0,0],"id":43,"left_children":[1,3,5,7,9,11,13,15,17,19,21,23,25,27,29,-1,-1,-1,-1,-1,-1,-1,-1,-1,-1,-1,-1,-1,-1,-1,-1],"loss_changes":[2.5635566E9,4.3413056E8,1.4794248E9,8.632013E7,1.3976338E8,2.5799162E8,4.4022784E8,3.140928E7,1.4243333E8,1.0632858E8,7.895166E7,1.7795187E8,2.6265782E8,1.6920205E8,1.528873E8,0E0,0E0,0E0,0E0,0E0,0E0,0E0,0E0,0E0,0E0,0E0,0E0,0E0,0E0,0E0,0E0],"parents":[2147483647,0,0,1,1,2,2,3,3,4,4,5,5,6,6,7,7,8,8,9,9,10,10,11,11,12,12,13,13,14,14],"right_children":[2,4,6,8,10,12,14,16,18,20,22,24,26,28,30,-1,-1,-1,-1,-1,-1,-1,-1,-1,-1,-1,-1,-1,-1,-1,-1],"split_conditions":[2.006722E-1,-9.496393E-1,2.3529656E0,2.3076138E-1,-3.5632074E-1,-3.12073E-1,-1.465862E0,-1.2947327E0,-1.3907015E0,-4.097266E-2,2.2393079E0,1.4063488E0,8.8542485E-1,-1.0230299E0,1.6942853E0,-1.14408035E2,-8.129916E1,3.396968E2,-2.1789839E2,-3.515112E1,-1.1339547E2,-5.1674876E0,2.522987E2,6.936676E1,2.1294518E2,2.602664E1,-2.0435228E2,7.4631645E1,8.7104865E2,3.0510223E2,9.834799E0],"split_indices":[7,7,7,15,7,28,14,7,1,9,14,5,10,2,10,0,0,0,0,0,0,0,0,0,0,0,0,0,0,0,0],"split_type":[0,0,0,0,0,0,0,0,0,0,0,0,0,0,0,0,0,0,0,0,0,0,0,0,0,0,0,0,0,0,0],"sum_hessian":[1.95E3,1.168E3,7.82E2,3.68E2,8E2,7.33E2,4.9E1,3.65E2,3E0,3.98E2,4.02E2,4.64E2,2.69E2,5E0,4.4E1,1.15E2,2.5E2,2E0,1E0,3.49E2,4.9E1,4E2,2E0,4.42E2,2.2E1,2.57E2,1.2E1,1E0,4E0,3.9E1,5E0],"tree_param":{"num_deleted":"0","num_feature":"29","num_nodes":"31","size_leaf_vector":"1"}},{"base_weights":[6.2224205E1,-4.7248618E2,2.4970796E3,-1.3458322E3,1.5308356E2,2.0817024E3,9.470789E3,-1.8300874E2,-1.5971465E3,-2.2568759E2,4.9516043E2,1.724995E3,4.9879937E3,1.4421886E4,6.672406E3,-4.3502834E1,4.07912E2,-8.869327E1,-3.7366043E1,1.5069237E2,-1.4299707E1,-2.3276128E2,2.741663E1,7.206678E1,2.1190051E2,3.724438E2,9.720925E1,7.276582E1,8.3620685E2,2.2393555E1,3.5583823E2],"categories":[],"categories_nodes":[],"categories_segments":[],"categories_sizes":[],"default_left":[0,0,0,0,0,0,0,0,0,0,0,0,0,0,0,0,0,0,0,0,0,0,0,0,0,0,0,0,0,0,0],"id":44,"left_children":[1,3,5,7,9,11,13,15,17,19,21,23,25,27,29,-1,-1,-1,-1,-1,-1,-1,-1,-1,-1,-1,-1,-1,-1,-1,-1],"loss_changes":[2.4800783E9,8.535872E8,9.738592E8,1.9024435E8,1.1814898E8,3.2832192E8,1.670176E8,6.7760614E8,7.917094E7,8.5455064E7,1.3373017E8,2.0132813E8,2.4768384E8,1.5477491E8,3.553555E7,0E0,0E0,0E0,0E0,0E0,0E0,0E0,0E0,0E0,0E0,0E0,0E0,0E0,0E0,0E0,0E0],"parents":[2147483647,0,0,1,1,2,2,3,3,4,4,5,5,6,6,7,7,8,8,9,9,10,10,11,11,12,12,13,13,14,14],"right_children":[2,4,6,8,10,12,14,16,18,20,22,24,26,28,30,-1,-1,-1,-1,-1,-1,-1,-1,-1,-1,-1,-1,-1,-1,-1,-1],"split_conditions":[6.653375E-1,-4.6983832E-1,3.2611063E0,-1.0715865E0,1.4618374E-1,1.1116025E0,-9.894357E-1,-1.142625E0,3.1131446E-1,-1.664006E0,-1.4521563E0,1.4018705E0,1.4306834E0,-1.0230299E0,-1.432081E0,-4.3502834E1,4.07912E2,-8.869327E1,-3.7366043E1,1.5069237E2,-1.4299707E1,-2.3276128E2,2.741663E1,7.206678E1,2.1190051E2,3.724438E2,9.720925E1,7.276582E1,8.3620685E2,2.2393555E1,3.5583823E2],"split_indices":[7,7,7,18,7,19,2,18,20,26,19,5,8,2,13,0,0,0,0,0,0,0,0,0,0,0,0,0,0,0,0],"split_type":[0,0,0,0,0,0,0,0,0,0,0,0,0,0,0,0,0,0,0,0,0,0,0,0,0,0,0,0,0,0,0],"sum_hessian":[1.903E3,1.561E3,3.42E2,6.51E2,9.1E2,3.24E2,1.8E1,1.16E2,5.35E2,4.32E2,4.78E2,2.9E2,3.4E1,5E0,1.3E1,1.08E2,8E0,4.42E2,9.3E1,7E0,4.25E2,4E0,4.74E2,2.62E2,2.8E1,1.8E1,1.6E1,1E0,4E0,1E0,1.2E1],"tree_param":{"num_deleted":"0","num_feature":"29","num_nodes":"31","size_leaf_vector":"1"}},{"base_weights":[2.7229351E1,-3.8063766E2,2.9942139E3,-1.283097E3,2.5554791E2,2.3311382E3,7.966897E3,-1.913824E3,-9.649919E2,2.1441562E2,3.6071006E3,2.6210327E3,-3.6131064E2,1.2872287E4,5.952391E3,-3.7243336E1,-1.0038943E2,-5.4357227E1,2.0328154E1,-3.141995E1,1.7172438E1,3.3139807E2,2.5124554E1,1.0629339E2,2.2855013E2,7.105223E1,-9.0824875E1,1.6383568E2,8.027587E2,1.0839545E2,3.1183286E2],"categories":[],"categories_nodes":[],"categories_segments":[],"categories_sizes":[],"default_left":[0,0,0,0,0,0,0,0,0,0,0,0,0,0,0,0,0,0,0,0,0,0,0,0,0,0,0,0,0,0,0],"id":45,"left_children":[1,3,5,7,9,11,13,15,17,19,21,23,25,27,29,-1,-1,-1,-1,-1,-1,-1,-1,-1,-1,-1,-1,-1,-1,-1,-1],"loss_changes":[2.33307E9,9.7348096E8,7.4969075E8,1.388E8,1.3639437E8,1.6251597E8,1.9019149E8,2.4207232E7,7.88503E7,1.07226824E8,1.0921264E8,1.7084186E8,5.704818E7,1.6118323E8,9.071232E6,0E0,0E0,0E0,0E0,0E0,0E0,0E0,0E0,0E0,0E0,0E0,0E0,0E0,0E0,0E0,0E0],"parents":[2147483647,0,0,1,1,2,2,3,3,4,4,5,5,6,6,7,7,8,8,9,9,10,10,11,11,12,12,13,13,14,14],"right_children":[2,4,6,8,10,12,14,16,18,20,22,24,26,28,30,-1,-1,-1,-1,-1,-1,-1,-1,-1,-1,-1,-1,-1,-1,-1,-1],"split_conditions":[9.4875306E-1,-4.244313E-1,2.887255E0,-1.0919147E0,1.407957E0,1.9055942E0,-1.465862E0,-9.644472E-1,1.3978176E0,-1.0715865E0,5.719538E-1,2.116849E0,1.4296892E0,-7.132078E-1,-9.130119E-2,-3.7243336E1,-1.0038943E2,-5.4357227E1,2.0328154E1,-3.141995E1,1.7172438E1,3.3139807E2,2.5124554E1,1.0629339E2,2.2855013E2,7.105223E1,-9.0824875E1,1.6383568E2,8.027587E2,1.0839545E2,3.1183286E2],"split_indices":[7,7,7,7,5,9,14,15,5,18,10,7,7,4,17,0,0,0,0,0,0,0,0,0,0,0,0,0,0,0,0],"split_type":[0,0,0,0,0,0,0,0,0,0,0,0,0,0,0,0,0,0,0,0,0,0,0,0,0,0,0,0,0,0,0],"sum_hessian":[1.926E3,1.694E3,2.32E2,7E2,9.94E2,2.06E2,2.6E1,2.33E2,4.67E2,9.83E2,1.1E1,1.86E2,2E1,6E0,2E1,1.8E1,2.15E2,4.29E2,3.8E1,1.3E2,8.53E2,5E0,6E0,1.5E2,3.6E1,9E0,1.1E1,2E0,4E0,2E0,1.8E1],"tree_param":{"num_deleted":"0","num_feature":"29","num_nodes":"31","size_leaf_vector":"1"}},{"base_weights":[3.2981434E1,-4.4936536E2,2.2786807E3,-1.3217585E3,1.0853239E2,1.6625848E3,5.7735317E3,-1.9282377E3,-1.1484332E3,-2.2755765E2,4.7461652E2,-2.2075777E2,1.7406827E3,3.5639536E3,8.308498E3,3.1897657E1,-9.952253E1,-5.1173965E1,-1.22399086E2,2.0458943E2,-1.4360771E1,-1.6659576E2,2.6151236E1,7.722655E1,1.8790556E2,2.0096065E2,-8.606829E1,5.728947E2,3.398558E2],"categories":[],"categories_nodes":[],"categories_segments":[],"categories_sizes":[],"default_left":[0,0,0,0,0,0,0,0,0,0,0,0,0,0,0,0,0,0,0,0,0,0,0,0,0,0,0,0,0],"id":46,"left_children":[1,3,5,7,9,11,13,15,17,19,21,-1,23,25,27,-1,-1,-1,-1,-1,-1,-1,-1,-1,-1,-1,-1,-1,-1],"loss_changes":[2.1013601E9,7.774132E8,7.2893594E8,6.327424E7,1.200693E8,1.4676032E8,2.560503E8,2.3141888E7,7.657542E7,1.3233568E8,8.779547E7,0E0,1.0895494E8,7.669811E7,3.1597952E7,0E0,0E0,0E0,0E0,0E0,0E0,0E0,0E0,0E0,0E0,0E0,0E0,0E0,0E0],"parents":[2147483647,0,0,1,1,2,2,3,3,4,4,5,5,6,6,7,7,8,8,9,9,10,10,12,12,13,13,14,14],"right_children":[2,4,6,8,10,12,14,16,18,20,22,-1,24,26,28,-1,-1,-1,-1,-1,-1,-1,-1,-1,-1,-1,-1,-1,-1],"split_conditions":[6.653375E-1,-5.220564E-1,2.3529656E0,-1.2644614E0,1.582923E-1,-1.2705456E0,1.2666284E0,-1.0079024E0,-9.284364E-3,-1.664006E0,-1.4521563E0,-2.2075777E2,1.0936553E0,1.9062729E0,-1.465862E0,3.1897657E1,-9.952253E1,-5.1173965E1,-1.22399086E2,2.0458943E2,-1.4360771E1,-1.6659576E2,2.6151236E1,7.722655E1,1.8790556E2,2.0096065E2,-8.606829E1,5.728947E2,3.398558E2],"split_indices":[7,7,7,7,7,6,5,15,9,26,19,0,19,10,14,0,0,0,0,0,0,0,0,0,0,0,0,0,0],"split_type":[0,0,0,0,0,0,0,0,0,0,0,0,0,0,0,0,0,0,0,0,0,0,0,0,0,0,0,0,0],"sum_hessian":[1.938E3,1.596E3,3.42E2,6.22E2,9.74E2,2.92E2,5E1,1.36E2,4.86E2,5.08E2,4.66E2,3E0,2.89E2,2.8E1,2.2E1,3E0,1.33E2,4.45E2,4.1E1,6E0,5.02E2,5E0,4.61E2,2.65E2,2.4E1,2.6E1,2E0,5E0,1.7E1],"tree_param":{"num_deleted":"0","num_feature":"29","num_nodes":"29","size_leaf_vector":"1"}},{"base_weights":[5.399113E1,-4.3745764E2,2.1147603E3,-1.136351E3,1.2978584E2,1.6341785E3,6.062734E3,-1.5602615E3,-8.283851E2,-2.3930406E2,3.825608E2,1.3698141E3,4.4649404E3,1.3504797E4,4.6137305E3,-1.0588245E2,-6.991894E1,-4.7972675E1,5.6458687E1,-3.544505E0,-7.063815E1,-5.568686E1,2.1188723E1,-2.2044713E2,7.2079025E1,4.7794244E2,5.5197224E1,8.165776E2,2.6170966E2,-2.2117628E1,2.5507811E2],"categories":[],"categories_nodes":[],"categories_segments":[],"categories_sizes":[],"default_left":[0,0,0,0,0,0,0,0,0,0,0,0,0,0,0,0,0,0,0,0,0,0,0,0,0,0,0,0,0,0,0],"id":47,"left_children":[1,3,5,7,9,11,13,15,17,19,21,23,25,27,29,-1,-1,-1,-1,-1,-1,-1,-1,-1,-1,-1,-1,-1,-1,-1,-1],"loss_changes":[1.9565693E9,6.1859814E8,6.958971E8,8.996192E7,8.05133E7,2.4308525E8,3.6903552E8,2.3476544E7,1.0550906E8,6.926688E7,3.2045936E7,1.3326029E8,4.6882458E8,5.4791296E7,8.85847E7,0E0,0E0,0E0,0E0,0E0,0E0,0E0,0E0,0E0,0E0,0E0,0E0,0E0,0E0,0E0,0E0],"parents":[2147483647,0,0,1,1,2,2,3,3,4,4,5,5,6,6,7,7,8,8,9,9,10,10,11,11,12,12,13,13,14,14],"right_children":[2,4,6,8,10,12,14,16,18,20,22,24,26,28,30,-1,-1,-1,-1,-1,-1,-1,-1,-1,-1,-1,-1,-1,-1,-1,-1],"split_conditions":[6.265313E-1,-4.3048555E-1,2.5118902E0,-1.0318747E0,7.958677E-2,1.0936553E0,-1.465862E0,-1.3779789E0,1.3990015E0,2.4118282E-1,-1.4129748E0,-1.2605333E0,5.306087E-1,-1.0009553E0,1.0808182E0,-1.0588245E2,-6.991894E1,-4.7972675E1,5.6458687E1,-3.544505E0,-7.063815E1,-5.568686E1,2.1188723E1,-2.2044713E2,7.2079025E1,4.7794244E2,5.5197224E1,8.165776E2,2.6170966E2,-2.2117628E1,2.5507811E2],"split_indices":[7,7,7,11,7,19,14,7,5,8,19,6,10,2,5,0,0,0,0,0,0,0,0,0,0,0,0,0,0,0,0],"split_type":[0,0,0,0,0,0,0,0,0,0,0,0,0,0,0,0,0,0,0,0,0,0,0,0,0,0,0,0,0,0,0],"sum_hessian":[1.93E3,1.559E3,3.71E2,6.98E2,8.61E2,3.32E2,3.9E1,2.92E2,4.06E2,3.5E2,5.11E2,3.05E2,2.7E1,5E0,3.4E1,6.3E1,2.29E2,3.81E2,2.5E1,3.07E2,4.3E1,1.3E1,4.98E2,3E0,3.02E2,1E1,1.7E1,3E0,2E0,3E0,3.1E1],"tree_param":{"num_deleted":"0","num_feature":"29","num_nodes":"31","size_leaf_vector":"1"}},{"base_weights":[2.8249493E1,-7.397998E2,1.2814532E3,-1.3339583E3,-2.1876952E2,9.214427E2,5.15837E3,-1.4614645E3,-4.5108823E2,2.5476858E3,-2.883501E2,5.284772E2,1.3722438E3,1.2832205E4,4.420615E3,-7.462431E1,1.3597903E2,5.974826E1,-2.948473E1,6.5142975E2,5.9899554E0,-9.346966E0,-8.208117E1,-1.0338293E2,3.0737259E1,5.778236E1,1.9279327E2,3.211387E1,7.859559E2,2.333695E2,-8.70821E1],"categories":[],"categories_nodes":[],"categories_segments":[],"categories_sizes":[],"default_left":[0,0,0,0,0,0,0,0,0,0,0,0,0,0,0,0,0,0,0,0,0,0,0,0,0,0,0,0,0,0,0],"id":48,"left_children":[1,3,5,7,9,11,13,15,17,19,21,23,25,27,29,-1,-1,-1,-1,-1,-1,-1,-1,-1,-1,-1,-1,-1,-1,-1,-1],"loss_changes":[1.8846042E9,3.7553165E8,1.0336708E9,6.3168704E7,1.2546918E8,1.2009062E8,2.9994253E8,6.826221E7,1.7359864E7,4.0558253E8,8.656382E7,8.3241736E7,1.660722E8,1.6586022E8,9.78496E7,0E0,0E0,0E0,0E0,0E0,0E0,0E0,0E0,0E0,0E0,0E0,0E0,0E0,0E0,0E0,0E0],"parents":[2147483647,0,0,1,1,2,2,3,3,4,4,5,5,6,6,7,7,8,8,9,9,10,10,11,11,12,12,13,13,14,14],"right_children":[2,4,6,8,10,12,14,16,18,20,22,24,26,28,30,-1,-1,-1,-1,-1,-1,-1,-1,-1,-1,-1,-1,-1,-1,-1,-1],"split_conditions":[2.4153851E-1,-5.759445E-1,2.116849E0,3.1181625E-1,-6.021988E-1,6.3506615E-1,-1.465862E0,2.656399E-1,-8.722935E-1,-6.363308E-1,4.754555E-1,-1.1120049E0,1.0936553E0,-1.0230299E0,1.9062729E0,-7.462431E1,1.3597903E2,5.974826E1,-2.948473E1,6.5142975E2,5.9899554E0,-9.346966E0,-8.208117E1,-1.0338293E2,3.0737259E1,5.778236E1,1.9279327E2,3.211387E1,7.859559E2,2.333695E2,-8.70821E1],"split_indices":[7,11,7,17,8,7,14,15,16,7,8,6,19,2,10,0,0,0,0,