{"learner":{"attributes":{"best_iteration":"166","best_score":"468.2701657731121","scikit_learn":"{\"_estimator_type\": \"regressor\"}"},"feature_names":[],"feature_types":[],"gradient_booster":{"model":{"gbtree_model_param":{"num_parallel_tree":"1","num_trees":"217"},"iteration_indptr":[0,1,2,3,4,5,6,7,8,9,10,11,12,13,14,15,16,17,18,19,20,21,22,23,24,25,26,27,28,29,30,31,32,33,34,35,36,37,38,39,40,41,42,43,44,45,46,47,48,49,50,51,52,53,54,55,56,57,58,59,60,61,62,63,64,65,66,67,68,69,70,71,72,73,74,75,76,77,78,79,80,81,82,83,84,85,86,87,88,89,90,91,92,93,94,95,96,97,98,99,100,101,102,103,104,105,106,107,108,109,110,111,112,113,114,115,116,117,118,119,120,121,122,123,124,125,126,127,128,129,130,131,132,133,134,135,136,137,138,139,140,141,142,143,144,145,146,147,148,149,150,151,152,153,154,155,156,157,158,159,160,161,162,163,164,165,166,167,168,169,170,171,172,173,174,175,176,177,178,179,180,181,182,183,184,185,186,187,188,189,190,191,192,193,194,195,196,197,198,199,200,201,202,203,204,205,206,207,208,209,210,211,212,213,214,215,216,217],"tree_info":[0,0,0,0,0,0,0,0,0,0,0,0,0,0,0,0,0,0,0,0,0,0,0,0,0,0,0,0,0,0,0,0,0,0,0,0,0,0,0,0,0,0,0,0,0,0,0,0,0,0,0,0,0,0,0,0,0,0,0,0,0,0,0,0,0,0,0,0,0,0,0,0,0,0,0,0,0,0,0,0,0,0,0,0,0,0,0,0,0,0,0,0,0,0,0,0,0,0,0,0,0,0,0,0,0,0,0,0,0,0,0,0,0,0,0,0,0,0,0,0,0,0,0,0,0,0,0,0,0,0,0,0,0,0,0,0,0,0,0,0,0,0,0,0,0,0,0,0,0,0,0,0,0,0,0,0,0,0,0,0,0,0,0,0,0,0,0,0,0,0,0,0,0,0,0,0,0,0,0,0,0,0,0,0,0,0,0,0,0,0,0,0,0,0,0,0,0,0,0,0,0,0,0,0,0,0,0,0,0,0,0,0,0,0,0,0,0],"trees":[{"base_weights":[4.053626E-1,-9.699666E3,4.020896E3,-6.5008014E2,-7.3962124E3,2.6093088E3,1.1106988E4,-4.514885E2,-2.991956E2,-2.1209995E1,1.6776474E2,4.289479E2,5.705602E2],"categories":[],"categories_nodes":[],"categories_segments":[],"categories_sizes":[],"default_left":[0,0,0,0,0,0,0,0,0,0,0,0,0],"id":0,"left_children":[1,3,5,-1,7,9,11,-1,-1,-1,-1,-1,-1],"loss_changes":[5.257072E10,2.9081518E9,9.503533E9,0E0,4.8812954E8,1.8027356E9,2.3615488E7,0E0,0E0,0E0,0E0,0E0,0E0],"parents":[2147483647,0,0,1,1,2,2,4,4,5,5,6,6],"right_children":[2,4,6,-1,8,10,12,-1,-1,-1,-1,-1,-1],"split_conditions":[-4.828012E-1,-1.387928E0,1.0759935E0,-6.5008014E2,-1.0215442E0,2.068582E-1,1.2760868E0,-4.514885E2,-2.991956E2,-2.1209995E1,1.6776474E2,4.289479E2,5.705602E2],"split_indices":[12,20,20,0,20,20,15,0,0,0,0,0,0],"split_type":[0,0,0,0,0,0,0,0,0,0,0,0,0],"sum_hessian":[1.346E3,3.94E2,9.52E2,1.6E2,2.34E2,7.95E2,1.57E2,1.06E2,1.28E2,1.57E2,6.38E2,2E1,1.37E2],"tree_param":{"num_deleted":"0","num_feature":"44","num_nodes":"13","size_leaf_vector":"1"}},{"base_weights":[4.5511898E1,-9.335781E3,3.8136824E3,-1.2282157E4,-7.059826E3,2.4250493E3,1.06047295E4,-6.3662006E2,-5.151298E2,-4.2399362E2,-2.8509366E2,3.0868528E0,1.6532965E2,4.0419177E2,5.451428E2],"categories":[],"categories_nodes":[],"categories_segments":[],"categories_sizes":[],"default_left":[0,0,0,0,0,0,0,0,0,0,0,0,0,0,0],"id":1,"left_children":[1,3,5,7,9,11,13,-1,-1,-1,-1,-1,-1,-1,-1],"loss_changes":[4.7369675E10,2.488322E9,8.989623E9,1.6777216E7,3.7395968E8,1.6560686E9,3.3613824E7,0E0,0E0,0E0,0E0,0E0,0E0,0E0,0E0],"parents":[2147483647,0,0,1,1,2,2,3,3,4,4,5,5,6,6],"right_children":[2,4,6,8,10,12,14,-1,-1,-1,-1,-1,-1,-1,-1],"split_conditions":[-5.947144E-1,-1.387928E0,8.884248E-1,-1.6693168E0,-1.0215442E0,2.66136E-1,1.3428888E0,-6.3662006E2,-5.151298E2,-4.2399362E2,-2.8509366E2,3.0868528E0,1.6532965E2,4.0419177E2,5.451428E2],"split_indices":[6,20,20,20,20,20,20,0,0,0,0,0,0,0,0],"split_type":[0,0,0,0,0,0,0,0,0,0,0,0,0,0,0],"sum_hessian":[1.338E3,3.83E2,9.55E2,1.65E2,2.18E2,7.94E2,1.61E2,1.3E2,3.5E1,1.04E2,1.14E2,2.16E2,5.78E2,2E1,1.41E2],"tree_param":{"num_deleted":"0","num_feature":"44","num_nodes":"15","size_leaf_vector":"1"}},{"base_weights":[-1.5179729E2,-8.920253E3,3.5868596E3,-5.917527E2,-6.7267944E3,2.036447E3,9.169029E3,-4.07479E2,-2.6901407E2,-5.043144E1,1.3551015E2,3.0282312E2,5.068794E2],"categories":[],"categories_nodes":[],"categories_segments":[],"categories_sizes":[],"default_left":[0,0,0,0,0,0,0,0,0,0,0,0,0],"id":2,"left_children":[1,3,5,-1,7,9,11,-1,-1,-1,-1,-1,-1],"loss_changes":[4.2222748E10,2.3818834E9,7.79649E9,0E0,3.8146048E8,1.4552927E9,5.2948582E8,0E0,0E0,0E0,0E0,0E0,0E0],"parents":[2147483647,0,0,1,1,2,2,4,4,5,5,6,6],"right_children":[2,4,6,-1,8,10,12,-1,-1,-1,-1,-1,-1],"split_conditions":[-5.1232916E-1,-1.4659226E0,8.191537E-1,-5.917527E2,-1.0215442E0,1.1521248E-1,1.2245734E0,-4.07479E2,-2.6901407E2,-5.043144E1,1.3551015E2,3.0282312E2,5.068794E2],"split_indices":[5,5,20,0,20,20,20,0,0,0,0,0,0],"split_type":[0,0,0,0,0,0,0,0,0,0,0,0,0],"sum_hessian":[1.286E3,3.84E2,9.02E2,1.63E2,2.21E2,7.07E2,1.95E2,1.05E2,1.16E2,1.28E2,5.79E2,4.8E1,1.47E2],"tree_param":{"num_deleted":"0","num_feature":"44","num_nodes":"13","size_leaf_vector":"1"}},{"base_weights":[3.2396553E1,-8.503048E3,3.5313652E3,-5.650524E2,-6.2817256E3,2.1252424E3,9.455996E3,-3.902661E2,-2.565864E2,-4.559399E1,1.3494868E2,3.489562E2,4.9266388E2],"categories":[],"categories_nodes":[],"categories_segments":[],"categories_sizes":[],"default_left":[0,0,0,0,0,0,0,0,0,0,0,0,0],"id":3,"left_children":[1,3,5,-1,7,9,11,-1,-1,-1,-1,-1,-1],"loss_changes":[4.0676635E10,2.3902536E9,8.0274145E9,0E0,3.5067085E8,1.3650895E9,1.1327693E8,0E0,0E0,0E0,0E0,0E0,0E0],"parents":[2147483647,0,0,1,1,2,2,4,4,5,5,6,6],"right_children":[2,4,6,-1,8,10,12,-1,-1,-1,-1,-1,-1],"split_conditions":[-4.828012E-1,-1.3471764E0,8.7599075E-1,-5.650524E2,-1.054654E0,1.2183895E-1,1.3428888E0,-3.902661E2,-2.565864E2,-4.559399E1,1.3494868E2,3.489562E2,4.9266388E2],"split_indices":[12,5,5,0,20,13,20,0,0,0,0,0,0],"split_type":[0,0,0,0,0,0,0,0,0,0,0,0,0],"sum_hessian":[1.36E3,3.95E2,9.65E2,1.73E2,2.22E2,7.81E2,1.84E2,9.3E1,1.29E2,1.24E2,6.57E2,2.8E1,1.56E2],"tree_param":{"num_deleted":"0","num_feature":"44","num_nodes":"13","size_leaf_vector":"1"}},{"base_weights":[-1.822501E2,-7.9180264E3,3.3564753E3,-5.414321E2,-6.1857114E3,1.8566802E3,8.1213184E3,-3.7365192E2,-2.425938E2,-3.7341526E1,1.1938238E2,2.7557773E2,4.630038E2],"categories":[],"categories_nodes":[],"categories_segments":[],"categories_sizes":[],"default_left":[0,0,0,0,0,0,0,0,0,0,0,0,0],"id":4,"left_children":[1,3,5,-1,7,9,11,-1,-1,-1,-1,-1,-1],"loss_changes":[3.6544545E10,2.0456571E9,6.5309225E9,0E0,4.187689E8,9.666839E8,5.998049E8,0E0,0E0,0E0,0E0,0E0,0E0],"parents":[2147483647,0,0,1,1,2,2,4,4,5,5,6,6],"right_children":[2,4,6,-1,8,10,12,-1,-1,-1,-1,-1,-1],"split_conditions":[-5.293533E-1,-1.5880336E0,7.4467283E-1,-5.414321E2,-1.0215442E0,1.6216749E-1,1.2502769E0,-3.7365192E2,-2.425938E2,-3.7341526E1,1.1938238E2,2.7557773E2,4.630038E2],"split_indices":[14,20,20,0,20,20,20,0,0,0,0,0,0],"split_type":[0,0,0,0,0,0,0,0,0,0,0,0,0],"sum_hessian":[1.333E3,4.18E2,9.15E2,1.54E2,2.64E2,6.97E2,2.18E2,1.32E2,1.32E2,1.18E2,5.79E2,6.8E1,1.5E2],"tree_param":{"num_deleted":"0","num_feature":"44","num_nodes":"13","size_leaf_vector":"1"}},{"base_weights":[7.0543724E1,-7.5762754E3,3.2186902E3,-5.0869077E2,-5.794135E3,1.8463838E3,7.675054E3,-3.479862E2,-2.3517068E2,-3.0374517E1,1.1931744E2,2.574869E2,4.3234604E2],"categories":[],"categories_nodes":[],"categories_segments":[],"categories_sizes":[],"default_left":[0,0,0,0,0,0,0,0,0,0,0,0,0],"id":5,"left_children":[1,3,5,-1,7,9,11,-1,-1,-1,-1,-1,-1],"loss_changes":[3.252335E10,1.76495E9,5.8383585E9,0E0,2.6730035E8,9.726789E8,5.076818E8,0E0,0E0,0E0,0E0,0E0,0E0],"parents":[2147483647,0,0,1,1,2,2,4,4,5,5,6,6],"right_children":[2,4,6,-1,8,10,12,-1,-1,-1,-1,-1,-1],"split_conditions":[-5.1232916E-1,-1.4659226E0,7.6094204E-1,-5.0869077E2,-1.0417706E0,1.6199659E-1,1.1923451E0,-3.479862E2,-2.3517068E2,-3.0374517E1,1.1931744E2,2.574869E2,4.3234604E2],"split_indices":[5,5,12,0,5,5,16,0,0,0,0,0,0],"split_type":[0,0,0,0,0,0,0,0,0,0,0,0,0],"sum_hessian":[1.349E3,3.93E2,9.56E2,1.58E2,2.35E2,7.32E2,2.24E2,1.11E2,1.24E2,1.32E2,6E2,6.4E1,1.6E2],"tree_param":{"num_deleted":"0","num_feature":"44","num_nodes":"13","size_leaf_vector":"1"}},{"base_weights":[-3.861155E1,-7.206849E3,2.9589182E3,-4.8905466E2,-5.5803516E3,1.6187716E3,7.252105E3,-3.418307E2,-2.2443486E2,-1.0571342E1,1.15953026E2,2.5660483E2,4.193186E2],"categories":[],"categories_nodes":[],"categories_segments":[],"categories_sizes":[],"default_left":[0,0,0,0,0,0,0,0,0,0,0,0,0],"id":6,"left_children":[1,3,5,-1,7,9,11,-1,-1,-1,-1,-1,-1],"loss_changes":[2.8856883E10,1.6034714E9,5.4368256E9,0E0,3.0530662E8,9.271364E8,4.9800704E8,0E0,0E0,0E0,0E0,0E0,0E0],"parents":[2147483647,0,0,1,1,2,2,4,4,5,5,6,6],"right_children":[2,4,6,-1,8,10,12,-1,-1,-1,-1,-1,-1],"split_conditions":[-5.842069E-1,-1.4140425E0,7.4467283E-1,-4.8905466E2,-1.0830743E0,2.466733E-1,1.2907231E0,-3.418307E2,-2.2443486E2,-1.0571342E1,1.15953026E2,2.5660483E2,4.193186E2],"split_indices":[15,11,20,0,20,20,20,0,0,0,0,0,0],"split_type":[0,0,0,0,0,0,0,0,0,0,0,0,0],"sum_hessian":[1.341E3,3.95E2,9.46E2,1.51E2,2.44E2,7.22E2,2.24E2,1.11E2,1.33E2,2E2,5.22E2,8E1,1.44E2],"tree_param":{"num_deleted":"0","num_feature":"44","num_nodes":"13","size_leaf_vector":"1"}},{"base_weights":[9.850343E0,-6.7470557E3,2.888438E3,-9.020161E3,-4.9859575E3,1.8786271E3,7.8442866E3,-4.7036426E2,-3.6557892E2,-2.8535214E2,-1.6051323E2,4.23475E1,1.5491954E2,3.4040247E2,4.173381E2],"categories":[],"categories_nodes":[],"categories_segments":[],"categories_sizes":[],"default_left":[0,0,0,0,0,0,0,0,0,0,0,0,0,0,0],"id":7,"left_children":[1,3,5,7,9,11,13,-1,-1,-1,-1,-1,-1,-1,-1],"loss_changes":[2.6433059E10,1.5803085E9,4.7545236E9,4.763136E7,2.7745792E8,9.952891E8,2.7005952E7,0E0,0E0,0E0,0E0,0E0,0E0,0E0,0E0],"parents":[2147483647,0,0,1,1,2,2,3,3,4,4,5,5,6,6],"right_children":[2,4,6,8,10,12,14,-1,-1,-1,-1,-1,-1,-1,-1],"split_conditions":[-3.465958E-1,-1.3138369E0,1.1578839E0,-1.6693168E0,-8.5992974E-1,4.0103617E-1,1.5038278E0,-4.7036426E2,-3.6557892E2,-2.8535214E2,-1.6051323E2,4.23475E1,1.5491954E2,3.4040247E2,4.173381E2],"split_indices":[11,20,5,20,20,20,20,0,0,0,0,0,0,0,0],"split_type":[0,0,0,0,0,0,0,0,0,0,0,0,0,0,0],"sum_hessian":[1.357E3,4.05E2,9.52E2,1.75E2,2.3E2,7.92E2,1.6E2,1.39E2,3.6E1,1.62E2,6.8E1,4.3E2,3.62E2,5.7E1,1.03E2],"tree_param":{"num_deleted":"0","num_feature":"44","num_nodes":"15","size_leaf_vector":"1"}},{"base_weights":[-2.4600397E1,-6.4484453E3,2.7802036E3,-8.610543E3,-4.8501333E3,1.4985271E3,6.504836E3,-4.4851788E2,-3.537356E2,-2.9077255E2,-1.8914983E2,-3.941859E1,9.605257E1,2.3130176E2,3.795352E2],"categories":[],"categories_nodes":[],"categories_segments":[],"categories_sizes":[],"default_left":[0,0,0,0,0,0,0,0,0,0,0,0,0,0,0],"id":8,"left_children":[1,3,5,7,9,11,13,-1,-1,-1,-1,-1,-1,-1,-1],"loss_changes":[2.389128E10,1.3508864E9,4.3964457E9,3.0481408E7,2.1904998E8,6.663085E8,4.4635546E8,0E0,0E0,0E0,0E0,0E0,0E0,0E0,0E0],"parents":[2147483647,0,0,1,1,2,2,3,3,4,4,5,5,6,6],"right_children":[2,4,6,8,10,12,14,-1,-1,-1,-1,-1,-1,-1,-1],"split_conditions":[-3.9379108E-1,-1.387928E0,6.938718E-1,-1.6693168E0,-9.5111465E-1,4.712892E-2,1.2907231E0,-4.4851788E2,-3.537356E2,-2.9077255E2,-1.8914983E2,-3.941859E1,9.605257E1,2.3130176E2,3.795352E2],"split_indices":[12,20,20,20,20,20,20,0,0,0,0,0,0,0,0],"split_type":[0,0,0,0,0,0,0,0,0,0,0,0,0,0,0],"sum_hessian":[1.324E3,4.02E2,9.22E2,1.69E2,2.33E2,6.87E2,2.35E2,1.33E2,3.6E1,1.2E2,1.13E2,1.07E2,5.8E2,8.8E1,1.47E2],"tree_param":{"num_deleted":"0","num_feature":"44","num_nodes":"15","size_leaf_vector":"1"}},{"base_weights":[-1.2584392E2,-6.2746724E3,2.591375E3,-8.275549E3,-4.794229E3,1.4454318E3,6.210979E3,-4.6618555E2,-3.887015E2,-2.89754E2,-1.9744856E2,3.856746E0,1.0797088E2,2.1230313E2,3.5821774E2],"categories":[],"categories_nodes":[],"categories_segments":[],"categories_sizes":[],"default_left":[0,0,0,0,0,0,0,0,0,0,0,0,0,0,0],"id":9,"left_children":[1,3,5,7,9,11,13,-1,-1,-1,-1,-1,-1,-1,-1],"loss_changes":[2.1970194E10,1.1540849E9,3.7738716E9,1.6881664E7,1.750743E8,6.778328E8,3.7983283E8,0E0,0E0,0E0,0E0,0E0,0E0,0E0,0E0],"parents":[2147483647,0,0,1,1,2,2,3,3,4,4,5,5,6,6],"right_children":[2,4,6,8,10,12,14,-1,-1,-1,-1,-1,-1,-1,-1],"split_conditions":[-5.660112E-1,-1.387928E0,7.4467283E-1,-1.8714942E0,-1.0830743E0,3.0809113E-1,1.2245734E0,-4.6618555E2,-3.887015E2,-2.89754E2,-1.9744856E2,3.856746E0,1.0797088E2,2.1230313E2,3.5821774E2],"split_indices":[5,20,20,20,20,20,20,0,0,0,0,0,0,0,0],"split_type":[0,0,0,0,0,0,0,0,0,0,0,0,0,0,0],"sum_hessian":[1.313E3,4.02E2,9.11E2,1.69E2,2.33E2,6.93E2,2.18E2,4.9E1,1.2E2,1.04E2,1.29E2,2.38E2,4.55E2,7.3E1,1.45E2],"tree_param":{"num_deleted":"0","num_feature":"44","num_nodes":"15","size_leaf_vector":"1"}},{"base_weights":[-1.9297969E2,-6.024166E3,2.3911462E3,-8.000346E3,-4.599271E3,1.3121432E3,5.9816626E3,-4.4733203E2,-3.7598047E2,-2.7176297E2,-1.8058047E2,-4.291554E1,8.705509E1,3.3878693E2,1.9459523E2],"categories":[],"categories_nodes":[],"categories_segments":[],"categories_sizes":[],"default_left":[0,0,0,0,0,0,0,0,0,0,0,0,0,0,0],"id":10,"left_children":[1,3,5,7,9,11,13,-1,-1,-1,-1,-1,-1,-1,-1],"loss_changes":[2.0070605E10,1.1148861E9,3.5680184E9,1.00608E7,1.7853184E8,6.634602E8,3.270871E8,0E0,0E0,0E0,0E0,0E0,0E0,0E0,0E0],"parents":[2147483647,0,0,1,1,2,2,3,3,4,4,5,5,6,6],"right_children":[2,4,6,8,10,12,14,-1,-1,-1,-1,-1,-1,-1,-1],"split_conditions":[-5.922093E-1,-1.4140425E0,7.1591896E-1,-9.518552E-1,5.65912E-1,1.2183895E-1,-1.0573692E-1,-4.4733203E2,-3.7598047E2,-2.7176297E2,-1.8058047E2,-4.291554E1,8.705509E1,3.3878693E2,1.9459523E2],"split_indices":[10,11,10,1,1,13,38,0,0,0,0,0,0,0,0],"split_type":[0,0,0,0,0,0,0,0,0,0,0,0,0,0,0],"sum_hessian":[1.33E3,4.08E2,9.22E2,1.69E2,2.39E2,7.1E2,2.12E2,5.1E1,1.18E2,1.27E2,1.12E2,1.17E2,5.93E2,1.52E2,6E1],"tree_param":{"num_deleted":"0","num_feature":"44","num_nodes":"15","size_leaf_vector":"1"}},{"base_weights":[8.7731766E1,-5.456521E3,2.4132104E3,-6.8564526E3,-3.3916416E3,1.35883E3,5.6423574E3,-3.8766876E2,-2.8331924E2,-1.9952245E2,-1.0661806E2,3.316874E1,1.17305534E2,2.0244205E2,3.284378E2],"categories":[],"categories_nodes":[],"categories_segments":[],"categories_sizes":[],"default_left":[0,0,0,0,0,0,0,0,0,0,0,0,0,0,0],"id":11,"left_children":[1,3,5,7,9,11,13,-1,-1,-1,-1,-1,-1,-1,-1],"loss_changes":[1.7496134E10,1.1359109E9,3.247274E9,2.1010842E8,1.1515776E8,4.9417574E8,3.2031846E8,0E0,0E0,0E0,0E0,0E0,0E0,0E0,0E0],"parents":[2147483647,0,0,1,1,2,2,3,3,4,4,5,5,6,6],"right_children":[2,4,6,8,10,12,14,-1,-1,-1,-1,-1,-1,-1,-1],"split_conditions":[-2.3880042E-1,-1.2213502E0,7.4467283E-1,-1.6693168E0,-7.7121407E-1,3.9207932E-1,1.2760868E0,-3.8766876E2,-2.8331924E2,-1.9952245E2,-1.0661806E2,3.316874E1,1.17305534E2,2.0244205E2,3.284378E2],"split_indices":[20,20,20,20,20,20,15,0,0,0,0,0,0,0,0],"split_type":[0,0,0,0,0,0,0,0,0,0,0,0,0,0,0],"sum_hessian":[1.355E3,4E2,9.55E2,2.37E2,1.63E2,7.21E2,2.34E2,1.32E2,1.05E2,1.09E2,5.4E1,4.24E2,2.97E2,8.8E1,1.46E2],"tree_param":{"num_deleted":"0","num_feature":"44","num_nodes":"15","size_leaf_vector":"1"}},{"base_weights":[3.0235811E1,-4.8830737E3,2.3788726E3,-6.4838877E3,-2.9520386E3,1.487061E3,5.6842705E3,-3.6492877E2,-2.626943E2,-1.8292363E2,-7.98959E1,4.0501015E1,1.2275614E2,2.0317819E2,3.1265793E2],"categories":[],"categories_nodes":[],"categories_segments":[],"categories_sizes":[],"default_left":[0,0,0,0,0,0,0,0,0,0,0,0,0,0,0],"id":12,"left_children":[1,3,5,7,9,11,13,-1,-1,-1,-1,-1,-1,-1,-1],"loss_changes":[1.552081E10,1.3255434E9,2.6740378E9,1.9914445E8,1.8451712E8,4.6860083E8,1.5253555E8,0E0,0E0,0E0,0E0,0E0,0E0,0E0,0E0],"parents":[2147483647,0,0,1,1,2,2,3,3,4,4,5,5,6,6],"right_children":[2,4,6,8,10,12,14,-1,-1,-1,-1,-1,-1,-1,-1],"split_conditions":[-2.479739E-1,-1.2213502E0,8.4211254E-1,-1.6456558E0,6.259974E-2,4.3201098E-1,1.3428888E0,-3.6492877E2,-2.626943E2,-1.8292363E2,-7.98959E1,4.0501015E1,1.2275614E2,2.0317819E2,3.1265793E2],"split_indices":[11,20,20,20,35,20,20,0,0,0,0,0,0,0,0],"split_type":[0,0,0,0,0,0,0,0,0,0,0,0,0,0,0],"sum_hessian":[1.343E3,4.34E2,9.09E2,2.36E2,1.98E2,7.17E2,1.92E2,1.39E2,9.7E1,1.29E2,6.9E1,4.23E2,2.94E2,5.2E1,1.4E2],"tree_param":{"num_deleted":"0","num_feature":"44","num_nodes":"15","size_leaf_vector":"1"}},{"base_weights":[4.9789824E0,-4.5602026E3,2.2850024E3,-6.083775E3,-2.611321E3,1.4723535E3,5.509213E3,-3.4596375E2,-2.473588E2,-1.705402E2,-7.476105E1,4.215984E1,1.2098828E2,2.302205E2,3.130391E2],"categories":[],"categories_nodes":[],"categories_segments":[],"categories_sizes":[],"default_left":[0,0,0,0,0,0,0,0,0,0,0,0,0,0,0],"id":13,"left_children":[1,3,5,7,9,11,13,-1,-1,-1,-1,-1,-1,-1,-1],"loss_changes":[1.3906063E10,1.3054351E9,2.326444E9,2.0222566E8,1.706839E8,4.2295795E8,9.289626E7,0E0,0E0,0E0,0E0,0E0,0E0,0E0,0E0],"parents":[2147483647,0,0,1,1,2,2,3,3,4,4,5,5,6,6],"right_children":[2,4,6,8,10,12,14,-1,-1,-1,-1,-1,-1,-1,-1],"split_conditions":[-1.89041E-1,-1.1180257E0,8.57898E-1,-1.6456558E0,6.259974E-2,4.5025983E-1,1.5151305E0,-3.4596375E2,-2.473588E2,-1.705402E2,-7.476105E1,4.215984E1,1.2098828E2,2.302205E2,3.130391E2],"split_indices":[6,20,5,20,35,20,20,0,0,0,0,0,0,0,0],"split_type":[0,0,0,0,0,0,0,0,0,0,0,0,0,0,0],"sum_hessian":[1.334E3,4.44E2,8.9E2,2.48E2,1.96E2,7.12E2,1.78E2,1.4E2,1.08E2,1.13E2,8.3E1,4.29E2,2.83E2,8.4E1,9.4E1],"tree_param":{"num_deleted":"0","num_feature":"44","num_nodes":"15","size_leaf_vector":"1"}},{"base_weights":[-4.416727E1,-4.419416E3,2.0775112E3,-5.909495E3,-2.7719768E3,1.2191101E3,4.7216206E3,-3.28592E2,-2.3943054E2,-1.750386E2,-8.047143E1,2.5795652E1,9.076131E1,1.6633046E2,2.7581628E2],"categories":[],"categories_nodes":[],"categories_segments":[],"categories_sizes":[],"default_left":[0,0,0,0,0,0,0,0,0,0,0,0,0,0,0],"id":14,"left_children":[1,3,5,7,9,11,13,-1,-1,-1,-1,-1,-1,-1,-1],"loss_changes":[1.2336835E10,1.04900864E9,2.0256307E9,1.3705728E8,1.7059558E8,2.8285312E8,2.2443776E8,0E0,0E0,0E0,0E0,0E0,0E0,0E0,0E0],"parents":[2147483647,0,0,1,1,2,2,3,3,4,4,5,5,6,6],"right_children":[2,4,6,8,10,12,14,-1,-1,-1,-1,-1,-1,-1,-1],"split_conditions":[-2.0396416E-1,-1.2213502E0,6.38926E-1,-1.63396E0,-7.7121407E-1,3.533831E-1,1.2502769E0,-3.28592E2,-2.3943054E2,-1.750386E2,-8.047143E1,2.5795652E1,9.076131E1,1.6633046E2,2.7581628E2],"split_indices":[5,20,20,20,20,20,20,0,0,0,0,0,0,0,0],"split_type":[0,0,0,0,0,0,0,0,0,0,0,0,0,0,0],"sum_hessian":[1.327E3,4.33E2,8.94E2,2.26E2,2.07E2,6.76E2,2.18E2,1.39E2,8.7E1,1.26E2,8.1E1,3.11E2,3.65E2,8.1E1,1.37E2],"tree_param":{"num_deleted":"0","num_feature":"44","num_nodes":"15","size_leaf_vector":"1"}},{"base_weights":[2.0443161E1,-4.1458203E3,2.1248323E3,-5.597624E3,-2.4342734E3,1.2295857E3,4.5107637E3,-3.1265915E2,-2.2177734E2,-1.5877342E2,-7.021568E1,3.4540638E1,9.426406E1,1.6597997E2,2.6986227E2],"categories":[],"categories_nodes":[],"categories_segments":[],"categories_sizes":[],"default_left":[0,0,0,0,0,0,0,0,0,0,0,0,0,0,0],"id":15,"left_children":[1,3,5,7,9,11,13,-1,-1,-1,-1,-1,-1,-1,-1],"loss_changes":[1.1625668E10,1.0921231E9,1.876267E9,1.550976E8,1.5280128E8,2.2549773E8,2.3551027E8,0E0,0E0,0E0,0E0,0E0,0E0,0E0,0E0],"parents":[2147483647,0,0,1,1,2,2,3,3,4,4,5,5,6,6],"right_children":[2,4,6,8,10,12,14,-1,-1,-1,-1,-1,-1,-1,-1],"split_conditions":[-1.4168416E-1,-1.2060916E0,6.38926E-1,-1.5880336E0,-7.2982526E-1,3.9207932E-1,1.3243948E0,-3.1265915E2,-2.2177734E2,-1.5877342E2,-7.021568E1,3.4540638E1,9.426406E1,1.6597997E2,2.6986227E2],"split_indices":[20,20,20,20,16,20,16,0,0,0,0,0,0,0,0],"split_type":[0,0,0,0,0,0,0,0,0,0,0,0,0,0,0],"sum_hessian":[1.324E3,4.44E2,8.8E2,2.39E2,2.05E2,6.41E2,2.39E2,1.5E2,8.9E1,1.18E2,8.7E1,3.53E2,2.88E2,1.04E2,1.35E2],"tree_param":{"num_deleted":"0","num_feature":"44","num_nodes":"15","size_leaf_vector":"1"}},{"base_weights":[5.8535217E1,-3.9159385E3,1.9519266E3,-5.3074214E3,-2.345749E3,1.2867062E3,5.0021743E3,-2.943199E2,-2.1165096E2,-1.4599692E2,-6.494761E1,3.7541584E1,1.1031284E2,2.8753052E2,2.2452449E2],"categories":[],"categories_nodes":[],"categories_segments":[],"categories_sizes":[],"default_left":[0,0,0,0,0,0,0,0,0,0,0,0,0,0,0],"id":16,"left_children":[1,3,5,7,9,11,13,-1,-1,-1,-1,-1,-1,-1,-1],"loss_changes":[9.888278E9,9.1394406E8,1.7994511E9,1.1442278E8,1.1702016E8,3.5904653E8,3.5067904E7,0E0,0E0,0E0,0E0,0E0,0E0,0E0,0E0],"parents":[2147483647,0,0,1,1,2,2,3,3,4,4,5,5,6,6],"right_children":[2,4,6,8,10,12,14,-1,-1,-1,-1,-1,-1,-1,-1],"split_conditions":[-2.1753505E-1,-1.2439709E0,1.1578839E0,-1.5010133E0,6.259974E-2,4.6615416E-1,-6.8411154E-1,-2.943199E2,-2.1165096E2,-1.4599692E2,-6.494761E1,3.7541584E1,1.1031284E2,2.8753052E2,2.2452449E2],"split_indices":[11,5,5,13,35,5,1,0,0,0,0,0,0,0,0],"split_type":[0,0,0,0,0,0,0,0,0,0,0,0,0,0,0],"sum_hessian":[1.312E3,4.23E2,8.89E2,2.23E2,2E2,7.31E2,1.58E2,1.42E2,8.1E1,1.28E2,7.2E1,4.63E2,2.68E2,6E1,9.8E1],"tree_param":{"num_deleted":"0","num_feature":"44","num_nodes":"15","size_leaf_vector":"1"}},{"base_weights":[6.65965E1,-3.670566E3,1.9053068E3,-4.9564443E3,-2.1400828E3,1.1018185E3,4.1119077E3,-2.8457114E2,-2.0453677E2,-1.3658208E2,-5.628084E1,1.9802238E1,7.6798225E1,1.4109618E2,2.3633006E2],"categories":[],"categories_nodes":[],"categories_segments":[],"categories_sizes":[],"default_left":[0,0,0,0,0,0,0,0,0,0,0,0,0,0,0],"id":17,"left_children":[1,3,5,7,9,11,13,-1,-1,-1,-1,-1,-1,-1,-1],"loss_changes":[9.001864E9,8.3957504E8,1.5521439E9,1.2560691E8,1.1634829E8,1.9702547E8,1.7221094E8,0E0,0E0,0E0,0E0,0E0,0E0,0E0,0E0],"parents":[2147483647,0,0,1,1,2,2,3,3,4,4,5,5,6,6],"right_children":[2,4,6,8,10,12,14,-1,-1,-1,-1,-1,-1,-1,-1],"split_conditions":[-1.4168416E-1,-1.1963494E0,6.938718E-1,-1.6693168E0,-6.7566556E-1,3.3929232E-1,1.2502769E0,-2.8457114E2,-2.0453677E2,-1.3658208E2,-5.628084E1,1.9802238E1,7.6798225E1,1.4109618E2,2.3633006E2],"split_indices":[20,20,20,20,14,20,20,0,0,0,0,0,0,0,0],"split_type":[0,0,0,0,0,0,0,0,0,0,0,0,0,0,0],"sum_hessian":[1.308E3,4.31E2,8.77E2,2.33E2,1.98E2,6.44E2,2.33E2,1.23E2,1.1E2,1.24E2,7.4E1,2.46E2,3.98E2,7.7E1,1.56E2],"tree_param":{"num_deleted":"0","num_feature":"44","num_nodes":"15","size_leaf_vector":"1"}},{"base_weights":[-1.3593689E1,-3.4965134E3,1.8502971E3,-4.7774995E3,-2.0074858E3,1.0689504E3,3.8889458E3,-2.705988E2,-1.9585356E2,-1.4023984E2,-5.996363E1,3.3492336E1,8.37606E1,1.3799873E2,2.2829971E2],"categories":[],"categories_nodes":[],"categories_segments":[],"categories_sizes":[],"default_left":[0,0,0,0,0,0,0,0,0,0,0,0,0,0,0],"id":18,"left_children":[1,3,5,7,9,11,13,-1,-1,-1,-1,-1,-1,-1,-1],"loss_changes":[8.78985E9,8.907131E8,1.4007731E9,1.169193E8,1.3840365E8,1.53491E8,1.7390362E8,0E0,0E0,0E0,0E0,0E0,0E0,0E0,0E0],"parents":[2147483647,0,0,1,1,2,2,3,3,4,4,5,5,6,6],"right_children":[2,4,6,8,10,12,14,-1,-1,-1,-1,-1,-1,-1,-1],"split_conditions":[-1.0328255E-1,-1.1977727E0,6.38926E-1,-1.6693168E0,-7.681119E-1,4.1732493E-1,1.2907231E0,-2.705988E2,-1.9585356E2,-1.4023984E2,-5.996363E1,3.3492336E1,8.37606E1,1.3799873E2,2.2829971E2],"split_indices":[20,5,20,20,5,20,20,0,0,0,0,0,0,0,0],"split_type":[0,0,0,0,0,0,0,0,0,0,0,0,0,0,0],"sum_hessian":[1.352E3,4.71E2,8.81E2,2.52E2,2.19E2,6.38E2,2.43E2,1.42E2,1.1E2,1.09E2,1.1E2,3.86E2,2.52E2,9.3E1,1.5E2],"tree_param":{"num_deleted":"0","num_feature":"44","num_nodes":"15","size_leaf_vector":"1"}},{"base_weights":[4.3670692E1,-3.2254268E3,1.8454248E3,-4.4662285E3,-1.8088013E3,1.1738063E3,4.23986E3,-2.5240999E2,-1.8085107E2,-1.2262963E2,-4.7362606E1,4.1340206E1,1.03560974E2,1.8562349E2,2.4680101E2],"categories":[],"categories_nodes":[],"categories_segments":[],"categories_sizes":[],"default_left":[0,0,0,0,0,0,0,0,0,0,0,0,0,0,0],"id":19,"left_children":[1,3,5,7,9,11,13,-1,-1,-1,-1,-1,-1,-1,-1],"loss_changes":[7.857469E9,8.250957E8,1.3780293E9,1.0628198E8,1.2136544E8,2.078626E8,5.0699264E7,0E0,0E0,0E0,0E0,0E0,0E0,0E0,0E0],"parents":[2147483647,0,0,1,1,2,2,3,3,4,4,5,5,6,6],"right_children":[2,4,6,8,10,12,14,-1,-1,-1,-1,-1,-1,-1,-1],"split_conditions":[-8.451974E-2,-1.1180257E0,8.778111E-1,-1.5880336E0,-6.8963945E-1,5.121473E-1,1.5649242E0,-2.5240999E2,-1.8085107E2,-1.2262963E2,-4.7362606E1,4.1340206E1,1.03560974E2,1.8562349E2,2.4680101E2],"split_indices":[20,20,20,20,8,20,20,0,0,0,0,0,0,0,0],"split_type":[0,0,0,0,0,0,0,0,0,0,0,0,0,0,0],"sum_hessian":[1.332E3,4.73E2,8.59E2,2.51E2,2.22E2,6.72E2,1.87E2,1.46E2,1.05E2,1.26E2,9.6E1,4.86E2,1.86E2,1.1E2,7.7E1],"tree_param":{"num_deleted":"0","num_feature":"44","num_nodes":"15","size_leaf_vector":"1"}},{"base_weights":[4.0870842E-1,-3.154473E3,1.6964265E3,-4.294384E3,-1.7482227E3,1.1258224E3,3.998608E3,-2.4718004E2,-1.7478836E2,-1.1627887E2,-4.6666576E1,3.6455524E1,9.928272E1,2.3972734E2,1.7901213E2],"categories":[],"categories_nodes":[],"categories_segments":[],"categories_sizes":[],"default_left":[0,0,0,0,0,0,0,0,0,0,0,0,0,0,0],"id":20,"left_children":[1,3,5,7,9,11,13,-1,-1,-1,-1,-1,-1,-1,-1],"loss_changes":[7.2234936E9,7.4910874E8,1.1488691E9,1.1752141E8,9.804192E7,2.3903168E8,4.077517E7,0E0,0E0,0E0,0E0,0E0,0E0,0E0,0E0],"parents":[2147483647,0,0,1,1,2,2,3,3,4,4,5,5,6,6],"right_children":[2,4,6,8,10,12,14,-1,-1,-1,-1,-1,-1,-1,-1],"split_conditions":[-1.0328255E-1,-1.0830743E0,9.0913886E-1,-1.6693168E0,-6.8963945E-1,4.9914426E-1,-6.8411154E-1,-2.4718004E2,-1.7478836E2,-1.1627887E2,-4.6666576E1,3.6455524E1,9.928272E1,2.3972734E2,1.7901213E2],"split_indices":[20,20,5,20,8,20,1,0,0,0,0,0,0,0,0],"split_type":[0,0,0,0,0,0,0,0,0,0,0,0,0,0,0],"sum_hessian":[1.348E3,4.71E2,8.77E2,2.59E2,2.12E2,7.04E2,1.73E2,1.4E2,1.19E2,1.23E2,8.9E1,4.83E2,2.21E2,5.6E1,1.17E2],"tree_param":{"num_deleted":"0","num_feature":"44","num_nodes":"15","size_leaf_vector":"1"}},{"base_weights":[-1.6720142E1,-3.418313E3,1.3856455E3,-4.4466504E3,-2.487722E3,6.622481E2,3.2324426E3,-2.7209064E2,-2.0426628E2,-1.4349313E2,-8.576568E1,-3.349195E1,4.8146645E1,1.1753517E2,2.0046086E2],"categories":[],"categories_nodes":[],"categories_segments":[],"categories_sizes":[],"default_left":[0,0,0,0,0,0,0,0,0,0,0,0,0,0,0],"id":21,"left_children":[1,3,5,7,9,11,13,-1,-1,-1,-1,-1,-1,-1,-1],"loss_changes":[6.3730565E9,3.6215296E8,1.2616851E9,4.393037E7,5.617715E7,2.734116E8,1.7276237E8,0E0,0E0,0E0,0E0,0E0,0E0,0E0,0E0],"parents":[2147483647,0,0,1,1,2,2,3,3,4,4,5,5,6,6],"right_children":[2,4,6,8,10,12,14,-1,-1,-1,-1,-1,-1,-1,-1],"split_conditions":[-5.714181E-1,-1.3138369E0,6.025376E-1,-1.8714942E0,-8.8996404E-1,4.712892E-2,1.4227968E0,-2.7209064E2,-2.0426628E2,-1.4349313E2,-8.576568E1,-3.349195E1,4.8146645E1,1.1753517E2,2.0046086E2],"split_indices":[14,20,20,20,5,20,5,0,0,0,0,0,0,0,0],"split_type":[0,0,0,0,0,0,0,0,0,0,0,0,0,0,0],"sum_hessian":[1.334E3,3.89E2,9.45E2,1.83E2,2.06E2,6.8E2,2.65E2,4.5E1,1.38E2,1.36E2,7E1,1.25E2,5.55E2,1.26E2,1.39E2],"tree_param":{"num_deleted":"0","num_feature":"44","num_nodes":"15","size_leaf_vector":"1"}},{"base_weights":[2.700417E1,-2.793344E3,1.4885435E3,-3.837501E3,-1.5568871E3,8.581495E2,3.2713708E3,-2.2406612E2,-1.599475E2,-1.1364518E2,-4.8968754E1,2.430064E1,7.090351E1,1.2034556E2,1.9277312E2],"categories":[],"categories_nodes":[],"categories_segments":[],"categories_sizes":[],"default_left":[0,0,0,0,0,0,0,0,0,0,0,0,0,0,0],"id":22,"left_children":[1,3,5,7,9,11,13,-1,-1,-1,-1,-1,-1,-1,-1],"loss_changes":[5.494728E9,5.814556E8,9.839625E8,8.679834E7,8.461066E7,1.3474934E8,1.0634778E8,0E0,0E0,0E0,0E0,0E0,0E0,0E0,0E0],"parents":[2147483647,0,0,1,1,2,2,3,3,4,4,5,5,6,6],"right_children":[2,4,6,8,10,12,14,-1,-1,-1,-1,-1,-1,-1,-1],"split_conditions":[-1.33916E-1,-1.1703217E0,7.2309595E-1,-1.663606E0,-7.731526E-1,4.2100635E-1,1.4414823E0,-2.2406612E2,-1.599475E2,-1.1364518E2,-4.8968754E1,2.430064E1,7.090351E1,1.2034556E2,1.9277312E2],"split_indices":[16,5,5,13,16,5,5,0,0,0,0,0,0,0,0],"split_type":[0,0,0,0,0,0,0,0,0,0,0,0,0,0,0],"sum_hessian":[1.331E3,4.54E2,8.77E2,2.45E2,2.09E2,6.49E2,2.28E2,1.19E2,1.26E2,9.2E1,1.17E2,3.91E2,2.58E2,9.4E1,1.34E2],"tree_param":{"num_deleted":"0","num_feature":"44","num_nodes":"15","size_leaf_vector":"1"}},{"base_weights":[-1.2938144E1,-2.6536382E3,1.4514374E3,-3.6875698E3,-1.4810938E3,9.3507825E2,3.3223855E3,-2.450313E2,-1.6956647E2,-1.0483108E2,-4.343584E1,3.2052937E1,8.3720024E1,2.0802495E2,1.4534052E2],"categories":[],"categories_nodes":[],"categories_segments":[],"categories_sizes":[],"default_left":[0,0,0,0,0,0,0,0,0,0,0,0,0,0,0],"id":23,"left_children":[1,3,5,7,9,11,13,-1,-1,-1,-1,-1,-1,-1,-1],"loss_changes":[5.235871E9,5.800942E8,8.3834995E8,7.537562E7,8.411981E7,1.4761126E8,5.338637E7,0E0,0E0,0E0,0E0,0E0,0E0,0E0,0E0],"parents":[2147483647,0,0,1,1,2,2,3,3,4,4,5,5,6,6],"right_children":[2,4,6,8,10,12,14,-1,-1,-1,-1,-1,-1,-1,-1],"split_conditions":[-6.4853884E-2,-1.1977727E0,8.5103524E-1,-1.8714942E0,4.151611E-2,5.0343394E-1,-6.8411154E-1,-2.450313E2,-1.6956647E2,-1.0483108E2,-4.343584E1,3.2052937E1,8.3720024E1,2.0802495E2,1.4534052E2],"split_indices":[20,5,5,20,35,20,1,0,0,0,0,0,0,0,0],"split_type":[0,0,0,0,0,0,0,0,0,0,0,0,0,0,0],"sum_hessian":[1.352E3,4.82E2,8.7E2,2.55E2,2.27E2,6.83E2,1.87E2,4.7E1,2.08E2,1.12E2,1.15E2,4.9E2,1.93E2,5.9E1,1.28E2],"tree_param":{"num_deleted":"0","num_feature":"44","num_nodes":"15","size_leaf_vector":"1"}},{"base_weights":[2.0550577E1,-2.9721626E3,1.2163622E3,-3.8572964E3,-2.1972068E3,6.010529E2,2.8699124E3,-2.3663863E2,-1.7521861E2,-1.24697075E2,-7.254851E1,-1.2937079E1,4.7954937E1,1.0661379E2,1.7710468E2],"categories":[],"categories_nodes":[],"categories_segments":[],"categories_sizes":[],"default_left":[0,0,0,0,0,0,0,0,0,0,0,0,0,0,0],"id":24,"left_children":[1,3,5,7,9,11,13,-1,-1,-1,-1,-1,-1,-1,-1],"loss_changes":[4.7883653E9,2.535534E8,9.7095206E8,3.810355E7,4.1996864E7,2.1512459E8,1.2086618E8,0E0,0E0,0E0,0E0,0E0,0E0,0E0,0E0],"parents":[2147483647,0,0,1,1,2,2,3,3,4,4,5,5,6,6],"right_children":[2,4,6,8,10,12,14,-1,-1,-1,-1,-1,-1,-1,-1],"split_conditions":[-5.7305664E-1,-1.3138369E0,6.14974E-1,-9.518552E-1,-8.9524496E-1,2.66136E-1,1.4764754E0,-2.3663863E2,-1.7521861E2,-1.24697075E2,-7.254851E1,-1.2937079E1,4.7954937E1,1.0661379E2,1.7710468E2],"split_indices":[20,20,20,1,13,20,20,0,0,0,0,0,0,0,0],"split_type":[0,0,0,0,0,0,0,0,0,0,0,0,0,0,0],"sum_hessian":[1.336E3,3.81E2,9.55E2,1.76E2,2.05E2,6.97E2,2.58E2,4.7E1,1.29E2,1.45E2,6E1,2.05E2,4.92E2,1.25E2,1.33E2],"tree_param":{"num_deleted":"0","num_feature":"44","num_nodes":"15","size_leaf_vector":"1"}},{"base_weights":[-9.959825E0,-2.3795698E3,1.3542896E3,-3.362459E3,-1.3003616E3,8.9828986E2,3.1863218E3,-2.2229344E2,-1.5317934E2,-9.597469E1,-4.08673E1,3.1104935E1,7.910859E1,1.4158366E2,1.9172838E2],"categories":[],"categories_nodes":[],"categories_segments":[],"categories_sizes":[],"default_left":[0,0,0,0,0,0,0,0,0,0,0,0,0,0,0],"id":25,"left_children":[1,3,5,7,9,11,13,-1,-1,-1,-1,-1,-1,-1,-1],"loss_changes":[4.406213E9,5.2387712E8,7.197641E8,7.056819E7,6.990419E7,1.300999E8,2.8684544E7,0E0,0E0,0E0,0E0,0E0,0E0,0E0,0E0],"parents":[2147483647,0,0,1,1,2,2,3,3,4,4,5,5,6,6],"right_children":[2,4,6,8,10,12,14,-1,-1,-1,-1,-1,-1,-1,-1],"split_conditions":[-6.4853884E-2,-1.1963494E0,9.0913886E-1,-1.8714942E0,-7.7121407E-1,5.121473E-1,1.6435883E0,-2.2229344E2,-1.5317934E2,-9.597469E1,-4.08673E1,3.1104935E1,7.910859E1,1.4158366E2,1.9172838E2],"split_indices":[20,20,5,20,20,20,20,0,0,0,0,0,0,0,0],"split_type":[0,0,0,0,0,0,0,0,0,0,0,0,0,0,0],"sum_hessian":[1.361E3,4.97E2,8.64E2,2.59E2,2.38E2,6.93E2,1.71E2,5.3E1,2.06E2,1.03E2,1.35E2,4.95E2,1.98E2,1.14E2,5.7E1],"tree_param":{"num_deleted":"0","num_feature":"44","num_nodes":"15","size_leaf_vector":"1"}},{"base_weights":[-5.924763E-1,-2.245222E3,1.2681118E3,-3.1025884E3,-1.1878608E3,7.7855145E2,2.7682039E3,-1.7889316E2,-1.2208367E2,-8.305929E1,-3.3358013E1,2.8189829E1,6.96126E1,1.1161183E2,1.6490549E2],"categories":[],"categories_nodes":[],"categories_segments":[],"categories_sizes":[],"default_left":[0,0,0,0,0,0,0,0,0,0,0,0,0,0,0],"id":26,"left_children":[1,3,5,7,9,11,13,-1,-1,-1,-1,-1,-1,-1,-1],"loss_changes":[3.7932303E9,4.3236326E8,6.2280704E8,7.450445E7,5.23736E7,8.395933E7,5.1996416E7,0E0,0E0,0E0,0E0,0E0,0E0,0E0,0E0],"parents":[2147483647,0,0,1,1,2,2,3,3,4,4,5,5,6,6],"right_children":[2,4,6,8,10,12,14,-1,-1,-1,-1,-1,-1,-1,-1],"split_conditions":[-4.7032543E-2,-1.0215442E0,8.191537E-1,-1.5880336E0,-6.9512063E-1,5.0343394E-1,1.5151305E0,-1.7889316E2,-1.2208367E2,-8.305929E1,-3.3358013E1,2.8189829E1,6.96126E1,1.1161183E2,1.6490549E2],"split_indices":[20,20,20,20,11,20,20,0,0,0,0,0,0,0,0],"split_type":[0,0,0,0,0,0,0,0,0,0,0,0,0,0,0],"sum_hessian":[1.33E3,4.8E2,8.5E2,2.64E2,2.16E2,6.42E2,2.08E2,1.51E2,1.13E2,1.12E2,1.04E2,4.77E2,1.65E2,1.06E2,1.02E2],"tree_param":{"num_deleted":"0","num_feature":"44","num_nodes":"15","size_leaf_vector":"1"}},{"base_weights":[1.3456808E1,-2.123654E3,1.238521E3,-3.0370073E3,-1.2449539E3,8.329758E2,2.8723633E3,-2.0451128E2,-1.3950572E2,-8.9716675E1,-3.7933407E1,2.7639088E1,7.183507E1,1.7314423E2,1.2540216E2],"categories":[],"categories_nodes":[],"categories_segments":[],"categories_sizes":[],"default_left":[0,0,0,0,0,0,0,0,0,0,0,0,0,0,0],"id":27,"left_children":[1,3,5,7,9,11,13,-1,-1,-1,-1,-1,-1,-1,-1],"loss_changes":[3.5710976E9,3.9509325E8,5.720787E8,5.177549E7,6.676336E7,1.1694141E8,2.8318848E7,0E0,0E0,0E0,0E0,0E0,0E0,0E0,0E0],"parents":[2147483647,0,0,1,1,2,2,3,3,4,4,5,5,6,6],"right_children":[2,4,6,8,10,12,14,-1,-1,-1,-1,-1,-1,-1,-1],"split_conditions":[-4.7032543E-2,-1.2213502E0,1.0759935E0,-1.8714942E0,-7.9175544E-1,5.0343394E-1,-7.047829E-1,-2.0451128E2,-1.3950572E2,-8.9716675E1,-3.7933407E1,2.7639088E1,7.183507E1,1.7314423E2,1.2540216E2],"split_indices":[20,20,20,20,16,20,1,0,0,0,0,0,0,0,0],"split_type":[0,0,0,0,0,0,0,0,0,0,0,0,0,0,0],"sum_hessian":[1.362E3,4.96E2,8.66E2,2.42E2,2.54E2,6.95E2,1.71E2,4.3E1,1.99E2,1.18E2,1.36E2,4.76E2,2.19E2,6.2E1,1.09E2],"tree_param":{"num_deleted":"0","num_feature":"44","num_nodes":"15","size_leaf_vector":"1"}},{"base_weights":[1.4371912E1,-2.2433953E3,1.0780151E3,-3.154016E3,-1.6031906E3,6.1400366E2,2.4349485E3,-1.944792E2,-1.4375674E2,-9.6665215E1,-4.2999477E1,6.6010064E-1,4.3337215E1,1.4064056E2,8.3369156E1],"categories":[],"categories_nodes":[],"categories_segments":[],"categories_sizes":[],"default_left":[0,0,0,0,0,0,0,0,0,0,0,0,0,0,0],"id":28,"left_children":[1,3,5,7,9,11,13,-1,-1,-1,-1,-1,-1,-1,-1],"loss_changes":[3.1795487E9,2.4212877E8,5.651743E8,2.4510592E7,5.991789E7,1.0202973E8,6.172787E7,0E0,0E0,0E0,0E0,0E0,0E0,0E0,0E0],"parents":[2147483647,0,0,1,1,2,2,3,3,4,4,5,5,6,6],"right_children":[2,4,6,8,10,12,14,-1,-1,-1,-1,-1,-1,-1,-1],"split_conditions":[-2.2231887E-1,-1.2780924E0,7.1591896E-1,-1.8487631E0,-8.057838E-1,3.0265775E-1,-3.1241697E-1,-1.944792E2,-1.4375674E2,-9.6665215E1,-4.2999477E1,6.6010064E-1,4.3337215E1,1.4064056E2,8.3369156E1],"split_indices":[10,16,10,16,16,10,40,0,0,0,0,0,0,0,0],"split_type":[0,0,0,0,0,0,0,0,0,0,0,0,0,0,0],"sum_hessian":[1.322E3,4.23E2,8.99E2,1.73E2,2.5E2,6.71E2,2.28E2,4.4E1,1.29E2,1.72E2,7.8E1,1.99E2,4.72E2,1.51E2,7.7E1],"tree_param":{"num_deleted":"0","num_feature":"44","num_nodes":"15","size_leaf_vector":"1"}},{"base_weights":[-2.4851933E1,-1.93606E3,1.076776E3,-2.718042E3,-1.0772677E3,7.325706E2,2.6101711E3,-1.5915817E2,-1.11786156E2,-7.452624E1,-2.8535902E1,2.1451488E1,6.1113403E1,1.13143425E2,1.5489816E2],"categories":[],"categories_nodes":[],"categories_segments":[],"categories_sizes":[],"default_left":[0,0,0,0,0,0,0,0,0,0,0,0,0,0,0],"id":29,"left_children":[1,3,5,7,9,11,13,-1,-1,-1,-1,-1,-1,-1,-1],"loss_changes":[2.8675889E9,3.3150886E8,4.541095E8,5.121088E7,4.918045E7,1.0456634E8,1.9756672E7,0E0,0E0,0E0,0E0,0E0,0E0,0E0,0E0],"parents":[2147483647,0,0,1,1,2,2,3,3,4,4,5,5,6,6],"right_children":[2,4,6,8,10,12,14,-1,-1,-1,-1,-1,-1,-1,-1],"split_conditions":[-4.3876875E-2,-1.1977727E0,1.1578839E0,-1.7621686E0,-6.9512063E-1,4.7389534E-1,1.6006359E0,-1.5915817E2,-1.11786156E2,-7.452624E1,-2.8535902E1,2.1451488E1,6.1113403E1,1.13143425E2,1.5489816E2],"split_indices":[13,5,5,13,11,5,5,0,0,0,0,0,0,0,0],"split_type":[0,0,0,0,0,0,0,0,0,0,0,0,0,0,0],"sum_hessian":[1.36E3,4.97E2,8.63E2,2.59E2,2.38E2,7.06E2,1.57E2,1.29E2,1.3E2,1.3E2,1.08E2,4.37E2,2.69E2,9.5E1,6.2E1],"tree_param":{"num_deleted":"0","num_feature":"44","num_nodes":"15","size_leaf_vector":"1"}},{"base_weights":[-3.2946436E0,-1.8914272E3,1.0379106E3,-2.6030806E3,-1.01946136E3,6.963784E2,2.5045315E3,-1.7599417E2,-1.17407104E2,-7.624204E1,-3.4630463E1,1.7680845E1,5.4471016E1,1.4923314E2,1.0861012E2],"categories":[],"categories_nodes":[],"categories_segments":[],"categories_sizes":[],"default_left":[0,0,0,0,0,0,0,0,0,0,0,0,0,0,0],"id":30,"left_children":[1,3,5,7,9,11,13,-1,-1,-1,-1,-1,-1,-1,-1],"loss_changes":[2.63828E9,2.933426E8,4.3153306E8,5.297165E7,3.4623696E7,9.432266E7,1.9525184E7,0E0,0E0,0E0,0E0,0E0,0E0,0E0,0E0],"parents":[2147483647,0,0,1,1,2,2,3,3,4,4,5,5,6,6],"right_children":[2,4,6,8,10,12,14,-1,-1,-1,-1,-1,-1,-1,-1],"split_conditions":[-6.4853884E-2,-1.0830743E0,1.1578839E0,-1.8714942E0,-8.1432116E-1,4.3412185E-1,-6.8411154E-1,-1.7599417E2,-1.17407104E2,-7.624204E1,-3.4630463E1,1.7680845E1,5.4471016E1,1.4923314E2,1.0861012E2],"split_indices":[20,20,5,20,5,5,1,0,0,0,0,0,0,0,0],"split_type":[0,0,0,0,0,0,0,0,0,0,0,0,0,0,0],"sum_hessian":[1.34E3,4.76E2,8.64E2,2.61E2,2.15E2,7.02E2,1.62E2,5.4E1,2.07E2,8.3E1,1.32E2,3.76E2,3.26E2,6.3E1,9.9E1],"tree_param":{"num_deleted":"0","num_feature":"44","num_nodes":"15","size_leaf_vector":"1"}},{"base_weights":[1.3171631E1,-1.7095371E3,1.0207782E3,-2.3779253E3,-8.320991E2,5.8963293E2,2.0734604E3,-1.4361282E2,-9.186855E1,-6.1280556E1,-2.5051905E1,1.25583E1,4.087002E1,8.299845E1,1.3204697E2],"categories":[],"categories_nodes":[],"categories_segments":[],"categories_sizes":[],"default_left":[0,0,0,0,0,0,0,0,0,0,0,0,0,0,0],"id":31,"left_children":[1,3,5,7,9,11,13,-1,-1,-1,-1,-1,-1,-1,-1],"loss_changes":[2.3329416E9,2.8890995E8,3.8364986E8,6.980941E7,2.7525648E7,4.628101E7,5.333952E7,0E0,0E0,0E0,0E0,0E0,0E0,0E0,0E0],"parents":[2147483647,0,0,1,1,2,2,3,3,4,4,5,5,6,6],"right_children":[2,4,6,8,10,12,14,-1,-1,-1,-1,-1,-1,-1,-1],"split_conditions":[-1.6543485E-2,-9.5111465E-1,6.38926E-1,-1.5880336E0,-6.813056E-1,3.533831E-1,1.5266303E0,-1.4361282E2,-9.186855E1,-6.1280556E1,-2.5051905E1,1.25583E1,4.087002E1,8.299845E1,1.3204697E2],"split_indices":[20,20,20,20,5,20,20,0,0,0,0,0,0,0,0],"split_type":[0,0,0,0,0,0,0,0,0,0,0,0,0,0,0],"sum_hessian":[1.342E3,4.95E2,8.47E2,2.8E2,2.15E2,6.02E2,2.45E2,1.44E2,1.36E2,9.7E1,1.18E2,2.43E2,3.59E2,1.44E2,1.01E2],"tree_param":{"num_deleted":"0","num_feature":"44","num_nodes":"15","size_leaf_vector":"1"}},{"base_weights":[1.2708276E1,-1.8809506E3,8.1962854E2,-2.5068557E3,-1.3029462E3,3.9624374E2,1.8327716E3,-1.5794615E2,-1.14731285E2,-7.7709435E1,-4.260303E1,-1.0239246E1,3.0508566E1,6.6363266E1,1.1319557E2],"categories":[],"categories_nodes":[],"categories_segments":[],"categories_sizes":[],"default_left":[0,0,0,0,0,0,0,0,0,0,0,0,0,0,0],"id":32,"left_children":[1,3,5,7,9,11,13,-1,-1,-1,-1,-1,-1,-1,-1],"loss_changes":[2.0353519E9,1.4072064E8,3.999125E8,1.9045248E7,2.2351616E7,8.498552E7,5.692979E7,0E0,0E0,0E0,0E0,0E0,0E0,0E0,0E0],"parents":[2147483647,0,0,1,1,2,2,3,3,4,4,5,5,6,6],"right_children":[2,4,6,8,10,12,14,-1,-1,-1,-1,-1,-1,-1,-1],"split_conditions":[-2.4749321E-1,-1.2865646E0,5.801386E-1,-1.8714942E0,-8.5992974E-1,2.466733E-1,1.2502769E0,-1.5794615E2,-1.14731285E2,-7.7709435E1,-4.260303E1,-1.0239246E1,3.0508566E1,6.6363266E1,1.1319557E2],"split_indices":[20,20,20,20,20,20,20,0,0,0,0,0,0,0,0],"split_type":[0,0,0,0,0,0,0,0,0,0,0,0,0,0,0],"sum_hessian":[1.33E3,3.97E2,9.33E2,1.89E2,2.08E2,6.59E2,2.74E2,4.3E1,1.46E2,1.32E2,7.6E1,1.73E2,4.86E2,1.28E2,1.46E2],"tree_param":{"num_deleted":"0","num_feature":"44","num_nodes":"15","size_leaf_vector":"1"}},{"base_weights":[-7.761482E0,-1.5533433E3,9.1074384E2,-2.31763E3,-9.5488116E2,6.1845575E2,2.117345E3,-1.5070764E2,-1.04064224E2,-7.013303E1,-2.8555029E1,1.9914417E1,5.4116005E1,1.2837016E2,9.22145E1],"categories":[],"categories_nodes":[],"categories_segments":[],"categories_sizes":[],"default_left":[0,0,0,0,0,0,0,0,0,0,0,0,0,0,0],"id":33,"left_children":[1,3,5,7,9,11,13,-1,-1,-1,-1,-1,-1,-1,-1],"loss_changes":[1.8966141E9,2.2557043E8,2.942324E8,2.9613952E7,4.748851E7,6.860733E7,1.5296128E7,0E0,0E0,0E0,0E0,0E0,0E0,0E0,0E0],"parents":[2147483647,0,0,1,1,2,2,3,3,4,4,5,5,6,6],"right_children":[2,4,6,8,10,12,14,-1,-1,-1,-1,-1,-1,-1,-1],"split_conditions":[-1.2415142E-2,-1.2793659E0,1.1578839E0,-1.9135582E0,-8.1432116E-1,5.129974E-1,-6.8411154E-1,-1.5070764E2,-1.04064224E2,-7.013303E1,-2.8555029E1,1.9914417E1,5.4116005E1,1.2837016E2,9.22145E1],"split_indices":[5,13,5,14,5,11,1,0,0,0,0,0,0,0,0],"split_type":[0,0,0,0,0,0,0,0,0,0,0,0,0,0,0],"sum_hessian":[1.334E3,4.97E2,8.37E2,2.17E2,2.8E2,6.75E2,1.62E2,5.2E1,1.65E2,1.28E2,1.52E2,4.59E2,2.16E2,5.8E1,1.04E2],"tree_param":{"num_deleted":"0","num_feature":"44","num_nodes":"15","size_leaf_vector":"1"}},{"base_weights":[1.7535343E1,-1.4357805E3,8.646996E2,-2.0062256E3,-6.534484E2,5.8402527E2,1.9872603E3,-1.2335864E2,-8.276222E1,-5.0011875E1,-2.1036362E1,2.0574488E1,5.3151104E1,8.338353E1,1.1590519E2],"categories":[],"categories_nodes":[],"categories_segments":[],"categories_sizes":[],"default_left":[0,0,0,0,0,0,0,0,0,0,0,0,0,0,0],"id":34,"left_children":[1,3,5,7,9,11,13,-1,-1,-1,-1,-1,-1,-1,-1],"loss_changes":[1.6214971E9,2.151337E8,2.6098086E8,4.1215616E7,1.620444E7,5.468613E7,1.3686016E7,0E0,0E0,0E0,0E0,0E0,0E0,0E0,0E0],"parents":[2147483647,0,0,1,1,2,2,3,3,4,4,5,5,6,6],"right_children":[2,4,6,8,10,12,14,-1,-1,-1,-1,-1,-1,-1,-1],"split_conditions":[-6.8561574E-3,-9.180251E-1,1.1578839E0,-1.7360866E0,-7.0835453E-1,5.377798E-1,1.5552266E0,-1.2335864E2,-8.276222E1,-5.0011875E1,-2.1036362E1,2.0574488E1,5.3151104E1,8.338353E1,1.1590519E2],"split_indices":[20,5,5,20,9,20,20,0,0,0,0,0,0,0,0],"split_type":[0,0,0,0,0,0,0,0,0,0,0,0,0,0,0],"sum_hessian":[1.315E3,4.84E2,8.31E2,2.79E2,2.05E2,6.66E2,1.65E2,1.18E2,1.61E2,8.1E1,1.24E2,4.91E2,1.75E2,8.7E1,7.8E1],"tree_param":{"num_deleted":"0","num_feature":"44","num_nodes":"15","size_leaf_vector":"1"}},{"base_weights":[-1.10897045E1,-1.6969286E3,6.528294E2,-2.331935E3,-1.2808433E3,2.514971E2,1.4559579E3,-1.5047626E2,-1.0536934E2,-7.281106E1,-4.421696E1,-1.6026482E1,2.1752934E1,5.229778E1,9.523399E1],"categories":[],"categories_nodes":[],"categories_segments":[],"categories_sizes":[],"default_left":[0,0,0,0,0,0,0,0,0,0,0,0,0,0,0],"id":35,"left_children":[1,3,5,7,9,11,13,-1,-1,-1,-1,-1,-1,-1,-1],"loss_changes":[1.513229E9,9.794394E7,3.1228557E8,1.6480576E7,1.491456E7,6.8180824E7,5.743245E7,0E0,0E0,0E0,0E0,0E0,0E0,0E0,0E0],"parents":[2147483647,0,0,1,1,2,2,3,3,4,4,5,5,6,6],"right_children":[2,4,6,8,10,12,14,-1,-1,-1,-1,-1,-1,-1,-1],"split_conditions":[-6.1206794E-1,-1.6326537E0,5.460306E-1,-1.905923E0,-9.2535776E-1,1.6199659E-1,1.1578839E0,-1.5047626E2,-1.0536934E2,-7.281106E1,-4.421696E1,-1.6026482E1,2.1752934E1,5.229778E1,9.523399E1],"split_indices":[5,13,5,5,13,5,5,0,0,0,0,0,0,0,0],"split_type":[0,0,0,0,0,0,0,0,0,0,0,0,0,0,0],"sum_hessian":[1.35E3,3.81E2,9.69E2,1.49E2,2.32E2,6.47E2,3.22E2,3.4E1,1.15E2,1.59E2,7.3E1,1.57E2,4.9E2,1.7E2,1.52E2],"tree_param":{"num_deleted":"0","num_feature":"44","num_nodes":"15","size_leaf_vector":"1"}},{"base_weights":[-1.7144049E1,-1.558808E3,6.325166E2,-2.1196904E3,-1.1236753E3,2.8670657E2,1.470024E3,-1.3406477E2,-9.609718E1,-6.60116E1,-3.933575E1,-6.185649E0,2.7094532E1,5.624959E1,9.9739685E1],"categories":[],"categories_nodes":[],"categories_segments":[],"categories_sizes":[],"default_left":[0,0,0,0,0,0,0,0,0,0,0,0,0,0,0],"id":36,"left_children":[1,3,5,7,9,11,13,-1,-1,-1,-1,-1,-1,-1,-1],"loss_changes":[1.3310555E9,9.377715E7,2.703718E8,1.383712E7,1.379728E7,6.95047E7,4.718592E7,0E0,0E0,0E0,0E0,0E0,0E0,0E0,0E0],"parents":[2147483647,0,0,1,1,2,2,3,3,4,4,5,5,6,6],"right_children":[2,4,6,8,10,12,14,-1,-1,-1,-1,-1,-1,-1,-1],"split_conditions":[-5.0753343E-1,-1.3138369E0,5.7745737E-1,-9.6899796E-1,-8.374737E-1,3.0809113E-1,1.4972495E0,-1.3406477E2,-9.609718E1,-6.60116E1,-3.933575E1,-6.185649E0,2.7094532E1,5.624959E1,9.9739685E1],"split_indices":[15,20,20,1,15,20,20,0,0,0,0,0,0,0,0],"split_type":[0,0,0,0,0,0,0,0,0,0,0,0,0,0,0],"sum_hessian":[1.327E3,3.93E2,9.34E2,1.7E2,2.23E2,6.62E2,2.72E2,4.1E1,1.29E2,1.39E2,8.4E1,2.54E2,4.08E2,1.66E2,1.06E2],"tree_param":{"num_deleted":"0","num_feature":"44","num_nodes":"15","size_leaf_vector":"1"}},{"base_weights":[-6.7910824E0,-1.272741E3,7.240287E2,-1.8741124E3,-7.2218097E2,4.2924136E2,1.5315183E3,-1.3127777E2,-8.6021545E1,-5.290457E1,-2.3154943E1,7.482948E0,3.083608E1,6.024474E1,9.8010345E1],"categories":[],"categories_nodes":[],"categories_segments":[],"categories_sizes":[],"default_left":[0,0,0,0,0,0,0,0,0,0,0,0,0,0,0],"id":37,"left_children":[1,3,5,7,9,11,13,-1,-1,-1,-1,-1,-1,-1,-1],"loss_changes":[1.2462154E9,1.618745E8,2.0262682E8,2.2621312E7,2.2050352E7,3.277264E7,2.9562656E7,0E0,0E0,0E0,0E0,0E0,0E0,0E0,0E0],"parents":[2147483647,0,0,1,1,2,2,3,3,4,4,5,5,6,6],"right_children":[2,4,6,8,10,12,14,-1,-1,-1,-1,-1,-1,-1,-1],"split_conditions":[-4.7032543E-2,-1.2213502E0,6.38926E-1,-1.9289218E0,-7.75676E-1,3.533831E-1,1.5151305E0,-1.3127777E2,-8.6021545E1,-5.290457E1,-2.3154943E1,7.482948E0,3.083608E1,6.024474E1,9.8010345E1],"split_indices":[20,20,20,20,14,20,20,0,0,0,0,0,0,0,0],"split_type":[0,0,0,0,0,0,0,0,0,0,0,0,0,0,0],"sum_hessian":[1.345E3,4.92E2,8.53E2,2.34E2,2.58E2,6.26E2,2.27E2,3.7E1,1.97E2,1.11E2,1.47E2,2.52E2,3.74E2,1.31E2,9.6E1],"tree_param":{"num_deleted":"0","num_feature":"44","num_nodes":"15","size_leaf_vector":"1"}},{"base_weights":[-3.037508E1,-1.4668217E3,5.764576E2,-2.0028737E3,-1.1056234E3,2.706077E2,1.4182856E3,-1.2675335E2,-8.999577E1,-6.350227E1,-4.0599712E1,-6.069549E0,2.4958946E1,5.6457325E1,9.492126E1],"categories":[],"categories_nodes":[],"categories_segments":[],"categories_sizes":[],"default_left":[0,0,0,0,0,0,0,0,0,0,0,0,0,0,0],"id":38,"left_children":[1,3,5,7,9,11,13,-1,-1,-1,-1,-1,-1,-1,-1],"loss_changes":[1.1828474E9,7.581485E7,2.4524547E8,1.28272E7,1.0700544E7,6.286993E7,3.3118496E7,0E0,0E0,0E0,0E0,0E0,0E0,0E0,0E0],"parents":[2147483647,0,0,1,1,2,2,3,3,4,4,5,5,6,6],"right_children":[2,4,6,8,10,12,14,-1,-1,-1,-1,-1,-1,-1,-1],"split_conditions":[-6.452009E-1,-1.5880336E0,6.025376E-1,-1.9289218E0,-9.3277514E-1,3.0809113E-1,1.5386099E0,-1.2675335E2,-8.999577E1,-6.350227E1,-4.0599712E1,-6.069549E0,2.4958946E1,5.6457325E1,9.492126E1],"split_indices":[11,20,20,20,20,20,20,0,0,0,0,0,0,0,0],"split_type":[0,0,0,0,0,0,0,0,0,0,0,0,0,0,0],"sum_hessian":[1.355E3,4.02E2,9.53E2,1.6E2,2.42E2,7E2,2.53E2,4.1E1,1.19E2,1.53E2,8.9E1,2.58E2,4.42E2,1.6E2,9.3E1],"tree_param":{"num_deleted":"0","num_feature":"44","num_nodes":"15","size_leaf_vector":"1"}},{"base_weights":[1.1722476E1,-1.2303859E3,6.435828E2,-1.7948148E3,-8.10567E2,3.8608734E2,1.470977E3,-1.1432521E2,-8.036118E1,-5.3518013E1,-2.315527E1,9.437255E0,3.1339695E1,9.895989E1,6.252671E1],"categories":[],"categories_nodes":[],"categories_segments":[],"categories_sizes":[],"default_left":[0,0,0,0,0,0,0,0,0,0,0,0,0,0,0],"id":39,"left_children":[1,3,5,7,9,11,13,-1,-1,-1,-1,-1,-1,-1,-1],"loss_changes":[1.0195129E9,1.0233267E8,1.8286838E8,1.3481088E7,2.2342176E7,3.1137736E7,2.0379808E7,0E0,0E0,0E0,0E0,0E0,0E0,0E0,0E0],"parents":[2147483647,0,0,1,1,2,2,3,3,4,4,5,5,6,6],"right_children":[2,4,6,8,10,12,14,-1,-1,-1,-1,-1,-1,-1,-1],"split_conditions":[-1.33916E-1,-1.3024752E0,8.227763E-1,-9.5616806E-1,-8.057838E-1,4.0102103E-1,-7.047829E-1,-1.1432521E2,-8.036118E1,-5.3518013E1,-2.315527E1,9.437255E0,3.1339695E1,9.895989E1,6.252671E1],"split_indices":[16,13,13,1,16,13,1,0,0,0,0,0,0,0,0],"split_type":[0,0,0,0,0,0,0,0,0,0,0,0,0,0,0],"sum_hessian":[1.297E3,4.37E2,8.6E2,1.85E2,2.52E2,6.57E2,2.03E2,4.8E1,1.37E2,1.43E2,1.09E2,3.62E2,2.95E2,5.9E1,1.44E2],"tree_param":{"num_deleted":"0","num_feature":"44","num_nodes":"15","size_leaf_vector":"1"}},{"base_weights":[-2.8830475E-1,-1.0803864E3,6.558585E2,-1.505331E3,-5.0415646E2,4.5101254E2,1.5082717E3,-8.9987175E1,-5.827735E1,-3.7739117E1,-1.6561073E1,1.4477303E1,3.730178E1,6.648092E1,1.0054959E2],"categories":[],"categories_nodes":[],"categories_segments":[],"categories_sizes":[],"default_left":[0,0,0,0,0,0,0,0,0,0,0,0,0,0,0],"id":40,"left_children":[1,3,5,7,9,11,13,-1,-1,-1,-1,-1,-1,-1,-1],"loss_changes":[9.4328346E8,1.2240864E8,1.4389962E8,2.6812928E7,9.068524E6,3.1652704E7,1.1696192E7,0E0,0E0,0E0,0E0,0E0,0E0,0E0,0E0],"parents":[2147483647,0,0,1,1,2,2,3,3,4,4,5,5,6,6],"right_children":[2,4,6,8,10,12,14,-1,-1,-1,-1,-1,-1,-1,-1],"split_conditions":[4.0546297E-3,-9.5111465E-1,9.0913886E-1,-1.5880336E0,-6.554057E-1,4.9261197E-1,1.6679922E0,-8.9987175E1,-5.827735E1,-3.7739117E1,-1.6561073E1,1.4477303E1,3.730178E1,6.648092E1,1.0054959E2],"split_indices":[20,20,5,20,16,5,20,0,0,0,0,0,0,0,0],"split_type":[0,0,0,0,0,0,0,0,0,0,0,0,0,0,0],"sum_hessian":[1.329E3,5.02E2,8.27E2,2.88E2,2.14E2,6.68E2,1.59E2,1.52E2,1.36E2,8.6E1,1.28E2,4.33E2,2.35E2,1.2E2,3.9E1],"tree_param":{"num_deleted":"0","num_feature":"44","num_nodes":"15","size_leaf_vector":"1"}},{"base_weights":[2.7546148E0,-1.0297435E3,6.174828E2,-1.5256716E3,-6.0638416E2,3.5291364E2,1.2121528E3,-1.00332596E2,-6.88391E1,-4.5370678E1,-1.8195768E1,8.622386E0,2.5711023E1,5.289549E1,9.5079475E1],"categories":[],"categories_nodes":[],"categories_segments":[],"categories_sizes":[],"default_left":[0,0,0,0,0,0,0,0,0,0,0,0,0,0,0],"id":41,"left_children":[1,3,5,7,9,11,13,-1,-1,-1,-1,-1,-1,-1,-1],"loss_changes":[8.333697E8,1.0195318E8,1.2905594E8,1.3350208E7,1.9085176E7,1.6533352E7,2.4892512E7,0E0,0E0,0E0,0E0,0E0,0E0,0E0,0E0],"parents":[2147483647,0,0,1,1,2,2,3,3,4,4,5,5,6,6],"right_children":[2,4,6,8,10,12,14,-1,-1,-1,-1,-1,-1,-1,-1],"split_conditions":[4.0546297E-3,-1.2597051E0,6.103956E-1,-1.9135582E0,-7.75676E-1,3.6752257E-1,1.6486067E0,-1.00332596E2,-6.88391E1,-4.5370678E1,-1.8195768E1,8.622386E0,2.5711023E1,5.289549E1,9.5079475E1],"split_indices":[20,5,20,14,14,5,20,0,0,0,0,0,0,0,0],"split_type":[0,0,0,0,0,0,0,0,0,0,0,0,0,0,0],"sum_hessian":[1.311E3,4.89E2,8.22E2,2.24E2,2.65E2,5.7E2,2.52E2,5E1,1.74E2,1.17E2,1.48E2,2.7E2,3E2,2.08E2,4.4E1],"tree_param":{"num_deleted":"0","num_feature":"44","num_nodes":"15","size_leaf_vector":"1"}},{"base_weights":[-1.059714E1,-1.0146704E3,5.7412646E2,-1.4215253E3,-5.483083E2,3.245821E2,1.1433805E3,-1.1586696E2,-6.644912E1,-3.8116863E1,-1.5491877E1,3.3299706E0,2.183062E1,4.508495E1,7.456412E1],"categories":[],"categories_nodes":[],"categories_segments":[],"categories_sizes":[],"default_left":[0,0,0,0,0,0,0,0,0,0,0,0,0,0,0],"id":42,"left_children":[1,3,5,7,9,11,13,-1,-1,-1,-1,-1,-1,-1,-1],"loss_changes":[7.7849715E8,9.18145E7,1.1867024E8,1.8474656E7,1.1451872E7,1.6849608E7,2.0096064E7,0E0,0E0,0E0,0E0,0E0,0E0,0E0,0E0],"parents":[2147483647,0,0,1,1,2,2,3,3,4,4,5,5,6,6],"right_children":[2,4,6,8,10,12,14,-1,-1,-1,-1,-1,-1,-1,-1],"split_conditions":[-1.4347241E-3,-1.1977727E0,6.025376E-1,-1.9719013E0,-6.554057E-1,3.3046544E-1,1.5038278E0,-1.1586696E2,-6.644912E1,-3.8116863E1,-1.5491877E1,3.3299706E0,2.183062E1,4.508495E1,7.456412E1],"split_indices":[5,5,20,20,16,20,20,0,0,0,0,0,0,0,0],"split_type":[0,0,0,0,0,0,0,0,0,0,0,0,0,0,0],"sum_hessian":[1.324E3,4.87E2,8.37E2,2.59E2,2.28E2,5.83E2,2.54E2,2.2E1,2.37E2,1.19E2,1.09E2,1.77E2,4.06E2,1.52E2,1.02E2],"tree_param":{"num_deleted":"0","num_feature":"44","num_nodes":"15","size_leaf_vector":"1"}},{"base_weights":[4.9784384E0,-9.192504E2,5.5818475E2,-1.2997075E3,-4.391304E2,3.7415616E2,1.3110939E3,-8.084718E1,-5.2144684E1,-3.2437084E1,-1.4068071E1,1.3216654E1,3.40518E1,8.161819E1,5.550251E1],"categories":[],"categories_nodes":[],"categories_segments":[],"categories_sizes":[],"default_left":[0,0,0,0,0,0,0,0,0,0,0,0,0,0,0],"id":43,"left_children":[1,3,5,7,9,11,13,-1,-1,-1,-1,-1,-1,-1,-1],"loss_changes":[6.841068E8,9.094448E7,1.154815E8,2.1044E7,7.192112E6,2.2535456E7,8.78064E6,0E0,0E0,0E0,0E0,0E0,0E0,0E0,0E0],"parents":[2147483647,0,0,1,1,2,2,3,3,4,4,5,5,6,6],"right_children":[2,4,6,8,10,12,14,-1,-1,-1,-1,-1,-1,-1,-1],"split_conditions":[4.8404172E-2,-9.1770583E-1,1.1578839E0,-1.7665673E0,-6.554057E-1,5.448135E-1,-6.8411154E-1,-8.084718E1,-5.2144684E1,-3.2437084E1,-1.4068071E1,1.3216654E1,3.40518E1,8.161819E1,5.550251E1],"split_indices":[5,16,5,5,16,16,1,0,0,0,0,0,0,0,0],"split_type":[0,0,0,0,0,0,0,0,0,0,0,0,0,0,0],"sum_hessian":[1.336E3,5E2,8.36E2,2.78E2,2.22E2,6.73E2,1.63E2,1.22E2,1.56E2,9.4E1,1.28E2,4.97E2,1.76E2,6E1,1.03E2],"tree_param":{"num_deleted":"0","num_feature":"44","num_nodes":"15","size_leaf_vector":"1"}},{"base_weights":[8.323559E0,-8.834567E2,5.192738E2,-1.3618545E3,-5.2362036E2,2.3895207E2,9.1753186E2,-1.06140236E2,-6.2218678E1,-4.052165E1,-1.5927852E1,1.685467E0,1.635781E1,3.448026E1,6.2927376E1],"categories":[],"categories_nodes":[],"categories_segments":[],"categories_sizes":[],"default_left":[0,0,0,0,0,0,0,0,0,0,0,0,0,0,0],"id":44,"left_children":[1,3,5,7,9,11,13,-1,-1,-1,-1,-1,-1,-1,-1],"loss_changes":[5.9918995E8,8.174432E7,9.311211E7,1.56848E7,1.5915896E7,8.895774E6,2.5947776E7,0E0,0E0,0E0,0E0,0E0,0E0,0E0,0E0],"parents":[2147483647,0,0,1,1,2,2,3,3,4,4,5,5,6,6],"right_children":[2,4,6,8,10,12,14,-1,-1,-1,-1,-1,-1,-1,-1],"split_conditions":[4.712892E-2,-1.2944402E0,5.4539233E-1,-1.9608281E0,-8.057838E-1,3.2290202E-1,1.3243948E0,-1.06140236E2,-6.2218678E1,-4.052165E1,-1.5927852E1,1.685467E0,1.635781E1,3.448026E1,6.2927376E1],"split_indices":[20,11,20,20,16,20,16,0,0,0,0,0,0,0,0],"split_type":[0,0,0,0,0,0,0,0,0,0,0,0,0,0,0],"sum_hessian":[1.313E3,4.78E2,8.35E2,2.04E2,2.74E2,4.91E2,3.44E2,2.5E1,1.79E2,1.13E2,1.61E2,1.48E2,3.43E2,2.08E2,1.36E2],"tree_param":{"num_deleted":"0","num_feature":"44","num_nodes":"15","size_leaf_vector":"1"}},{"base_weights":[1.0756338E1,-8.5209985E2,5.073878E2,-1.3345737E3,-5.367028E2,3.1138928E2,1.1202706E3,-9.05152E1,-6.0006264E1,-3.9819046E1,-1.6865704E1,6.0866904E0,2.3611238E1,4.98307E1,8.15281E1],"categories":[],"categories_nodes":[],"categories_segments":[],"categories_sizes":[],"default_left":[0,0,0,0,0,0,0,0,0,0,0,0,0,0,0],"id":45,"left_children":[1,3,5,7,9,11,13,-1,-1,-1,-1,-1,-1,-1,-1],"loss_changes":[5.806505E8,7.460829E7,1.0295789E8,1.029984E7,1.5316224E7,1.9861188E7,1.1499952E7,0E0,0E0,0E0,0E0,0E0,0E0,0E0,0E0],"parents":[2147483647,0,0,1,1,2,2,3,3,4,4,5,5,6,6],"right_children":[2,4,6,8,10,12,14,-1,-1,-1,-1,-1,-1,-1,-1],"split_conditions":[-1.6543485E-2,-1.2865646E0,8.3727616E-1,-1.9289218E0,-8.5992974E-1,3.660489E-1,1.6679922E0,-9.05152E1,-6.0006264E1,-3.9819046E1,-1.6865704E1,6.0866904E0,2.3611238E1,4.98307E1,8.15281E1],"split_indices":[20,20,13,20,20,20,20,0,0,0,0,0,0,0,0],"split_type":[0,0,0,0,0,0,0,0,0,0,0,0,0,0,0],"sum_hessian":[1.353E3,4.94E2,8.59E2,1.94E2,3E2,6.52E2,2.07E2,4E1,1.54E2,1.29E2,1.71E2,3E2,3.52E2,1.69E2,3.8E1],"tree_param":{"num_deleted":"0","num_feature":"44","num_nodes":"15","size_leaf_vector":"1"}},{"base_weights":[-9.223984E0,-8.630317E2,4.7315836E2,-1.3195939E3,-5.814243E2,2.5073894E2,9.2732837E2,-8.4877E1,-5.89286E1,-3.9159748E1,-1.622653E1,1.2571794E0,1.7816694E1,3.8152573E1,6.746495E1],"categories":[],"categories_nodes":[],"categories_segments":[],"categories_sizes":[],"default_left":[0,0,0,0,0,0,0,0,0,0,0,0,0,0,0],"id":46,"left_children":[1,3,5,7,9,11,13,-1,-1,-1,-1,-1,-1,-1,-1],"loss_changes":[5.55598E8,6.1846944E7,8.684347E7,7.859584E6,1.5451416E7,1.380764E7,1.8588E7,0E0,0E0,0E0,0E0,0E0,0E0,0E0,0E0],"parents":[2147483647,0,0,1,1,2,2,3,3,4,4,5,5,6,6],"right_children":[2,4,6,8,10,12,14,-1,-1,-1,-1,-1,-1,-1,-1],"split_conditions":[-6.4853884E-2,-1.3138369E0,5.7897896E-1,-9.5616806E-1,-8.7174857E-1,3.2800552E-1,1.5552266E0,-8.4877E1,-5.89286E1,-3.9159748E1,-1.622653E1,1.2571794E0,1.7816694E1,3.8152573E1,6.746495E1],"split_indices":[20,20,20,1,13,20,20,0,0,0,0,0,0,0,0],"split_type":[0,0,0,0,0,0,0,0,0,0,0,0,0,0,0],"sum_hessian":[1.347E3,4.86E2,8.61E2,1.84E2,3.02E2,5.79E2,2.82E2,4.7E1,1.37E2,1.68E2,1.34E2,1.85E2,3.94E2,2.05E2,7.7E1],"tree_param":{"num_deleted":"0","num_feature":"44","num_nodes":"15","size_leaf_vector":"1"}},{"base_weights":[-1.180255E1,-7.646771E2,4.5774625E2,-1.0444027E3,-3.4743033E2,3.1380615E2,1.0555594E3,-6.5380875E1,-4.1127792E1,-2.5218954E1,-1.1662273E1,7.047268E0,2.3302555E1,4.504871E1,7.248263E1],"categories":[],"categories_nodes":[],"categories_segments":[],"categories_sizes":[],"default_left":[0,0,0,0,0,0,0,0,0,0,0,0,0,0,0],"id":47,"left_children":[1,3,5,7,9,11,13,-1,-1,-1,-1,-1,-1,-1,-1],"loss_changes":[4.8041843E8,6.0562144E7,7.169202E7,1.7143168E7,3.663726E6,1.7724724E7,8.563104E6,0E0,0E0,0E0,0E0,0E0,0E0,0E0,0E0],"parents":[2147483647,0,0,1,1,2,2,3,3,4,4,5,5,6,6],"right_children":[2,4,6,8,10,12,14,-1,-1,-1,-1,-1,-1,-1,-1],"split_conditions":[4.0546297E-3,-9.180251E-1,9.0913886E-1,-1.6693168E0,-6.1206794E-1,3.8697273E-1,1.6486067E0,-6.5380875E1,-4.1127792E1,-2.5218954E1,-1.1662273E1,7.047268E0,2.3302555E1,4.504871E1,7.248263E1],"split_indices":[20,5,5,20,5,20,20,0,0,0,0,0,0,0,0],"split_type":[0,0,0,0,0,0,0,0,0,0,0,0,0,0,0],"sum_hessian":[1.357E3,5.21E2,8.36E2,3.11E2,2.1E2,6.75E2,1.61E2,1.4E2,1.71E2,8.7E1,1.23E2,3.17E2,3.58E2,1.18E2,4.3E1],"tree_param":{"num_deleted":"0","num_feature":"44","num_nodes":"15","size_leaf_vector":"1"}},{"base_weights":[7.0915895E0,-7.117471E2,4.3597E2,-1.0180685E3,-3.2770895E2,2.9416983E2,1.0446499E3,-8.1898E1,-4.650291E1,-2.4848488E1,-1.0205077E1,6.625194E0,2.2989767E1,4.561373E1,7.246596E1],"categories":[],"categories_nodes":[],"categories_segments":[],"categories_sizes":[],"default_left":[0,0,0,0,0,0,0,0,0,0,0,0,0,0,0],"id":48,"left_children":[1,3,5,7,9,11,13,-1,-1,-1,-1,-1,-1,-1,-1],"loss_changes":[4.100335E8,5.813299E7,7.158966E7,1.3534304E7,4.543228E6,1.8066444E7,7.088048E6,0E0,0E0,0E0,0E0,0E0,0E0,0E0,0E0],"parents":[2147483647,0,0,1,1,2,2,3,3,4,4,5,5,6,6],"right_children":[2,4,6,8,10,12,14,-1,-1,-1,-1,-1,-1,-1,-1],"split_conditions":[4.0546297E-3,-9.5111465E-1,1.2245734E0,-1.9289218E0,-7.0835453E-1,4.1732493E-1,1.6679922E0,-8.1898E1,-4.650291E1,-2.4848488E1,-1.0205077E1,6.625194E0,2.2989767E1,4.561373E1,7.246596E1],"split_indices":[20,20,20,20,9,20,20,0,0,0,0,0,0,0,0],"split_type":[0,0,0,0,0,0,0,0,0,0,0,0,0,0,0],"sum_hessian":[1.328E3,4.96E2,8.32E2,2.75E2,2.21E2,6.76E2,1.56E2,3.2E1,2.43E2,9.2E1,1.29E2,3.43E2,3.33E2,1.2E2,3.6E1],"tree_param":{"num_deleted":"0","num_feature":"44","num_nodes":"15","size_leaf_vector":"1"}},{"base_weights":[-3.8075256E0,-6.908153E2,4.0585117E2,-1.1091527E3,-4.600999E2,1.9675119E2,7.541736E2,-8.2099525E1,-5.128125E1,-3.205246E1,-1.3022098E1,2.9072833E0,1.315233E1,3.073947E1,5.5138546E1],"categories":[],"categories_nodes":[],"categories_segments":[],"categories_sizes":[],"default_left":[0,0,0,0,0,0,0,0,0,0,0,0,0,0,0],"id":49,"left_children":[1,3,5,7,9,11,13,-1,-1,-1,-1,-1,-1,-1,-1],"loss_changes":[3.872586E8,4.909936E7,6.2634704E7,6.416144E6,1.1863656E7,4.94672E6,1.5016256E7,0E0,0E0,0E0,0E0,0E0,0E0,0E0,0E0],"parents":[2147483647,0,0,1,1,2,2,3,3,4,4,5,5,6,6],"right_children":[2,4,6,8,10,12,14,-1,-1,-1,-1,-1,-1,-1,-1],"split_conditions":[-1.4347241E-3,-1.3051268E0,5.7046205E-1,-1.992276E0,-2.2020672E-2,3.2478628E-1,1.5129836E0,-8.2099525E1,-5.128125E1,-3.205246E1,-1.3022098E1,2.9072833E0,1.315233E1,3.073947E1,5.5138546E1],"split_indices":[5,10,5,5,33,5,16,0,0,0,0,0,0,0,0],"split_type":[0,0,0,0,0,0,0,0,0,0,0,0,0,0,0],"sum_hessian":[1.374E3,5.13E2,8.61E2,1.81E2,3.32E2,5.39E2,3.22E2,2.2E1,1.59E2,1.73E2,1.59E2,1.75E2,3.64E2,2.32E2,9E1],"tree_param":{"num_deleted":"0","num_feature":"44","num_nodes":"15","size_leaf_vector":"1"}},{"base_weights":[1.7576898E0,-6.3723035E2,4.049173E2,-1.0346031E3,-4.0580768E2,1.9138185E2,7.2205225E2,-8.270913E1,-4.759905E1,-2.7961365E1,-1.0720054E1,6.6417533E-1,1.2283685E1,2.97432E1,5.3523235E1],"categories":[],"categories_nodes":[],"categories_segments":[],"categories_sizes":[],"default_left":[0,0,0,0,0,0,0,0,0,0,0,0,0,0,0],"id":50,"left_children":[1,3,5,7,9,11,13,-1,-1,-1,-1,-1,-1,-1,-1],"loss_changes":[3.4494582E8,4.7215984E7,5.545957E7,8.151536E6,9.541356E6,4.754024E6,1.3986832E7,0E0,0E0,0E0,0E0,0E0,0E0,0E0,0E0],"parents":[2147483647,0,0,1,1,2,2,3,3,4,4,5,5,6,6],"right_children":[2,4,6,8,10,12,14,-1,-1,-1,-1,-1,-1,-1,-1],"split_conditions":[4.712892E-2,-1.2865646E0,5.5801105E-1,-1.9719013E0,-7.502769E-1,2.94588E-1,1.5471519E0,-8.270913E1,-4.759905E1,-2.7961365E1,-1.0720054E1,6.6417533E-1,1.2283685E1,2.97432E1,5.3523235E1],"split_indices":[20,20,20,20,12,20,20,0,0,0,0,0,0,0,0],"split_type":[0,0,0,0,0,0,0,0,0,0,0,0,0,0,0],"sum_hessian":[1.337E3,5.17E2,8.2E2,1.89E2,3.28E2,4.91E2,3.29E2,2E1,1.69E2,1.81E2,1.47E2,1.15E2,3.76E2,2.43E2,8.6E1],"tree_param":{"num_deleted":"0","num_feature":"44","num_nodes":"15","size_leaf_vector":"1"}},{"base_weights":[-1.2481833E0,-6.02753E2,3.9261337E2,-1.0726744E3,-4.089784E2,2.6292465E2,8.787357E2,-8.122928E1,-4.8702858E1,-2.8005905E1,-9.466778E0,8.53705E0,2.2564428E1,3.763029E1,6.2410774E1],"categories":[],"categories_nodes":[],"categories_segments":[],"categories_sizes":[],"default_left":[0,0,0,0,0,0,0,0,0,0,0,0,0,0,0],"id":51,"left_children":[1,3,5,7,9,11,13,-1,-1,-1,-1,-1,-1,-1,-1],"loss_changes":[3.19117E8,4.8095664E7,5.1087256E7,6.853904E6,1.2475524E7,1.1105412E7,7.0296E6,0E0,0E0,0E0,0E0,0E0,0E0,0E0,0E0],"parents":[2147483647,0,0,1,1,2,2,3,3,4,4,5,5,6,6],"right_children":[2,4,6,8,10,12,14,-1,-1,-1,-1,-1,-1,-1,-1],"split_conditions":[1.6634297E-1,-1.5194541E0,1.2245734E0,-1.9719013E0,-7.5016576E-1,5.121473E-1,1.6679922E0,-8.122928E1,-4.8702858E1,-2.8005905E1,-9.466778E0,8.53705E0,2.2564428E1,3.763029E1,6.2410774E1],"split_indices":[11,20,20,20,12,20,20,0,0,0,0,0,0,0,0],"split_type":[0,0,0,0,0,0,0,0,0,0,0,0,0,0,0],"sum_hessian":[1.345E3,5.32E2,8.13E2,1.54E2,3.78E2,6.43E2,1.7E2,2.1E1,1.33E2,2.23E2,1.55E2,4.33E2,2.1E2,1.29E2,4.1E1],"tree_param":{"num_deleted":"0","num_feature":"44","num_nodes":"15","size_leaf_vector":"1"}},{"base_weights":[-1.174763E1,-6.13516E2,3.2001016E2,-9.334794E2,-3.9349298E2,1.4824026E2,6.406494E2,-7.644653E1,-4.2371365E1,-2.8229269E1,-1.3070064E1,-1.8434908E0,1.1151311E1,2.8051315E1,5.3880505E1],"categories":[],"categories_nodes":[],"categories_segments":[],"categories_sizes":[],"default_left":[0,0,0,0,0,0,0,0,0,0,0,0,0,0,0],"id":52,"left_children":[1,3,5,7,9,11,13,-1,-1,-1,-1,-1,-1,-1,-1],"loss_changes":[2.657193E8,3.2931552E7,4.716039E7,8.5424E6,6.225584E6,7.760658E6,9.79828E6,0E0,0E0,0E0,0E0,0E0,0E0,0E0,0E0],"parents":[2147483647,0,0,1,1,2,2,3,3,4,4,5,5,6,6],"right_children":[2,4,6,8,10,12,14,-1,-1,-1,-1,-1,-1,-1,-1],"split_conditions":[-1.13129795E-1,-1.2854823E0,5.7046205E-1,-1.992276E0,-8.903627E-1,3.0809113E-1,1.6435883E0,-7.644653E1,-4.2371365E1,-2.8229269E1,-1.3070064E1,-1.8434908E0,1.1151311E1,2.8051315E1,5.3880505E1],"split_indices":[11,5,5,5,8,20,20,0,0,0,0,0,0,0,0],"split_type":[0,0,0,0,0,0,0,0,0,0,0,0,0,0,0],"sum_hessian":[1.329E3,4.72E2,8.57E2,1.91E2,2.81E2,5.59E2,2.98E2,2.2E1,1.69E2,1.21E2,1.6E2,1.61E2,3.98E2,2.54E2,4.4E1],"tree_param":{"num_deleted":"0","num_feature":"44","num_nodes":"15","size_leaf_vector":"1"}},{"base_weights":[-1.5982761E1,-5.85636E2,3.1801724E2,-9.223234E2,-3.6995737E2,2.1285173E2,8.2922095E2,-7.677172E1,-4.232751E1,-2.5629734E1,-1.0500655E1,5.1452975E0,1.8272675E1,3.38149E1,5.3219086E1],"categories":[],"categories_nodes":[],"categories_segments":[],"categories_sizes":[],"default_left":[0,0,0,0,0,0,0,0,0,0,0,0,0,0,0],"id":53,"left_children":[1,3,5,7,9,11,13,-1,-1,-1,-1,-1,-1,-1,-1],"loss_changes":[2.5533051E8,3.567645E7,4.5305296E7,7.666448E6,6.827808E6,1.175727E7,4.458608E6,0E0,0E0,0E0,0E0,0E0,0E0,0E0,0E0],"parents":[2147483647,0,0,1,1,2,2,3,3,4,4,5,5,6,6],"right_children":[2,4,6,8,10,12,14,-1,-1,-1,-1,-1,-1,-1,-1],"split_conditions":[-1.2415142E-2,-1.298873E0,1.3243948E0,-2.0105767E0,-8.057838E-1,4.6615416E-1,1.6271511E0,-7.677172E1,-4.232751E1,-2.5629734E1,-1.0500655E1,5.1452975E0,1.8272675E1,3.38149E1,5.3219086E1],"split_indices":[5,5,16,5,16,5,5,0,0,0,0,0,0,0,0],"split_type":[0,0,0,0,0,0,0,0,0,0,0,0,0,0,0],"sum_hessian":[1.34E3,4.95E2,8.45E2,1.92E2,3.03E2,7.02E2,1.43E2,1.9E1,1.73E2,1.59E2,1.44E2,4.09E2,2.93E2,8.9E1,5.4E1],"tree_param":{"num_deleted":"0","num_feature":"44","num_nodes":"15","size_leaf_vector":"1"}},{"base_weights":[-1.5739569E1,-6.7214105E2,2.5736838E2,-9.2699426E2,-4.8617975E2,8.758979E1,5.654674E2,-6.79743E1,-4.1939648E1,-2.9111938E1,-1.6944748E1,-5.890302E0,8.515369E0,1.9838945E1,3.8882717E1],"categories":[],"categories_nodes":[],"categories_segments":[],"categories_sizes":[],"default_left":[0,0,0,0,0,0,0,0,0,0,0,0,0,0,0],"id":54,"left_children":[1,3,5,7,9,11,13,-1,-1,-1,-1,-1,-1,-1,-1],"loss_changes":[2.3734515E8,1.798512E7,4.8859024E7,5.07752E6,3.014284E6,1.0281931E7,1.1574888E7,0E0,0E0,0E0,0E0,0E0,0E0,0E0,0E0],"parents":[2147483647,0,0,1,1,2,2,3,3,4,4,5,5,6,6],"right_children":[2,4,6,8,10,12,14,-1,-1,-1,-1,-1,-1,-1,-1],"split_conditions":[-6.452009E-1,-1.4140425E0,5.448135E-1,-1.9276202E0,-5.5814004E-1,2.1078247E-1,1.19387E0,-6.79743E1,-4.1939648E1,-2.9111938E1,-1.6944748E1,-5.890302E0,8.515369E0,1.9838945E1,3.8882717E1],"split_indices":[11,11,16,11,35,13,16,0,0,0,0,0,0,0,0],"split_type":[0,0,0,0,0,0,0,0,0,0,0,0,0,0,0],"sum_hessian":[1.322E3,3.88E2,9.34E2,1.62E2,2.26E2,6.03E2,3.31E2,2.5E1,1.37E2,1.35E2,9.1E1,1.73E2,4.3E2,1.86E2,1.45E2],"tree_param":{"num_deleted":"0","num_feature":"44","num_nodes":"15","size_leaf_vector":"1"}},{"base_weights":[-1.896547E1,-6.4508496E2,2.384296E2,-8.8476306E2,-4.6972787E2,7.495248E1,5.5780804E2,-6.612125E1,-3.9662045E1,-4.112682E1,-2.2002253E1,-5.0406084E0,8.705301E0,2.3236784E1,4.4246975E1],"categories":[],"categories_nodes":[],"categories_segments":[],"categories_sizes":[],"default_left":[0,0,0,0,0,0,0,0,0,0,0,0,0,0,0],"id":55,"left_children":[1,3,5,7,9,11,13,-1,-1,-1,-1,-1,-1,-1,-1],"loss_changes":[2.0966187E8,1.5513504E7,4.80968E7,5.319864E6,1.952436E6,1.0665868E7,9.088176E6,0E0,0E0,0E0,0E0,0E0,0E0,0E0,0E0],"parents":[2147483647,0,0,1,1,2,2,3,3,4,4,5,5,6,6],"right_children":[2,4,6,8,10,12,14,-1,-1,-1,-1,-1,-1,-1,-1],"split_conditions":[-6.6737336E-1,-1.5880336E0,5.2760804E-1,-1.9276202E0,-1.2028235E0,2.66136E-1,1.5617212E0,-6.612125E1,-3.9662045E1,-4.112682E1,-2.2002253E1,-5.0406084E0,8.705301E0,2.3236784E1,4.4246975E1],"split_indices":[8,20,11,11,3,20,20,0,0,0,0,0,0,0,0],"split_type":[0,0,0,0,0,0,0,0,0,0,0,0,0,0,0],"sum_hessian":[1.299E3,3.78E2,9.21E2,1.58E2,2.2E2,6.1E2,3.11E2,2.5E1,1.33E2,1.5E1,2.05E2,2.2E2,3.9E2,2.44E2,6.7E1],"tree_param":{"num_deleted":"0","num_feature":"44","num_nodes":"15","size_leaf_vector":"1"}},{"base_weights":[-7.5055056E0,-5.0482086E2,2.7123114E2,-7.5115607E2,-3.0027032E2,1.7865657E2,6.84615E2,-4.5972137E1,-3.204401E1,-2.1086958E1,-9.440181E0,4.5397854E0,1.572878E1,2.9157501E1,5.172639E1],"categories":[],"categories_nodes":[],"categories_segments":[],"categories_sizes":[],"default_left":[0,0,0,0,0,0,0,0,0,0,0,0,0,0,0],"id":56,"left_children":[1,3,5,7,9,11,13,-1,-1,-1,-1,-1,-1,-1,-1],"loss_changes":[1.8602635E8,2.4061464E7,3.2788888E7,3.456376E6,3.508404E6,8.378578E6,4.970816E6,0E0,0E0,0E0,0E0,0E0,0E0,0E0,0E0],"parents":[2147483647,0,0,1,1,2,2,3,3,4,4,5,5,6,6],"right_children":[2,4,6,8,10,12,14,-1,-1,-1,-1,-1,-1,-1,-1],"split_conditions":[-8.451974E-2,-1.2731346E0,1.2245734E0,-1.7899922E0,-4.473901E-2,4.6292022E-1,1.6772625E0,-4.5972137E1,-3.204401E1,-2.1086958E1,-9.440181E0,4.5397854E0,1.572878E1,2.9157501E1,5.172639E1],"split_indices":[20,20,20,20,33,20,20,0,0,0,0,0,0,0,0],"split_type":[0,0,0,0,0,0,0,0,0,0,0,0,0,0,0],"sum_hessian":[1.34E3,4.81E2,8.59E2,2.17E2,2.64E2,7.03E2,1.56E2,8.3E1,1.34E2,1.25E2,1.39E2,4.28E2,2.75E2,1.23E2,3.3E1],"tree_param":{"num_deleted":"0","num_feature":"44","num_nodes":"15","size_leaf_vector":"1"}},{"base_weights":[3.7145371E0,-4.7061508E2,2.8685016E2,-6.368884E2,-2.1805214E2,1.8825285E2,6.5319745E2,-4.043329E1,-2.553751E1,-7.002517E0,-1.5875422E1,4.7915473E0,1.4733806E1,-3.7993164E1,3.3672863E1],"categories":[],"categories_nodes":[],"categories_segments":[],"categories_sizes":[],"default_left":[0,0,0,0,0,0,0,0,0,0,0,0,0,0,0],"id":57,"left_children":[1,3,5,7,9,11,13,-1,-1,-1,-1,-1,-1,-1,-1],"loss_changes":[1.8143949E8,2.1068344E7,3.0435272E7,6.173952E6,1.522602E6,6.542104E6,5.636208E6,0E0,0E0,0E0,0E0,0E0,0E0,0E0,0E0],"parents":[2147483647,0,0,1,1,2,2,3,3,4,4,5,5,6,6],"right_children":[2,4,6,8,10,12,14,-1,-1,-1,-1,-1,-1,-1,-1],"split_conditions":[-1.4347241E-3,-9.180251E-1,9.0913886E-1,-1.779383E0,6.90356E-1,4.3989348E-1,-3.9229176E0,-4.043329E1,-2.553751E1,-7.002517E0,-1.5875422E1,4.7915473E0,1.4733806E1,-3.7993164E1,3.3672863E1],"split_indices":[5,5,5,11,1,5,3,0,0,0,0,0,0,0,0],"split_type":[0,0,0,0,0,0,0,0,0,0,0,0,0,0,0],"sum_hessian":[1.349E3,5.04E2,8.45E2,3.03E2,2.01E2,6.67E2,1.78E2,1.26E2,1.77E2,1.14E2,8.7E1,3.58E2,3.09E2,2E0,1.76E2],"tree_param":{"num_deleted":"0","num_feature":"44","num_nodes":"15","size_leaf_vector":"1"}},{"base_weights":[-8.323386E-2,-4.3402075E2,2.6433087E2,-6.3919885E2,-2.0155981E2,1.7343675E2,6.5905774E2,-5.947593E1,-2.9075178E1,-6.5105777E0,-1.4876882E1,7.9556704E0,4.386821E1,2.886373E1,4.7982708E1],"categories":[],"categories_nodes":[],"categories_segments":[],"categories_sizes":[],"default_left":[0,0,0,0,0,0,0,0,0,0,0,0,0,0,0],"id":58,"left_children":[1,3,5,7,9,11,13,-1,-1,-1,-1,-1,-1,-1,-1],"loss_changes":[1.5030834E8,2.352832E7,2.9090672E7,7.658768E6,1.563654E6,6.545158E6,3.182744E6,0E0,0E0,0E0,0E0,0E0,0E0,0E0,0E0],"parents":[2147483647,0,0,1,1,2,2,3,3,4,4,5,5,6,6],"right_children":[2,4,6,8,10,12,14,-1,-1,-1,-1,-1,-1,-1,-1],"split_conditions":[1.6634297E-1,-9.659514E-1,1.1578839E0,-1.992276E0,6.90356E-1,1.6994816E0,1.6772625E0,-5.947593E1,-2.9075178E1,-6.5105777E0,-1.4876882E1,7.9556704E0,4.386821E1,2.886373E1,4.7982708E1],"split_indices":[11,6,5,5,1,3,20,0,0,0,0,0,0,0,0],"split_type":[0,0,0,0,0,0,0,0,0,0,0,0,0,0,0],"sum_hessian":[1.308E3,4.95E2,8.13E2,2.62E2,2.33E2,6.62E2,1.51E2,2.3E1,2.39E2,1.35E2,9.8E1,6.5E2,1.2E1,1.21E2,3E1],"tree_param":{"num_deleted":"0","num_feature":"44","num_nodes":"15","size_leaf_vector":"1"}},{"base_weights":[-1.1659163E1,-5.1210297E2,2.0168352E2,-7.101716E2,-3.779235E2,5.9288593E1,4.557837E2,-6.0363995E1,-3.232767E1,-3.6771187E1,-1.762617E1,-4.106491E0,7.20662E0,2.0522635E1,4.5223907E1],"categories":[],"categories_nodes":[],"categories_segments":[],"categories_sizes":[],"default_left":[0,0,0,0,0,0,0,0,0,0,0,0,0,0,0],"id":59,"left_children":[1,3,5,7,9,11,13,-1,-1,-1,-1,-1,-1,-1,-1],"loss_changes":[1.4252915E8,1.0335728E7,3.383987E7,4.279448E6,1.920076E6,7.2229225E6,6.462912E6,0E0,0E0,0E0,0E0,0E0,0E0,0E0,0E0],"parents":[2147483647,0,0,1,1,2,2,3,3,4,4,5,5,6,6],"right_children":[2,4,6,8,10,12,14,-1,-1,-1,-1,-1,-1,-1,-1],"split_conditions":[-5.8158374E-1,-1.4140425E0,5.4539233E-1,-2.0105767E0,-8.9889306E-1,2.7808627E-1,1.6772625E0,-6.0363995E1,-3.232767E1,-3.6771187E1,-1.762617E1,-4.106491E0,7.20662E0,2.0522635E1,4.5223907E1],"split_indices":[11,11,20,5,4,20,20,0,0,0,0,0,0,0,0],"split_type":[0,0,0,0,0,0,0,0,0,0,0,0,0,0,0],"sum_hessian":[1.333E3,3.98E2,9.35E2,1.59E2,2.39E2,6E2,3.35E2,1.6E1,1.43E2,1.4E1,2.25E2,2.25E2,3.75E2,3.06E2,2.9E1],"tree_param":{"num_deleted":"0","num_feature":"44","num_nodes":"15","size_leaf_vector":"1"}},{"base_weights":[1.1181005E0,-3.8138766E2,2.4997592E2,-6.8349365E2,-2.5010547E2,1.5367625E2,5.317571E2,-5.542683E1,-3.1320484E1,-1.9603193E1,-7.801374E0,3.487908E0,1.2700579E1,3.027654E1,1.055484E1],"categories":[],"categories_nodes":[],"categories_segments":[],"categories_sizes":[],"default_left":[0,0,0,0,0,0,0,0,0,0,0,0,0,0,0],"id":60,"left_children":[1,3,5,7,9,11,13,-1,-1,-1,-1,-1,-1,-1,-1],"loss_changes":[1.3040983E8,2.1246072E7,2.2440688E7,3.260496E6,4.987078E6,5.202649E6,4.863656E6,0E0,0E0,0E0,0E0,0E0,0E0,0E0,0E0],"parents":[2147483647,0,0,1,1,2,2,3,3,4,4,5,5,6,6],"right_children":[2,4,6,8,10,12,14,-1,-1,-1,-1,-1,-1,-1,-1],"split_conditions":[1.4479476E-1,-1.4852357E0,8.3727616E-1,-2.0105767E0,-9.803414E-1,4.3714145E-1,6.574727E-1,-5.542683E1,-3.1320484E1,-1.9603193E1,-7.801374E0,3.487908E0,1.2700579E1,3.027654E1,1.055484E1],"split_indices":[5,5,13,5,12,5,35,0,0,0,0,0,0,0,0],"split_type":[0,0,0,0,0,0,0,0,0,0,0,0,0,0,0],"sum_hessian":[1.368E3,5.39E2,8.29E2,1.62E2,3.77E2,6.19E2,2.1E2,1.7E1,1.45E2,1.49E2,2.28E2,3.38E2,2.81E2,1.7E2,4E1],"tree_param":{"num_deleted":"0","num_feature":"44","num_nodes":"15","size_leaf_vector":"1"}},{"base_weights":[1.5464575E0,-3.7293018E2,2.4080626E2,-6.5549457E2,-2.5399292E2,1.6156305E2,5.602059E2,-5.6477417E1,-2.9810575E1,-2.1277548E1,-7.2400002E0,4.948137E0,1.4216654E1,3.873321E1,2.4177101E1],"categories":[],"categories_nodes":[],"categories_segments":[],"categories_sizes":[],"default_left":[0,0,0,0,0,0,0,0,0,0,0,0,0,0,0],"id":61,"left_children":[1,3,5,7,9,11,13,-1,-1,-1,-1,-1,-1,-1,-1],"loss_changes":[1.1997086E8,1.7376592E7,2.0587972E7,3.654476E6,6.850826E6,5.013514E6,2.288888E6,0E0,0E0,0E0,0E0,0E0,0E0,0E0,0E0],"parents":[2147483647,0,0,1,1,2,2,3,3,4,4,5,5,6,6],"right_children":[2,4,6,8,10,12,14,-1,-1,-1,-1,-1,-1,-1,-1],"split_conditions":[1.728697E-1,-1.6326537E0,1.19387E0,-2.0105767E0,-5.5814004E-1,5.176178E-1,-1.0655365E0,-5.6477417E1,-2.9810575E1,-2.1277548E1,-7.2400002E0,4.948137E0,1.4216654E1,3.873321E1,2.4177101E1],"split_indices":[5,13,16,5,35,13,1,0,0,0,0,0,0,0,0],"split_type":[0,0,0,0,0,0,0,0,0,0,0,0,0,0,0],"sum_hessian":[1.337E3,5.21E2,8.16E2,1.53E2,3.68E2,6.55E2,1.61E2,1.5E1,1.38E2,1.42E2,2.26E2,4.35E2,2.2E2,4E1,1.21E2],"tree_param":{"num_deleted":"0","num_feature":"44","num_nodes":"15","size_leaf_vector":"1"}},{"base_weights":[-1.3331486E0,-3.7144455E2,2.2117068E2,-6.225054E2,-2.38831E2,1.5184496E2,5.6575354E2,-4.1126198E1,-2.6481567E1,-1.6912388E1,-7.1602855E0,6.5835953E0,4.032414E1,2.4607111E1,4.120822E1],"categories":[],"categories_nodes":[],"categories_segments":[],"categories_sizes":[],"default_left":[0,0,0,0,0,0,0,0,0,0,0,0,0,0,0],"id":62,"left_children":[1,3,5,7,9,11,13,-1,-1,-1,-1,-1,-1,-1,-1],"loss_changes":[1.1207979E8,1.6864592E7,2.0219284E7,2.833832E6,3.145832E6,9.256895E6,2.295512E6,0E0,0E0,0E0,0E0,0E0,0E0,0E0,0E0],"parents":[2147483647,0,0,1,1,2,2,3,3,4,4,5,5,6,6],"right_children":[2,4,6,8,10,12,14,-1,-1,-1,-1,-1,-1,-1,-1],"split_conditions":[4.5206763E-2,-1.4659226E0,1.470972E0,-9.5616806E-1,-8.7174857E-1,1.8489356E0,1.6758875E0,-4.1126198E1,-2.6481567E1,-1.6912388E1,-7.1602855E0,6.5835953E0,4.032414E1,2.4607111E1,4.120822E1],"split_indices":[13,5,16,1,13,4,16,0,0,0,0,0,0,0,0],"split_type":[0,0,0,0,0,0,0,0,0,0,0,0,0,0,0],"sum_hessian":[1.359E3,5.1E2,8.49E2,1.75E2,3.35E2,7.08E2,1.41E2,5.3E1,1.22E2,1.63E2,1.72E2,6.88E2,2E1,1.12E2,2.9E1],"tree_param":{"num_deleted":"0","num_feature":"44","num_nodes":"15","size_leaf_vector":"1"}},{"base_weights":[-7.1244717E0,-3.2251282E2,1.9459088E2,-4.7029782E2,-1.413435E2,4.052358E2,1.02887184E2,-2.5585272E1,-3.8937848E0,-7.406967E0,2.1225977E1,1.8192556E1,3.749505E1,-1.236252E0,7.2843637E0],"categories":[],"categories_nodes":[],"categories_segments":[],"categories_sizes":[],"default_left":[0,0,0,0,0,0,0,0,0,0,0,0,0,0,0],"id":63,"left_children":[1,3,5,7,9,11,13,-1,-1,-1,-1,-1,-1,-1,-1],"loss_changes":[8.33396E7,1.3615096E7,1.5392522E7,4.526184E6,9.51201E5,3.179E6,3.051294E6,0E0,0E0,0E0,0E0,0E0,0E0,0E0,0E0],"parents":[2147483647,0,0,1,1,2,2,3,3,4,4,5,5,6,6],"right_children":[2,4,6,8,10,12,14,-1,-1,-1,-1,-1,-1,-1,-1],"split_conditions":[1.6634297E-1,-9.102224E-1,-3.3785546E-1,1.0190499E0,2.2810419E0,1.7038893E0,3.2672727E-1,-2.5585272E1,-3.8937848E0,-7.406967E0,2.1225977E1,1.8192556E1,3.749505E1,-1.236252E0,7.2843637E0],"split_indices":[11,6,38,18,17,5,5,0,0,0,0,0,0,0,0],"split_type":[0,0,0,0,0,0,0,0,0,0,0,0,0,0,0],"sum_hessian":[1.308E3,5.1E2,7.98E2,2.8E2,2.3E2,2.41E2,5.57E2,2.53E2,2.7E1,2.28E2,2E0,2.17E2,2.4E1,1.4E2,4.17E2],"tree_param":{"num_deleted":"0","num_feature":"44","num_nodes":"15","size_leaf_vector":"1"}},{"base_weights":[-2.98479E-1,-2.994714E2,2.2378828E2,-4.6713422E2,-1.3076512E2,1.2320878E2,4.1200623E2,-3.4293793E1,-1.8814592E1,-1.1405324E1,-4.0322676E0,5.432276E0,3.531973E1,2.5856653E1,1.1175792E1],"categories":[],"categories_nodes":[],"categories_segments":[],"categories_sizes":[],"default_left":[0,0,0,0,0,0,0,0,0,0,0,0,0,0,0],"id":64,"left_children":[1,3,5,7,9,11,13,-1,-1,-1,-1,-1,-1,-1,-1],"loss_changes":[8.9700424E7,1.614666E7,1.4431344E7,5.444888E6,1.381799E6,4.169798E6,5.155312E6,0E0,0E0,0E0,0E0,0E0,0E0,0E0,0E0],"parents":[2147483647,0,0,1,1,2,2,3,3,4,4,5,5,6,6],"right_children":[2,4,6,8,10,12,14,-1,-1,-1,-1,-1,-1,-1,-1],"split_conditions":[2.466733E-1,-9.5111465E-1,6.025376E-1,-1.7899922E0,-7.0835453E-1,1.5518961E0,6.2871087E-1,-3.4293793E1,-1.8814592E1,-1.1405324E1,-4.0322676E0,5.432276E0,3.531973E1,2.5856653E1,1.1175792E1],"split_indices":[20,20,20,20,9,3,35,0,0,0,0,0,0,0,0],"split_type":[0,0,0,0,0,0,0,0,0,0,0,0,0,0,0],"sum_hessian":[1.336E3,5.72E2,7.64E2,2.86E2,2.86E2,4.99E2,2.65E2,8.2E1,2.04E2,9.6E1,1.9E2,4.88E2,1.1E1,1.69E2,9.6E1],"tree_param":{"num_deleted":"0","num_feature":"44","num_nodes":"15","size_leaf_vector":"1"}},{"base_weights":[-1.0587028E0,-3.8366873E2,1.5578874E2,-8.825778E2,-3.462249E2,4.7847733E1,3.5620032E2,-4.9996548E1,-2.0221792E1,-2.3364668E1,-1.3438655E1,-2.839714E0,5.8282623E0,2.8800781E1,1.4673688E1],"categories":[],"categories_nodes":[],"categories_segments":[],"categories_sizes":[],"default_left":[0,0,0,0,0,0,0,0,0,0,0,0,0,0,0],"id":65,"left_children":[1,3,5,7,9,11,13,-1,-1,-1,-1,-1,-1,-1,-1],"loss_changes":[8.173529E7,7.092128E6,2.0880076E7,1.110602E6,3.343884E6,4.529595E6,4.491384E6,0E0,0E0,0E0,0E0,0E0,0E0,0E0,0E0],"parents":[2147483647,0,0,1,1,2,2,3,3,4,4,5,5,6,6],"right_children":[2,4,6,8,10,12,14,-1,-1,-1,-1,-1,-1,-1,-1],"split_conditions":[-6.452009E-1,-1.9588736E0,5.5801105E-1,1.3471505E-1,-1.5194541E0,3.0291682E-1,-6.8411154E-1,-4.9996548E1,-2.0221792E1,-2.3364668E1,-1.3438655E1,-2.839714E0,5.8282623E0,2.8800781E1,1.4673688E1],"split_indices":[11,5,20,3,20,20,1,0,0,0,0,0,0,0,0],"split_type":[0,0,0,0,0,0,0,0,0,0,0,0,0,0,0],"sum_hessian":[1.36E3,3.95E2,9.65E2,2.6E1,3.69E2,6.28E2,3.37E2,2E1,6E0,1.42E2,2.27E2,2.49E2,3.79E2,7.3E1,2.64E2],"tree_param":{"num_deleted":"0","num_feature":"44","num_nodes":"15","size_leaf_vector":"1"}},{"base_weights":[-7.632341E0,-3.7703815E2,1.4409592E2,-5.349725E2,-2.6415814E2,4.012278E1,3.220097E2,-4.8661167E1,-2.4013954E1,-3.5082672E1,-1.2465358E1,-2.019928E0,5.754791E0,1.3366271E1,2.9138657E1],"categories":[],"categories_nodes":[],"categories_segments":[],"categories_sizes":[],"default_left":[0,0,0,0,0,0,0,0,0,0,0,0,0,0,0],"id":66,"left_children":[1,3,5,7,9,11,13,-1,-1,-1,-1,-1,-1,-1,-1],"loss_changes":[7.52725E7,6.829284E6,1.759742E7,3.415628E6,1.319438E6,3.6388808E6,4.849352E6,0E0,0E0,0E0,0E0,0E0,0E0,0E0,0E0],"parents":[2147483647,0,0,1,1,2,2,3,3,4,4,5,5,6,6],"right_children":[2,4,6,8,10,12,14,-1,-1,-1,-1,-1,-1,-1,-1],"split_conditions":[-7.2340196E-1,-1.4140425E0,5.460306E-1,-2.0105767E0,-1.2346312E0,3.3645713E-1,1.6271511E0,-4.8661167E1,-2.4013954E1,-3.5082672E1,-1.2465358E1,-2.019928E0,5.754791E0,1.3366271E1,2.9138657E1],"split_indices":[12,11,5,5,36,5,5,0,0,0,0,0,0,0,0],"split_type":[0,0,0,0,0,0,0,0,0,0,0,0,0,0,0],"sum_hessian":[1.341E3,3.9E2,9.51E2,1.61E2,2.29E2,6.01E2,3.5E2,1.6E1,1.45E2,6E0,2.23E2,2.9E2,3.11E2,2.91E2,5.9E1],"tree_param":{"num_deleted":"0","num_feature":"44","num_nodes":"15","size_leaf_vector":"1"}},{"base_weights":[-1.4332677E0,-2.4927321E2,1.862969E2,-4.387347E2,-1.3522583E2,1.3577248E2,4.463209E2,-3.0600004E1,-1.8320667E1,-2.0603125E1,-5.464095E0,5.253076E0,2.1192537E1,1.8314053E1,3.2918148E1],"categories":[],"categories_nodes":[],"categories_segments":[],"categories_sizes":[],"default_left":[0,0,0,0,0,0,0,0,0,0,0,0,0,0,0],"id":67,"left_children":[1,3,5,7,9,11,13,-1,-1,-1,-1,-1,-1,-1,-1],"loss_changes":[6.3044044E7,1.25595E7,1.0068462E7,2.519996E6,2.5836665E6,5.679582E6,1.88033E6,0E0,0E0,0E0,0E0,0E0,0E0,0E0,0E0],"parents":[2147483647,0,0,1,1,2,2,3,3,4,4,5,5,6,6],"right_children":[2,4,6,8,10,12,14,-1,-1,-1,-1,-1,-1,-1,-1],"split_conditions":[2.5353992E-1,-1.2731346E0,1.470972E0,-1.7989357E0,-5.0476867E-1,5.131062E-1,1.6772625E0,-3.0600004E1,-1.8320667E1,-2.0603125E1,-5.464095E0,5.253076E0,2.1192537E1,1.8314053E1,3.2918148E1],"split_indices":[20,20,16,20,3,4,20,0,0,0,0,0,0,0,0],"split_type":[0,0,0,0,0,0,0,0,0,0,0,0,0,0,0],"sum_hessian":[1.353E3,5.83E2,7.7E2,2.18E2,3.65E2,6.46E2,1.24E2,6.2E1,1.56E2,3E1,3.35E2,5.85E2,6.1E1,9.2E1,3.2E1],"tree_param":{"num_deleted":"0","num_feature":"44","num_nodes":"15","size_leaf_vector":"1"}},{"base_weights":[1.3526931E0,-2.4176065E2,1.9018927E2,-3.7012146E2,-1.0767758E2,1.2944977E2,4.1247665E2,-2.1163668E1,-6.007335E0,-6.0139575E0,1.27967E1,-4.1534702E1,6.94892E0,1.6723185E1,3.1370375E1],"categories":[],"categories_nodes":[],"categories_segments":[],"categories_sizes":[],"default_left":[0,0,0,0,0,0,0,0,0,0,0,0,0,0,0],"id":68,"left_children":[1,3,5,7,9,11,13,-1,-1,-1,-1,-1,-1,-1,-1],"loss_changes":[6.174726E7,1.0080224E7,1.0167334E7,3.935136E6,1.3550032E6,5.568158E6,2.506472E6,0E0,0E0,0E0,0E0,0E0,0E0,0E0,0E0],"parents":[2147483647,0,0,1,1,2,2,3,3,4,4,5,5,6,6],"right_children":[2,4,6,8,10,12,14,-1,-1,-1,-1,-1,-1,-1,-1],"split_conditions":[2.66136E-1,-9.3277514E-1,1.2245734E0,2.8052834E-1,1.0673901E0,-3.9229176E0,1.6679922E0,-2.1163668E1,-6.007335E0,-6.0139575E0,1.27967E1,-4.1534702E1,6.94892E0,1.6723185E1,3.1370375E1],"split_indices":[20,20,20,3,3,3,20,0,0,0,0,0,0,0,0],"split_type":[0,0,0,0,0,0,0,0,0,0,0,0,0,0,0],"sum_hessian":[1.343E3,5.87E2,7.56E2,2.99E2,2.88E2,5.95E2,1.61E2,2.46E2,5.3E1,2.79E2,9E0,5E0,5.9E2,1.2E2,4.1E1],"tree_param":{"num_deleted":"0","num_feature":"44","num_nodes":"15","size_leaf_vector":"1"}},{"base_weights":[1.4756049E0,-2.2538275E2,1.7535849E2,-3.9915076E2,-1.1759975E2,1.05345825E2,3.269536E2,-3.9224174E1,-1.7749462E1,-2.8900837E1,-4.9342475E0,2.7413488E1,4.464311E0,-3.2458645E1,1.7105637E1],"categories":[],"categories_nodes":[],"categories_segments":[],"categories_sizes":[],"default_left":[0,0,0,0,0,0,0,0,0,0,0,0,0,0,0],"id":69,"left_children":[1,3,5,7,9,11,13,-1,-1,-1,-1,-1,-1,-1,-1],"loss_changes":[5.2819324E7,1.0834748E7,8.010648E6,3.499264E6,3.07809E6,3.6498995E6,3.758626E6,0E0,0E0,0E0,0E0,0E0,0E0,0E0,0E0],"parents":[2147483647,0,0,1,1,2,2,3,3,4,4,5,5,6,6],"right_children":[2,4,6,8,10,12,14,-1,-1,-1,-1,-1,-1,-1,-1],"split_conditions":[2.5924236E-1,-1.2603745E0,6.38926E-1,-1.9719013E0,-1.3532807E0,1.9513135E-1,-3.9229176E0,-3.9224174E1,-1.7749462E1,-2.8900837E1,-4.9342475E0,2.7413488E1,4.464311E0,-3.2458645E1,1.7105637E1],"split_indices":[20,5,20,20,3,8,3,0,0,0,0,0,0,0,0],"split_type":[0,0,0,0,0,0,0,0,0,0,0,0,0,0,0],"sum_hessian":[1.337E3,5.8E2,7.57E2,2.21E2,3.59E2,5.19E2,2.38E2,2.1E1,2E2,1.3E1,3.46E2,1.7E1,5.02E2,3E0,2.35E2],"tree_param":{"num_deleted":"0","num_feature":"44","num_nodes":"15","size_leaf_vector":"1"}},{"base_weights":[-3.0635881E0,-2.7393283E2,1.2808192E2,-4.0455225E2,-1.9792476E2,4.332076E1,2.78923E2,-3.431832E1,-1.8662827E1,-3.2127254E1,-8.960807E0,1.4563965E0,2.1223215E1,-3.0926645E1,1.4875449E1],"categories":[],"categories_nodes":[],"categories_segments":[],"categories_sizes":[],"default_left":[0,0,0,0,0,0,0,0,0,0,0,0,0,0,0],"id":70,"left_children":[1,3,5,7,9,11,13,-1,-1,-1,-1,-1,-1,-1,-1],"loss_changes":[4.8240184E7,4.318092E6,1.1686619E7,1.17258E6,2.230589E6,3.163016E6,5.671768E6,0E0,0E0,0E0,0E0,0E0,0E0,0E0,0E0],"parents":[2147483647,0,0,1,1,2,2,3,3,4,4,5,5,6,6],"right_children":[2,4,6,8,10,12,14,-1,-1,-1,-1,-1,-1,-1,-1],"split_conditions":[-2.638021E-1,-1.6320572E0,5.2760804E-1,-2.0105767E0,-1.3366914E0,1.2025391E0,-3.7712774E0,-3.431832E1,-1.8662827E1,-3.2127254E1,-8.960807E0,1.4563965E0,2.1223215E1,-3.0926645E1,1.4875449E1],"split_indices":[11,5,11,5,4,4,4,0,0,0,0,0,0,0,0],"split_type":[0,0,0,0,0,0,0,0,0,0,0,0,0,0,0],"sum_hessian":[1.356E3,4.42E2,9.14E2,1.61E2,2.81E2,5.86E2,3.28E2,1.4E1,1.47E2,1E1,2.71E2,5.66E2,2E1,6E0,3.22E2],"tree_param":{"num_deleted":"0","num_feature":"44","num_nodes":"15","size_leaf_vector":"1"}},{"base_weights":[1.252657E0,-1.8745726E2,1.6867183E2,-2.996293E2,-4.9618073E1,8.8784004E1,2.5772403E2,-2.293843E1,-1.25094185E1,-2.8491313E0,1.2655218E1,3.2845737E1,3.5033803E0,2.2081434E1,1.04113035E1],"categories":[],"categories_nodes":[],"categories_segments":[],"categories_sizes":[],"default_left":[0,0,0,0,0,0,0,0,0,0,0,0,0,0,0],"id":71,"left_children":[1,3,5,7,9,11,13,-1,-1,-1,-1,-1,-1,-1,-1],"loss_changes":[4.2809428E7,9.834238E6,5.085104E6,2.646888E6,6.5426475E5,3.9946495E6,2.993928E6,0E0,0E0,0E0,0E0,0E0,0E0,0E0,0E0],"parents":[2147483647,0,0,1,1,2,2,3,3,4,4,5,5,6,6],"right_children":[2,4,6,8,10,12,14,-1,-1,-1,-1,-1,-1,-1,-1],"split_conditions":[3.0809113E-1,-3.9269593E-2,5.460306E-1,-1.7899922E0,3.242348E0,1.9513135E-1,-7.047829E-1,-2.293843E1,-1.25094185E1,-2.8491313E0,1.2655218E1,3.2845737E1,3.5033803E0,2.2081434E1,1.04113035E1],"split_indices":[20,34,5,20,42,8,1,0,0,0,0,0,0,0,0],"split_type":[0,0,0,0,0,0,0,0,0,0,0,0,0,0,0],"sum_hessian":[1.353E3,6.36E2,7.17E2,3.5E2,2.86E2,3.79E2,3.38E2,8.1E1,2.69E2,2.8E2,6E0,1.1E1,3.68E2,7E1,2.68E2],"tree_param":{"num_deleted":"0","num_feature":"44","num_nodes":"15","size_leaf_vector":"1"}},{"base_weights":[-7.5017023E-1,-2.3045242E2,1.2614915E2,-7.0213654E2,-2.1029353E2,5.0717335E1,2.4204803E2,-3.9577343E1,-8.448047E0,-1.3654838E1,-4.9987416E0,1.2738861E0,1.6534771E1,2.1987112E1,9.668361E0],"categories":[],"categories_nodes":[],"categories_segments":[],"categories_sizes":[],"default_left":[0,0,0,0,0,0,0,0,0,0,0,0,0,0,0],"id":72,"left_children":[1,3,5,7,9,11,13,-1,-1,-1,-1,-1,-1,-1,-1],"loss_changes":[3.8826468E7,4.359432E6,7.488759E6,7.72016E5,3.132034E6,3.6732405E6,3.167852E6,0E0,0E0,0E0,0E0,0E0,0E0,0E0,0E0],"parents":[2147483647,0,0,1,1,2,2,3,3,4,4,5,5,6,6],"right_children":[2,4,6,8,10,12,14,-1,-1,-1,-1,-1,-1,-1,-1],"split_conditions":[-6.4853884E-2,-1.9719013E0,5.5801105E-1,9.053127E-2,-9.206214E-1,6.158893E-1,-7.047829E-1,-3.9577343E1,-8.448047E0,-1.3654838E1,-4.9987416E0,1.2738861E0,1.6534771E1,2.1987112E1,9.668361E0],"split_indices":[20,20,20,4,20,4,1,0,0,0,0,0,0,0,0],"split_type":[0,0,0,0,0,0,0,0,0,0,0,0,0,0,0],"sum_hessian":[1.33E3,4.73E2,8.57E2,1.8E1,4.55E2,5.2E2,3.37E2,1.5E1,3E0,2.89E2,1.66E2,4.78E2,4.2E1,6.5E1,2.72E2],"tree_param":{"num_deleted":"0","num_feature":"44","num_nodes":"15","size_leaf_vector":"1"}},{"base_weights":[-5.1721907E-1,-1.8986612E2,1.4448956E2,-4.3556763E2,-1.3781874E2,2.96546E2,7.487384E1,-3.0271185E1,-1.6660892E1,-7.5800996E0,1.3180872E1,1.2914855E1,2.9556574E1,2.7491148E0,2.0801968E1],"categories":[],"categories_nodes":[],"categories_segments":[],"categories_sizes":[],"default_left":[0,0,0,0,0,0,0,0,0,0,0,0,0,0,0],"id":73,"left_children":[1,3,5,7,9,11,13,-1,-1,-1,-1,-1,-1,-1,-1],"loss_changes":[3.6023396E7,7.21641E6,7.842835E6,1.519352E6,2.646051E6,2.472656E6,3.444929E6,0E0,0E0,0E0,0E0,0E0,0E0,0E0,0E0],"parents":[2147483647,0,0,1,1,2,2,3,3,4,4,5,5,6,6],"right_children":[2,4,6,8,10,12,14,-1,-1,-1,-1,-1,-1,-1,-1],"split_conditions":[2.5353992E-1,-1.7858292E0,-3.3785546E-1,-7.160036E-1,1.3338786E0,-4.9824017E-1,9.135922E-1,-3.0271185E1,-1.6660892E1,-7.5800996E0,1.3180872E1,1.2914855E1,2.9556574E1,2.7491148E0,2.0801968E1],"split_indices":[20,20,38,42,4,38,4,0,0,0,0,0,0,0,0],"split_type":[0,0,0,0,0,0,0,0,0,0,0,0,0,0,0],"sum_hessian":[1.31E3,5.68E2,7.42E2,9.8E1,4.7E2,2.32E2,5.1E2,3.5E1,6.3E1,4.55E2,1.5E1,2.07E2,2.5E1,4.83E2,2.7E1],"tree_param":{"num_deleted":"0","num_feature":"44","num_nodes":"15","size_leaf_vector":"1"}},{"base_weights":[-5.219041E-1,-1.7785013E2,1.3948694E2,-3.6026266E2,-1.1242088E2,9.800286E1,3.3587744E2,-3.5755394E1,-1.563726E1,-9.447523E0,-2.4145029E0,-4.3110508E1,5.273996E0,1.4443649E1,2.740608E1],"categories":[],"categories_nodes":[],"categories_segments":[],"categories_sizes":[],"default_left":[0,0,0,0,0,0,0,0,0,0,0,0,0,0,0],"id":74,"left_children":[1,3,5,7,9,11,13,-1,-1,-1,-1,-1,-1,-1,-1],"loss_changes":[3.3988856E7,7.168304E6,6.1996E6,2.457308E6,2.179801E6,4.6356045E6,1.168526E6,0E0,0E0,0E0,0E0,0E0,0E0,0E0,0E0],"parents":[2147483647,0,0,1,1,2,2,3,3,4,4,5,5,6,6],"right_children":[2,4,6,8,10,12,14,-1,-1,-1,-1,-1,-1,-1,-1],"split_conditions":[2.66136E-1,-1.4140425E0,1.470972E0,-1.9897299E0,1.1144818E-3,-3.9229176E0,1.7051286E0,-3.5755394E1,-1.563726E1,-9.447523E0,-2.4145029E0,-4.3110508E1,5.273996E0,1.4443649E1,2.740608E1],"split_indices":[20,11,16,20,34,3,20,0,0,0,0,0,0,0,0],"split_type":[0,0,0,0,0,0,0,0,0,0,0,0,0,0,0],"sum_hessian":[1.367E3,6.03E2,7.64E2,1.58E2,4.45E2,6.32E2,1.32E2,1.7E1,1.41E2,2.02E2,2.43E2,4E0,6.28E2,1.1E2,2.2E1],"tree_param":{"num_deleted":"0","num_feature":"44","num_nodes":"15","size_leaf_vector":"1"}},{"base_weights":[-6.5503106E0,-2.300251E2,8.997875E1,-6.499194E2,-2.1448174E2,2.1508615E1,2.0909E2,-3.547461E1,3.1131837E0,-1.1341107E1,1.1734375E1,6.5363675E-1,2.1618572E1,9.108959E0,3.0652372E1],"categories":[],"categories_nodes":[],"categories_segments":[],"categories_sizes":[],"default_left":[0,0,0,0,0,0,0,0,0,0,0,0,0,0,0],"id":75,"left_children":[1,3,5,7,9,11,13,-1,-1,-1,-1,-1,-1,-1,-1],"loss_changes":[2.9034782E7,2.510392E6,7.6617325E6,6.3815E5,2.231606E6,2.0670096E6,3.61701E6,0E0,0E0,0E0,0E0,0E0,0E0,0E0,0E0],"parents":[2147483647,0,0,1,1,2,2,3,3,4,4,5,5,6,6],"right_children":[2,4,6,8,10,12,14,-1,-1,-1,-1,-1,-1,-1,-1],"split_conditions":[-6.9512063E-1,-1.7749022E0,5.4539233E-1,1.7411247E0,2.5667453E0,3.242348E0,8.2799584E-1,-3.547461E1,3.1131837E0,-1.1341107E1,1.1734375E1,6.5363675E-1,2.1618572E1,9.108959E0,3.0652372E1],"split_indices":[11,3,20,17,3,42,3,0,0,0,0,0,0,0,0],"split_type":[0,0,0,0,0,0,0,0,0,0,0,0,0,0,0],"sum_hessian":[1.344E3,4.05E2,9.39E2,1.3E1,3.92E2,5.97E2,3.42E2,1.2E1,1E0,3.82E2,1E1,5.86E2,1.1E1,3.22E2,2E1],"tree_param":{"num_deleted":"0","num_feature":"44","num_nodes":"15","size_leaf_vector":"1"}},{"base_weights":[-1.0405535E1,-2.2886934E2,7.721839E1,-3.6700424E1,-2.1204971E2,3.8317833E1,2.790031E2,-2.4706629E1,-9.210559E0,1.1942655E0,2.4411718E1,1.20330925E1,2.3437563E1],"categories":[],"categories_nodes":[],"categories_segments":[],"categories_sizes":[],"default_left":[0,0,0,0,0,0,0,0,0,0,0,0,0],"id":76,"left_children":[1,3,5,-1,7,9,11,-1,-1,-1,-1,-1,-1],"loss_changes":[2.5745402E7,3.115412E6,7.524867E6,0E0,2.845914E6,5.2220435E6,1.014843E6,0E0,0E0,0E0,0E0,0E0,0E0],"parents":[2147483647,0,0,1,1,2,2,4,4,5,5,6,6],"right_children":[2,4,6,-1,8,10,12,-1,-1,-1,-1,-1,-1],"split_conditions":[-7.2340196E-1,-1.7749022E0,1.3243948E0,-3.6700424E1,-1.8583875E0,1.513376E0,1.7529354E0,-2.4706629E1,-9.210559E0,1.1942655E0,2.4411718E1,1.20330925E1,2.3437563E1],"split_indices":[12,3,16,0,12,4,15,0,0,0,0,0,0],"split_type":[0,0,0,0,0,0,0,0,0,0,0,0,0],"sum_hessian":[1.343E3,3.84E2,9.59E2,1.1E1,3.73E2,8.05E2,1.54E2,3.2E1,3.41E2,7.81E2,2.4E1,1.3E2,2.4E1],"tree_param":{"num_deleted":"0","num_feature":"44","num_nodes":"13","size_leaf_vector":"1"}},{"base_weights":[-4.277992E0,-1.452709E2,1.2163619E2,-3.4997885E2,-9.99844E1,-6.531743E2,1.3039246E2,-3.767604E1,-1.6215965E1,-1.0317688E1,-2.432601E0,-1.3280957E1,-4.162918E1,4.369049E0,1.3555033E1],"categories":[],"categories_nodes":[],"categories_segments":[],"categories_sizes":[],"default_left":[0,0,0,0,0,0,0,0,0,0,0,0,0,0,0],"id":77,"left_children":[1,3,5,7,9,11,13,-1,-1,-1,-1,-1,-1,-1,-1],"loss_changes":[2.355816E7,5.768347E6,4.841066E6,9.257E5,2.7965E6,3.35098E5,4.176446E6,0E0,0E0,0E0,0E0,0E0,0E0,0E0,0E0],"parents":[2147483647,0,0,1,1,2,2,3,3,4,4,5,5,6,6],"right_children":[2,4,6,8,10,12,14,-1,-1,-1,-1,-1,-1,-1,-1],"split_conditions":[2.9058644E-1,-1.7738876E0,-3.4658358E0,-2.0649064E0,-6.003539E-1,4.9939728E-1,1.1578839E0,-3.767604E1,-1.6215965E1,-1.0317688E1,-2.432601E0,-1.3280957E1,-4.162918E1,4.369049E0,1.3555033E1],"split_indices":[20,5,3,20,36,18,5,0,0,0,0,0,0,0,0],"split_type":[0,0,0,0,0,0,0,0,0,0,0,0,0,0,0],"sum_hessian":[1.325E3,6.25E2,7E2,1.12E2,5.13E2,7E0,6.93E2,5E0,1.07E2,1.66E2,3.47E2,3E0,4E0,5.32E2,1.61E2],"tree_param":{"num_deleted":"0","num_feature":"44","num_nodes":"15","size_leaf_vector":"1"}},{"base_weights":[-2.5404496E0,-1.4337292E2,1.2702093E2,-3.3773764E2,-9.9023994E1,1.080842E2,4.306203E2,-3.454614E1,-1.4539672E1,-5.6827364E0,1.5603679E1,4.517879E0,2.289932E1,4.753418E1,1.6458158E1],"categories":[],"categories_nodes":[],"categories_segments":[],"categories_sizes":[],"default_left":[0,0,0,0,0,0,0,0,0,0,0,0,0,0,0],"id":78,"left_children":[1,3,5,7,9,11,13,-1,-1,-1,-1,-1,-1,-1,-1],"loss_changes":[2.4067032E7,5.414311E6,3.903141E6,1.738945E6,3.1390315E6,3.977892E6,1.7976345E6,0E0,0E0,0E0,0E0,0E0,0E0,0E0,0E0],"parents":[2147483647,0,0,1,1,2,2,3,3,4,4,5,5,6,6],"right_children":[2,4,6,8,10,12,14,-1,-1,-1,-1,-1,-1,-1,-1],"split_conditions":[3.1666186E-1,-1.7783835E0,6.158893E-1,-6.337435E-1,1.513376E0,1.7038893E0,-1.453329E0,-3.454614E1,-1.4539672E1,-5.6827364E0,1.5603679E1,4.517879E0,2.289932E1,4.753418E1,1.6458158E1],"split_indices":[5,20,4,36,4,5,2,0,0,0,0,0,0,0,0],"split_type":[0,0,0,0,0,0,0,0,0,0,0,0,0,0,0],"sum_hessian":[1.317E3,6.31E2,6.86E2,1.16E2,5.15E2,6.47E2,3.9E1,1.2E1,1.04E2,4.98E2,1.7E1,6.17E2,3E1,5E0,3.4E1],"tree_param":{"num_deleted":"0","num_feature":"44","num_nodes":"15","size_leaf_vector":"1"}},{"base_weights":[-4.8450804E0,-1.951537E2,6.7339165E1,-2.3131195E2,-2.4154507E1,2.9676386E1,2.0178496E2,-2.6472223E1,-1.0583546E1,-4.1502285E0,1.0881536E1,-1.7573935E1,1.9996771E0,5.4117188E1,8.977031E0],"categories":[],"categories_nodes":[],"categories_segments":[],"categories_sizes":[],"default_left":[0,0,0,0,0,0,0,0,0,0,0,0,0,0,0],"id":79,"left_children":[1,3,5,7,9,11,13,-1,-1,-1,-1,-1,-1,-1,-1],"loss_changes":[1.828373E7,2.257404E6,4.880387E6,1.656332E6,9.4295425E5,2.983046E6,3.938628E6,0E0,0E0,0E0,0E0,0E0,0E0,0E0,0E0],"parents":[2147483647,0,0,1,1,2,2,3,3,4,4,5,5,6,6],"right_children":[2,4,6,8,10,12,14,-1,-1,-1,-1,-1,-1,-1,-1],"split_conditions":[-7.502769E-1,2.8052834E-1,7.770309E-1,-1.9276202E0,1.0679003E0,-1.0616019E0,5.348423E-1,-2.6472223E1,-1.0583546E1,-4.1502285E0,1.0881536E1,-1.7573935E1,1.9996771E0,5.4117188E1,8.977031E0],"split_indices":[12,3,11,11,18,3,8,0,0,0,0,0,0,0,0],"split_type":[0,0,0,0,0,0,0,0,0,0,0,0,0,0,0],"sum_hessian":[1.329E3,3.65E2,9.64E2,3.01E2,6.4E1,7.54E2,2.1E2,1.7E1,2.84E2,5.2E1,1.2E1,1.9E1,7.35E2,4E0,2.06E2],"tree_param":{"num_deleted":"0","num_feature":"44","num_nodes":"15","size_leaf_vector":"1"}},{"base_weights":[1.1446096E1,-1.0373076E2,1.248894E2,-2.1423407E2,-4.774106E1,1.11722176E2,5.963602E2,-1.1700694E1,9.32262E0,-2.0551971E1,-1.9168179E0,3.427075E0,1.2068676E1,4.493898E1,1.8512615E1],"categories":[],"categories_nodes":[],"categories_segments":[],"categories_sizes":[],"default_left":[0,0,0,0,0,0,0,0,0,0,0,0,0,0,0],"id":80,"left_children":[1,3,5,7,9,11,13,-1,-1,-1,-1,-1,-1,-1,-1],"loss_changes":[1.7403858E7,4.0794105E6,4.098917E6,1.803093E6,1.4875964E6,3.64483E6,8.980545E5,0E0,0E0,0E0,0E0,0E0,0E0,0E0,0E0],"parents":[2147483647,0,0,1,1,2,2,3,3,4,4,5,5,6,6],"right_children":[2,4,6,8,10,12,14,-1,-1,-1,-1,-1,-1,-1,-1],"split_conditions":[3.3046544E-1,-1.2603745E0,2.051868E0,1.3338786E0,-1.456091E0,1.1578839E0,-1.3196555E0,-1.1700694E1,9.32262E0,-2.0551971E1,-1.9168179E0,3.427075E0,1.2068676E1,4.493898E1,1.8512615E1],"split_indices":[20,5,4,4,4,5,2,0,0,0,0,0,0,0,0],"split_type":[0,0,0,0,0,0,0,0,0,0,0,0,0,0,0],"sum_hessian":[1.33E3,6.6E2,6.7E2,2.21E2,4.39E2,6.53E2,1.7E1,2.11E2,1E1,1E1,4.29E2,4.91E2,1.62E2,6E0,1.1E1],"tree_param":{"num_deleted":"0","num_feature":"44","num_nodes":"15","size_leaf_vector":"1"}},{"base_weights":[7.6512275E0,-1.3452992E2,9.9331985E1,-2.5178442E2,-9.2261406E1,8.479564E1,5.182837E2,-1.3382262E1,4.1637278E0,2.6051563E1,-5.0023637E0,9.470795E0,1.834773E0,1.5481409E1,3.766504E1],"categories":[],"categories_nodes":[],"categories_segments":[],"categories_sizes":[],"default_left":[0,0,0,0,0,0,0,0,0,0,0,0,0,0,0],"id":81,"left_children":[1,3,5,7,9,11,13,-1,-1,-1,-1,-1,-1,-1,-1],"loss_changes":[1.7389386E7,2.568848E6,4.8950625E6,7.55664E5,1.8952842E6,3.943368E6,1.090772E6,0E0,0E0,0E0,0E0,0E0,0E0,0E0,0E0],"parents":[2147483647,0,0,1,1,2,2,3,3,4,4,5,5,6,6],"right_children":[2,4,6,8,10,12,14,-1,-1,-1,-1,-1,-1,-1,-1],"split_conditions":[1.8368083E-1,-1.6320572E0,1.513376E0,1.5518961E0,-1.8093817E0,-3.3785546E-1,1.248479E0,-1.3382262E1,4.1637278E0,2.6051563E1,-5.0023637E0,9.470795E0,1.834773E0,1.5481409E1,3.766504E1],"split_indices":[11,5,4,3,8,38,19,0,0,0,0,0,0,0,0],"split_type":[0,0,0,0,0,0,0,0,0,0,0,0,0,0,0],"sum_hessian":[1.332E3,5.22E2,8.1E2,1.37E2,3.85E2,7.84E2,2.6E1,1.31E2,6E0,4E0,3.81E2,2.46E2,5.38E2,1.5E1,1.1E1],"tree_param":{"num_deleted":"0","num_feature":"44","num_nodes":"15","size_leaf_vector":"1"}},{"base_weights":[5.3453064E0,-1.022946E2,1.1234792E2,-3.4827414E2,-7.34965E1,9.032854E1,3.4844806E2,-2.9619792E0,-2.0013824E1,-2.220388E1,-3.202324E0,3.9535947E0,2.1400703E1,1.256001E1,3.705627E1],"categories":[],"categories_nodes":[],"categories_segments":[],"categories_sizes":[],"default_left":[0,0,0,0,0,0,0,0,0,0,0,0,0,0,0],"id":82,"left_children":[1,3,5,7,9,11,13,-1,-1,-1,-1,-1,-1,-1,-1],"loss_changes":[1.5710188E7,4.7913485E6,3.524492E6,1.043453E6,2.107778E6,2.3495115E6,2.0286765E6,0E0,0E0,0E0,0E0,0E0,0E0,0E0,0E0],"parents":[2147483647,0,0,1,1,2,2,3,3,4,4,5,5,6,6],"right_children":[2,4,6,8,10,12,14,-1,-1,-1,-1,-1,-1,-1,-1],"split_conditions":[3.3046544E-1,-1.7931122E0,6.158893E-1,-7.739477E-1,-1.5372933E0,1.7051286E0,2.0586655E0,-2.9619792E0,-2.0013824E1,-2.220388E1,-3.202324E0,3.9535947E0,2.1400703E1,1.256001E1,3.705627E1],"split_indices":[20,20,4,40,3,20,19,0,0,0,0,0,0,0,0],"split_type":[0,0,0,0,0,0,0,0,0,0,0,0,0,0,0],"sum_hessian":[1.362E3,6.79E2,6.83E2,7E1,6.09E2,6.26E2,5.7E1,1.1E1,5.9E1,1.4E1,5.95E2,6.07E2,1.9E1,4.7E1,1E1],"tree_param":{"num_deleted":"0","num_feature":"44","num_nodes":"15","size_leaf_vector":"1"}},{"base_weights":[-1.832293E0,-1.0208228E2,1.0341028E2,-2.2175438E2,-5.6707874E1,8.005378E1,3.2076172E2,-1.1553428E1,2.1947786E1,-1.7401457E1,-2.4463365E0,2.7254267E0,1.2907186E1,1.1761653E1,3.358916E1],"categories":[],"categories_nodes":[],"categories_segments":[],"categories_sizes":[],"default_left":[0,0,0,0,0,0,0,0,0,0,0,0,0,0,0],"id":83,"left_children":[1,3,5,7,9,11,13,-1,-1,-1,-1,-1,-1,-1,-1],"loss_changes":[1.4338226E7,3.7667405E6,3.3400875E6,1.276835E6,1.1299791E6,2.7155398E6,1.763408E6,0E0,0E0,0E0,0E0,0E0,0E0,0E0,0E0],"parents":[2147483647,0,0,1,1,2,2,3,3,4,4,5,5,6,6],"right_children":[2,4,6,8,10,12,14,-1,-1,-1,-1,-1,-1,-1,-1],"split_conditions":[3.3046544E-1,-1.298873E0,4.2445204E-1,2.9187088E0,-1.0419784E0,1.53388E0,2.0586655E0,-1.1553428E1,2.1947786E1,-1.7401457E1,-2.4463365E0,2.7254267E0,1.2907186E1,1.1761653E1,3.358916E1],"split_indices":[20,5,4,4,4,5,19,0,0,0,0,0,0,0,0],"split_type":[0,0,0,0,0,0,0,0,0,0,0,0,0,0,0],"sum_hessian":[1.357E3,6.95E2,6.62E2,1.9E2,5.05E2,5.99E2,6.3E1,1.88E2,2E0,1.2E1,4.93E2,5.25E2,7.4E1,5.2E1,1.1E1],"tree_param":{"num_deleted":"0","num_feature":"44","num_nodes":"15","size_leaf_vector":"1"}},{"base_weights":[3.739344E0,-9.858681E1,1.0605987E2,-2.3072269E2,-5.300765E1,6.0778408E1,1.9180945E2,-1.2500986E1,1.2716992E1,-1.3098793E1,-1.8999548E0,3.4306805E0,-3.1416914E1,2.4809875E1,8.407758E0],"categories":[],"categories_nodes":[],"categories_segments":[],"categories_sizes":[],"default_left":[0,0,0,0,0,0,0,0,0,0,0,0,0,0,0],"id":84,"left_children":[1,3,5,7,9,11,13,-1,-1,-1,-1,-1,-1,-1,-1],"loss_changes":[1.3904233E7,3.9868035E6,2.566565E6,1.654837E6,1.5425185E6,2.397236E6,1.56538E6,0E0,0E0,0E0,0E0,0E0,0E0,0E0,0E0],"parents":[2147483647,0,0,1,1,2,2,3,3,4,4,5,5,6,6],"right_children":[2,4,6,8,10,12,14,-1,-1,-1,-1,-1,-1,-1,-1],"split_conditions":[3.2290202E-1,-1.3471764E0,6.38926E-1,7.022964E-1,-5.924342E-1,6.255269E-1,5.248832E-1,-1.2500986E1,1.2716992E1,-1.3098793E1,-1.8999548E0,3.4306805E0,-3.1416914E1,2.4809875E1,8.407758E0],"split_indices":[20,5,20,18,4,10,6,0,0,0,0,0,0,0,0],"split_type":[0,0,0,0,0,0,0,0,0,0,0,0,0,0,0],"sum_hessian":[1.326E3,6.63E2,6.63E2,1.69E2,4.94E2,4.35E2,2.28E2,1.63E2,6E0,3.2E1,4.62E2,4.31E2,4E0,1.5E1,2.13E2],"tree_param":{"num_deleted":"0","num_feature":"44","num_nodes":"15","size_leaf_vector":"1"}},{"base_weights":[3.7407331E0,-1.0563086E2,7.554983E1,-2.461198E2,-6.75243E1,-3.400496E2,8.948494E1,-2.4982122E1,-9.908092E0,2.1610743E1,-3.7362778E0,-6.8611674E0,-3.254246E1,3.9409978E0,2.5344202E1],"categories":[],"categories_nodes":[],"categories_segments":[],"categories_sizes":[],"default_left":[0,0,0,0,0,0,0,0,0,0,0,0,0,0,0],"id":85,"left_children":[1,3,5,7,9,11,13,-1,-1,-1,-1,-1,-1,-1,-1],"loss_changes":[1.034368E7,2.7779345E6,4.6346105E6,1.250575E6,1.514982E6,1.5496845E6,3.3877455E6,0E0,0E0,0E0,0E0,0E0,0E0,0E0,0E0],"parents":[2147483647,0,0,1,1,2,2,3,3,4,4,5,5,6,6],"right_children":[2,4,6,8,10,12,14,-1,-1,-1,-1,-1,-1,-1,-1],"split_conditions":[1.9969685E-1,-1.7741927E0,-1.2028235E0,-2.3341042E-1,-1.8332794E0,8.79126E-1,1.8489356E0,-2.4982122E1,-9.908092E0,2.1610743E1,-3.7362778E0,-6.8611674E0,-3.254246E1,3.9409978E0,2.5344202E1],"split_indices":[5,5,3,3,9,17,4,0,0,0,0,0,0,0,0],"split_type":[0,0,0,0,0,0,0,0,0,0,0,0,0,0,0],"sum_hessian":[1.315E3,5.21E2,7.94E2,1.1E2,4.11E2,2.5E1,7.69E2,1.6E1,9.4E1,5E0,4.06E2,1.6E1,9E0,7.51E2,1.8E1],"tree_param":{"num_deleted":"0","num_feature":"44","num_nodes":"15","size_leaf_vector":"1"}},{"base_weights":[1.3876371E0,-1.5051024E2,