{"learner":{"attributes":{"best_iteration":"113","best_score":"4256.72211916343","scikit_learn":"{\"_estimator_type\": \"regressor\"}"},"feature_names":[],"feature_types":[],"gradient_booster":{"model":{"gbtree_model_param":{"num_parallel_tree":"1","num_trees":"164"},"iteration_indptr":[0,1,2,3,4,5,6,7,8,9,10,11,12,13,14,15,16,17,18,19,20,21,22,23,24,25,26,27,28,29,30,31,32,33,34,35,36,37,38,39,40,41,42,43,44,45,46,47,48,49,50,51,52,53,54,55,56,57,58,59,60,61,62,63,64,65,66,67,68,69,70,71,72,73,74,75,76,77,78,79,80,81,82,83,84,85,86,87,88,89,90,91,92,93,94,95,96,97,98,99,100,101,102,103,104,105,106,107,108,109,110,111,112,113,114,115,116,117,118,119,120,121,122,123,124,125,126,127,128,129,130,131,132,133,134,135,136,137,138,139,140,141,142,143,144,145,146,147,148,149,150,151,152,153,154,155,156,157,158,159,160,161,162,163,164],"tree_info":[0,0,0,0,0,0,0,0,0,0,0,0,0,0,0,0,0,0,0,0,0,0,0,0,0,0,0,0,0,0,0,0,0,0,0,0,0,0,0,0,0,0,0,0,0,0,0,0,0,0,0,0,0,0,0,0,0,0,0,0,0,0,0,0,0,0,0,0,0,0,0,0,0,0,0,0,0,0,0,0,0,0,0,0,0,0,0,0,0,0,0,0,0,0,0,0,0,0,0,0,0,0,0,0,0,0,0,0,0,0,0,0,0,0,0,0,0,0,0,0,0,0,0,0,0,0,0,0,0,0,0,0,0,0,0,0,0,0,0,0,0,0,0,0,0,0,0,0,0,0,0,0,0,0,0,0,0,0,0,0,0,0,0,0],"trees":[{"base_weights":[1.9809425E2,-5.3387964E3,2.2594697E4,-8.494546E3,1.2313986E3,1.7354312E4,4.193624E4,-5.1391425E2,-3.1220798E2,-3.8786293E1,2.3809135E2,6.669401E2,1.02030194E3,7.505905E2,2.1327722E3],"categories":[],"categories_nodes":[],"categories_segments":[],"categories_sizes":[],"default_left":[0,0,0,0,0,0,0,0,0,0,0,0,0,0,0],"id":0,"left_children":[1,3,5,7,9,11,13,-1,-1,-1,-1,-1,-1,-1,-1],"loss_changes":[1.6641475E11,2.2320118E10,2.6233217E10,2.8540723E9,2.4837972E9,2.3134495E9,4.4406374E8,0E0,0E0,0E0,0E0,0E0,0E0,0E0,0E0],"parents":[2147483647,0,0,1,1,2,2,3,3,4,4,5,5,6,6],"right_children":[2,4,6,8,10,12,14,-1,-1,-1,-1,-1,-1,-1,-1],"split_conditions":[7.6204634E-1,-2.8380242E-1,2.4553466E0,-6.4719266E-1,1.8497293E-1,1.2298585E0,-1.4129506E0,-5.1391425E2,-3.1220798E2,-3.8786293E1,2.3809135E2,6.669401E2,1.02030194E3,7.505905E2,2.1327722E3],"split_indices":[20,20,20,20,20,20,2,0,0,0,0,0,0,0,0],"split_type":[0,0,0,0,0,0,0,0,0,0,0,0,0,0,0],"sum_hessian":[1.34E3,1.075E3,2.65E2,7.26E2,3.49E2,2.1E2,5.5E1,4.03E2,3.23E2,2.23E2,1.26E2,9.3E1,1.17E2,2E0,5.3E1],"tree_param":{"num_deleted":"0","num_feature":"44","num_nodes":"15","size_leaf_vector":"1"}},{"base_weights":[3.214513E2,-5.0636777E3,2.1720639E4,-7.9646147E3,1.4283359E3,1.6494373E4,3.9650555E4,-4.684415E2,-2.6861633E2,-1.8065518E0,2.5068028E2,7.3272546E2,1.1120286E3,4.6667813E2,2.0003104E3],"categories":[],"categories_nodes":[],"categories_segments":[],"categories_sizes":[],"default_left":[0,0,0,0,0,0,0,0,0,0,0,0,0,0,0],"id":1,"left_children":[1,3,5,7,9,11,13,-1,-1,-1,-1,-1,-1,-1,-1],"loss_changes":[1.5418237E11,2.0143772E10,2.4553038E10,2.6397245E9,1.7380993E9,1.8942403E9,2.7353088E8,0E0,0E0,0E0,0E0,0E0,0E0,0E0,0E0],"parents":[2147483647,0,0,1,1,2,2,3,3,4,4,5,5,6,6],"right_children":[2,4,6,8,10,12,14,-1,-1,-1,-1,-1,-1,-1,-1],"split_conditions":[8.126481E-1,-2.4258286E-1,2.4553466E0,-5.906038E-1,3.2078624E-1,1.1358669E0,-3.7786255E0,-4.684415E2,-2.6861633E2,-1.8065518E0,2.5068028E2,7.3272546E2,1.1120286E3,4.6667813E2,2.0003104E3],"split_indices":[20,20,20,20,20,4,4,0,0,0,0,0,0,0,0],"split_type":[0,0,0,0,0,0,0,0,0,0,0,0,0,0,0],"sum_hessian":[1.336E3,1.068E3,2.68E2,7.38E2,3.3E2,2.09E2,5.9E1,4.77E2,2.61E2,2.35E2,9.5E1,1.61E2,4.8E1,1E0,5.8E1],"tree_param":{"num_deleted":"0","num_feature":"44","num_nodes":"15","size_leaf_vector":"1"}},{"base_weights":[-2.490403E2,-4.9858296E3,2.0212564E4,-7.652933E3,1.1021218E3,1.5447764E4,3.723371E4,-4.5219434E2,-2.7700565E2,-2.0694048E1,2.3060948E2,5.9236835E2,9.4993646E2,8.436214E2,1.9067992E3],"categories":[],"categories_nodes":[],"categories_segments":[],"categories_sizes":[],"default_left":[0,0,0,0,0,0,0,0,0,0,0,0,0,0,0],"id":2,"left_children":[1,3,5,7,9,11,13,-1,-1,-1,-1,-1,-1,-1,-1],"loss_changes":[1.2425826E11,1.6911358E10,1.8970485E10,2.07761E9,1.6940735E9,2.2040412E9,3.1186125E8,0E0,0E0,0E0,0E0,0E0,0E0,0E0,0E0],"parents":[2147483647,0,0,1,1,2,2,3,3,4,4,5,5,6,6],"right_children":[2,4,6,8,10,12,14,-1,-1,-1,-1,-1,-1,-1,-1],"split_conditions":[8.126481E-1,-2.7349642E-1,2.4553466E0,-6.2022805E-1,2.3705362E-1,1.3110781E0,1.2183822E0,-4.5219434E2,-2.7700565E2,-2.0694048E1,2.3060948E2,5.9236835E2,9.4993646E2,8.436214E2,1.9067992E3],"split_indices":[20,20,20,20,20,20,22,0,0,0,0,0,0,0,0],"split_type":[0,0,0,0,0,0,0,0,0,0,0,0,0,0,0],"sum_hessian":[1.28E3,1.04E3,2.4E2,7.23E2,3.17E2,1.89E2,5.1E1,4.34E2,2.89E2,2.22E2,9.5E1,9.6E1,9.3E1,3E0,4.8E1],"tree_param":{"num_deleted":"0","num_feature":"44","num_nodes":"15","size_leaf_vector":"1"}},{"base_weights":[5.891525E1,-4.854603E3,1.8475812E4,-7.4086377E3,6.658741E2,1.3850728E4,3.4627293E4,-4.4262744E2,-2.8043304E2,-3.9125988E1,1.8106885E2,6.161671E2,9.395114E2,1.159646E3,1.8300042E3],"categories":[],"categories_nodes":[],"categories_segments":[],"categories_sizes":[],"default_left":[0,0,0,0,0,0,0,0,0,0,0,0,0,0,0],"id":3,"left_children":[1,3,5,7,9,11,13,-1,-1,-1,-1,-1,-1,-1,-1],"loss_changes":[1.22887004E11,1.5119587E10,2.0885152E10,1.8554225E9,1.4582828E9,1.4584177E9,5.7226854E8,0E0,0E0,0E0,0E0,0E0,0E0,0E0,0E0],"parents":[2147483647,0,0,1,1,2,2,3,3,4,4,5,5,6,6],"right_children":[2,4,6,8,10,12,14,-1,-1,-1,-1,-1,-1,-1,-1],"split_conditions":[6.780288E-1,-3.0606347E-1,2.1695933E0,-6.563778E-1,1.8497293E-1,1.5829265E0,2.4553466E0,-4.4262744E2,-2.8043304E2,-3.9125988E1,1.8106885E2,6.161671E2,9.395114E2,1.159646E3,1.8300042E3],"split_indices":[20,20,20,20,20,20,20,0,0,0,0,0,0,0,0],"split_type":[0,0,0,0,0,0,0,0,0,0,0,0,0,0,0],"sum_hessian":[1.356E3,1.071E3,2.85E2,7.32E2,3.39E2,2.23E2,6.2E1,4.04E2,3.28E2,2.28E2,1.11E2,1.73E2,5E1,1.1E1,5.1E1],"tree_param":{"num_deleted":"0","num_feature":"44","num_nodes":"15","size_leaf_vector":"1"}},{"base_weights":[8.31073E1,-4.6396816E3,1.6781832E4,-7.104663E3,1.7040988E2,1.2925472E4,3.2183885E4,-4.4039282E2,-2.8366013E2,-8.117463E1,1.1183669E2,5.15854E2,8.4480145E2,9.7119855E2,1.7378485E3],"categories":[],"categories_nodes":[],"categories_segments":[],"categories_sizes":[],"default_left":[0,0,0,0,0,0,0,0,0,0,0,0,0,0,0],"id":4,"left_children":[1,3,5,7,9,11,13,-1,-1,-1,-1,-1,-1,-1,-1],"loss_changes":[1.0480998E11,1.2284844E10,1.6986989E10,1.6200991E9,1.3084192E9,2.2698844E9,1.2291604E9,0E0,0E0,0E0,0E0,0E0,0E0,0E0,0E0],"parents":[2147483647,0,0,1,1,2,2,3,3,4,4,5,5,6,6],"right_children":[2,4,6,8,10,12,14,-1,-1,-1,-1,-1,-1,-1,-1],"split_conditions":[5.541261E-1,-3.4044603E-1,2.1695933E0,-7.1874756E-1,-1.35665545E-2,1.3110781E0,8.783503E-1,-4.4039282E2,-2.8366013E2,-8.117463E1,1.1183669E2,5.15854E2,8.4480145E2,9.7119855E2,1.7378485E3],"split_indices":[20,20,20,20,20,20,19,0,0,0,0,0,0,0,0],"split_type":[0,0,0,0,0,0,0,0,0,0,0,0,0,0,0],"sum_hessian":[1.327E3,1.035E3,2.92E2,6.84E2,3.51E2,2.35E2,5.7E1,3.1E2,3.74E2,1.88E2,1.63E2,1.44E2,9.1E1,1.1E1,4.6E1],"tree_param":{"num_deleted":"0","num_feature":"44","num_nodes":"15","size_leaf_vector":"1"}},{"base_weights":[-8.4862206E1,-4.20023E3,1.715552E4,-6.631293E3,1.0557263E3,1.3463905E4,2.8426828E4,-3.9680618E2,-2.3987358E2,-2.7957556E0,3.4489566E2,5.1858765E2,1.0438352E3,1.5884017E3,7.231729E2],"categories":[],"categories_nodes":[],"categories_segments":[],"categories_sizes":[],"default_left":[0,0,0,0,0,0,0,0,0,0,0,0,0,0,0],"id":5,"left_children":[1,3,5,7,9,11,13,-1,-1,-1,-1,-1,-1,-1,-1],"loss_changes":[9.535858E10,1.3870653E10,1.0394083E10,1.7374044E9,2.2344653E9,4.299006E9,2.4797553E9,0E0,0E0,0E0,0E0,0E0,0E0,0E0,0E0],"parents":[2147483647,0,0,1,1,2,2,3,3,4,4,5,5,6,6],"right_children":[2,4,6,8,10,12,14,-1,-1,-1,-1,-1,-1,-1,-1],"split_conditions":[6.408634E-1,-2.7231547E-1,2.1497562E0,-6.4393634E-1,7.178364E-1,8.5483795E-1,7.4039793E-1,-3.9680618E2,-2.3987358E2,-2.7957556E0,3.4489566E2,5.1858765E2,1.0438352E3,1.5884017E3,7.231729E2],"split_indices":[5,5,5,5,4,4,23,0,0,0,0,0,0,0,0],"split_type":[0,0,0,0,0,0,0,0,0,0,0,0,0,0,0],"sum_hessian":[1.342E3,1.084E3,2.58E2,7.41E2,3.43E2,1.96E2,6.2E1,4.31E2,3.1E2,2.89E2,5.4E1,1.4E2,5.6E1,4.9E1,1.3E1],"tree_param":{"num_deleted":"0","num_feature":"44","num_nodes":"15","size_leaf_vector":"1"}},{"base_weights":[6.983206E1,-3.988568E3,1.6927533E4,-6.32771E3,1.1430897E3,1.3227857E4,3.1127629E4,-3.6626202E2,-2.098828E2,-9.773082E0,2.1275847E2,5.6637396E2,9.285919E2,1.7066145E3,1.1378519E3],"categories":[],"categories_nodes":[],"categories_segments":[],"categories_sizes":[],"default_left":[0,0,0,0,0,0,0,0,0,0,0,0,0,0,0],"id":6,"left_children":[1,3,5,7,9,11,13,-1,-1,-1,-1,-1,-1,-1,-1],"loss_changes":[9.16756E10,1.2971205E10,1.3247537E10,1.5458488E9,1.4129966E9,1.9019899E9,5.562409E8,0E0,0E0,0E0,0E0,0E0,0E0,0E0,0E0],"parents":[2147483647,0,0,1,1,2,2,3,3,4,4,5,5,6,6],"right_children":[2,4,6,8,10,12,14,-1,-1,-1,-1,-1,-1,-1,-1],"split_conditions":[8.126481E-1,-2.7349642E-1,2.4553466E0,-5.6774473E-1,3.2078624E-1,1.6560237E0,2.8262172E0,-3.6626202E2,-2.098828E2,-9.773082E0,2.1275847E2,5.6637396E2,9.285919E2,1.7066145E3,1.1378519E3],"split_indices":[20,20,20,5,20,20,8,0,0,0,0,0,0,0,0],"split_type":[0,0,0,0,0,0,0,0,0,0,0,0,0,0,0],"sum_hessian":[1.338E3,1.079E3,2.59E2,7.41E2,3.38E2,2.07E2,5.2E1,5.03E2,2.38E2,2.37E2,1.01E2,1.55E2,5.2E1,3.6E1,1.6E1],"tree_param":{"num_deleted":"0","num_feature":"44","num_nodes":"15","size_leaf_vector":"1"}},{"base_weights":[8.743669E1,-3.615491E3,1.7001684E4,-5.9045493E3,1.3100664E3,1.2531055E4,2.8322701E4,-3.4951752E2,-1.9523734E2,-5.9401293E0,2.008261E2,4.7840768E2,7.4502356E2,2.7704318E2,1.4290015E3],"categories":[],"categories_nodes":[],"categories_segments":[],"categories_sizes":[],"default_left":[0,0,0,0,0,0,0,0,0,0,0,0,0,0,0],"id":7,"left_children":[1,3,5,7,9,11,13,-1,-1,-1,-1,-1,-1,-1,-1],"loss_changes":[8.474025E10,1.2522862E10,1.1943821E10,1.6186184E9,1.3655882E9,1.0930115E9,2.4028365E8,0E0,0E0,0E0,0E0,0E0,0E0,0E0,0E0],"parents":[2147483647,0,0,1,1,2,2,3,3,4,4,5,5,6,6],"right_children":[2,4,6,8,10,12,14,-1,-1,-1,-1,-1,-1,-1,-1],"split_conditions":[8.8949037E-1,-2.4258286E-1,2.1695933E0,-5.951959E-1,2.6995653E-1,-1.0967525E-1,-2.1200655E-4,-3.4951752E2,-1.9523734E2,-5.9401293E0,2.008261E2,4.7840768E2,7.4502356E2,2.7704318E2,1.4290015E3],"split_indices":[20,20,20,20,20,3,26,0,0,0,0,0,0,0,0],"split_type":[0,0,0,0,0,0,0,0,0,0,0,0,0,0,0],"sum_hessian":[1.351E3,1.109E3,2.42E2,7.57E2,3.52E2,1.75E2,6.7E1,4.89E2,2.68E2,2.31E2,1.21E2,8E1,9.5E1,1E0,6.6E1],"tree_param":{"num_deleted":"0","num_feature":"44","num_nodes":"15","size_leaf_vector":"1"}},{"base_weights":[7.519806E1,-3.5291125E3,1.5683885E4,-5.6461113E3,7.9259705E2,1.1770023E4,2.7751152E4,-3.2292477E2,-1.6950832E2,-2.8547415E1,1.5732413E2,4.480542E2,7.116545E2,1.2135964E3,1.7260449E3],"categories":[],"categories_nodes":[],"categories_segments":[],"categories_sizes":[],"default_left":[0,0,0,0,0,0,0,0,0,0,0,0,0,0,0],"id":8,"left_children":[1,3,5,7,9,11,13,-1,-1,-1,-1,-1,-1,-1,-1],"loss_changes":[7.43729E10,9.830559E9,1.1386319E10,1.2994785E9,1.1380052E9,1.180074E9,5.7532006E8,0E0,0E0,0E0,0E0,0E0,0E0,0E0,0E0],"parents":[2147483647,0,0,1,1,2,2,3,3,4,4,5,5,6,6],"right_children":[2,4,6,8,10,12,14,-1,-1,-1,-1,-1,-1,-1,-1],"split_conditions":[8.126481E-1,-2.8380242E-1,2.4553466E0,-5.4500777E-1,1.7250907E-1,1.2659236E0,2.9751456E0,-3.2292477E2,-1.6950832E2,-2.8547415E1,1.5732413E2,4.480542E2,7.116545E2,1.2135964E3,1.7260449E3],"split_indices":[20,20,20,20,5,20,19,0,0,0,0,0,0,0,0],"split_type":[0,0,0,0,0,0,0,0,0,0,0,0,0,0,0],"sum_hessian":[1.32E3,1.073E3,2.47E2,7.2E2,3.53E2,1.88E2,5.9E1,5.28E2,1.92E2,2.24E2,1.29E2,9E1,9.8E1,4.2E1,1.7E1],"tree_param":{"num_deleted":"0","num_feature":"44","num_nodes":"15","size_leaf_vector":"1"}},{"base_weights":[1.3585E0,-3.5486575E3,1.3726322E4,-5.7470376E3,-1.1543444E2,9.886634E3,2.390019E4,-3.4904373E2,-2.375701E2,-6.447022E1,1.0786617E2,5.6022316E1,5.19952E2,5.2009094E2,1.2700751E3],"categories":[],"categories_nodes":[],"categories_segments":[],"categories_sizes":[],"default_left":[0,0,0,0,0,0,0,0,0,0,0,0,0,0,0],"id":9,"left_children":[1,3,5,7,9,11,13,-1,-1,-1,-1,-1,-1,-1,-1],"loss_changes":[6.377949E10,7.8487665E9,1.0272055E10,7.4567066E8,1.0887185E9,8.732426E8,1.2151398E9,0E0,0E0,0E0,0E0,0E0,0E0,0E0,0E0],"parents":[2147483647,0,0,1,1,2,2,3,3,4,4,5,5,6,6],"right_children":[2,4,6,8,10,12,14,-1,-1,-1,-1,-1,-1,-1,-1],"split_conditions":[6.780288E-1,-4.1103417E-1,1.9125557E0,-7.497745E-1,6.0005803E-2,-1.8095949E0,-1.3141416E0,-3.4904373E2,-2.375701E2,-6.447022E1,1.0786617E2,5.6022316E1,5.19952E2,5.2009094E2,1.2700751E3],"split_indices":[20,20,20,20,20,3,3,0,0,0,0,0,0,0,0],"split_type":[0,0,0,0,0,0,0,0,0,0,0,0,0,0,0],"sum_hessian":[1.307E3,1.039E3,2.68E2,6.33E2,4.06E2,1.96E2,7.2E1,2.8E2,3.53E2,2.68E2,1.38E2,1.1E1,1.85E2,8E0,6.4E1],"tree_param":{"num_deleted":"0","num_feature":"44","num_nodes":"15","size_leaf_vector":"1"}},{"base_weights":[-1.0345365E2,-3.5545461E3,1.0803626E4,-4.8532817E3,1.28021E2,4.607123E3,1.4899693E4,-3.1012518E2,-1.846682E2,-1.13554054E2,1.0631919E2,4.043977E2,6.586464E1,5.7515576E2,1.3522816E3],"categories":[],"categories_nodes":[],"categories_segments":[],"categories_sizes":[],"default_left":[0,0,0,0,0,0,0,0,0,0,0,0,0,0,0],"id":10,"left_children":[1,3,5,7,9,11,13,-1,-1,-1,-1,-1,-1,-1,-1],"loss_changes":[4.9800258E10,4.807215E9,8.002605E9,1.13988E9,1.2657238E9,1.4551178E9,7.5685274E9,0E0,0E0,0E0,0E0,0E0,0E0,0E0,0E0],"parents":[2147483647,0,0,1,1,2,2,3,3,4,4,5,5,6,6],"right_children":[2,4,6,8,10,12,14,-1,-1,-1,-1,-1,-1,-1,-1],"split_conditions":[3.646306E-1,-2.6966834E-1,1.2183822E0,-7.156993E-1,-2.0680566E-1,-4.4608206E-1,1.7931392E0,-3.1012518E2,-1.846682E2,-1.13554054E2,1.0631919E2,4.043977E2,6.586464E1,5.7515576E2,1.3522816E3],"split_indices":[13,13,22,13,3,1,11,0,0,0,0,0,0,0,0],"split_type":[0,0,0,0,0,0,0,0,0,0,0,0,0,0,0],"sum_hessian":[1.321E3,1.004E3,3.17E2,7.42E2,2.62E2,1.27E2,1.9E2,3.41E2,4.01E2,1.19E2,1.43E2,6.1E1,6.6E1,1.5E2,4E1],"tree_param":{"num_deleted":"0","num_feature":"44","num_nodes":"15","size_leaf_vector":"1"}},{"base_weights":[1.0410013E1,-3.3506816E3,1.1774196E4,-5.3922905E3,-5.1908936E2,8.6527295E3,2.4115852E4,-3.19209E2,-2.2571716E2,-9.624517E1,5.922706E1,2.876373E2,5.424694E2,9.9258136E2,1.5056288E3],"categories":[],"categories_nodes":[],"categories_segments":[],"categories_sizes":[],"default_left":[0,0,0,0,0,0,0,0,0,0,0,0,0,0,0],"id":11,"left_children":[1,3,5,7,9,11,13,-1,-1,-1,-1,-1,-1,-1,-1],"loss_changes":[5.3377786E10,6.0672573E9,1.1348554E10,5.023826E8,1.0584697E9,1.4728233E9,9.3649715E8,0E0,0E0,0E0,0E0,0E0,0E0,0E0,0E0],"parents":[2147483647,0,0,1,1,2,2,3,3,4,4,5,5,6,6],"right_children":[2,4,6,8,10,12,14,-1,-1,-1,-1,-1,-1,-1,-1],"split_conditions":[5.541261E-1,-4.5853564E-1,2.3366337E0,-7.497745E-1,-7.658073E-2,-1.8038583E-1,2.6898177E0,-3.19209E2,-2.2571716E2,-9.624517E1,5.922706E1,2.876373E2,5.424694E2,9.9258136E2,1.5056288E3],"split_indices":[20,20,20,20,20,3,19,0,0,0,0,0,0,0,0],"split_type":[0,0,0,0,0,0,0,0,0,0,0,0,0,0,0],"sum_hessian":[1.348E3,1.049E3,2.99E2,6.09E2,4.4E2,2.4E2,5.9E1,2.83E2,3.26E2,2.41E2,1.99E2,1.05E2,1.35E2,3.7E1,2.2E1],"tree_param":{"num_deleted":"0","num_feature":"44","num_nodes":"15","size_leaf_vector":"1"}},{"base_weights":[1.1864146E2,-3.0769287E3,1.205362E4,-5.111033E3,-3.0040942E2,9.153196E3,2.3392965E4,-3.069209E2,-2.1546956E2,-8.170363E1,7.7635506E1,3.5020844E2,5.7077045E2,1.00026184E3,1.4557758E3],"categories":[],"categories_nodes":[],"categories_segments":[],"categories_sizes":[],"default_left":[0,0,0,0,0,0,0,0,0,0,0,0,0,0,0],"id":12,"left_children":[1,3,5,7,9,11,13,-1,-1,-1,-1,-1,-1,-1,-1],"loss_changes":[5.1105296E10,5.9681157E9,9.09344E9,4.7594086E8,1.109741E9,1.023617E9,5.2256563E8,0E0,0E0,0E0,0E0,0E0,0E0,0E0,0E0],"parents":[2147483647,0,0,1,1,2,2,3,3,4,4,5,5,6,6],"right_children":[2,4,6,8,10,12,14,-1,-1,-1,-1,-1,-1,-1,-1],"split_conditions":[6.415954E-1,-4.5853564E-1,2.4553466E0,-7.5943017E-1,-3.6051102E-2,-1.3726704E-3,2.6898177E0,-3.069209E2,-2.1546956E2,-8.170363E1,7.7635506E1,3.5020844E2,5.7077045E2,1.00026184E3,1.4557758E3],"split_indices":[20,20,20,20,20,3,19,0,0,0,0,0,0,0,0],"split_type":[0,0,0,0,0,0,0,0,0,0,0,0,0,0,0],"sum_hessian":[1.338E3,1.056E3,2.82E2,6.09E2,4.47E2,2.26E2,5.6E1,2.64E2,3.45E2,2.6E2,1.87E2,1.18E2,1.08E2,3.8E1,1.8E1],"tree_param":{"num_deleted":"0","num_feature":"44","num_nodes":"15","size_leaf_vector":"1"}},{"base_weights":[-5.0555656E1,-2.7760593E3,1.2069206E4,-4.4007837E3,1.1391119E3,9.562445E3,2.136808E4,-2.6059573E2,-1.4694548E2,-5.2910028E0,1.616162E2,3.987997E2,6.445337E2,8.12385E2,1.2496915E3],"categories":[],"categories_nodes":[],"categories_segments":[],"categories_sizes":[],"default_left":[0,0,0,0,0,0,0,0,0,0,0,0,0,0,0],"id":13,"left_children":[1,3,5,7,9,11,13,-1,-1,-1,-1,-1,-1,-1,-1],"loss_changes":[4.3900604E10,6.906778E9,5.4833234E9,8.941691E8,8.3162624E8,9.21516E8,5.4073344E8,0E0,0E0,0E0,0E0,0E0,0E0,0E0,0E0],"parents":[2147483647,0,0,1,1,2,2,3,3,4,4,5,5,6,6],"right_children":[2,4,6,8,10,12,14,-1,-1,-1,-1,-1,-1,-1,-1],"split_conditions":[8.6467916E-1,-1.8825252E-1,2.4553466E0,-5.906038E-1,2.6995653E-1,1.5829265E0,-1.3434637E-1,-2.6059573E2,-1.4694548E2,-5.2910028E0,1.616162E2,3.987997E2,6.445337E2,8.12385E2,1.2496915E3],"split_indices":[20,20,20,20,20,20,3,0,0,0,0,0,0,0,0],"split_type":[0,0,0,0,0,0,0,0,0,0,0,0,0,0,0],"sum_hessian":[1.327E3,1.084E3,2.43E2,7.66E2,3.18E2,1.93E2,5E1,4.91E2,2.75E2,2E2,1.18E2,1.33E2,6E1,2.3E1,2.7E1],"tree_param":{"num_deleted":"0","num_feature":"44","num_nodes":"15","size_leaf_vector":"1"}},{"base_weights":[-1.8250217E2,-2.728427E3,1.0999528E4,-4.1221016E3,8.0811536E2,8.314177E3,2.0806428E4,-2.6710245E2,-1.5947276E2,2.27648E-1,1.7042346E2,2.9505328E2,5.2164276E2,7.268596E2,1.1261713E3],"categories":[],"categories_nodes":[],"categories_segments":[],"categories_sizes":[],"default_left":[0,0,0,0,0,0,0,0,0,0,0,0,0,0,0],"id":14,"left_children":[1,3,5,7,9,11,13,-1,-1,-1,-1,-1,-1,-1,-1],"loss_changes":[3.7608575E10,5.306709E9,6.27908E9,8.6132736E8,6.3729626E8,9.302815E8,2.3231283E8,0E0,0E0,0E0,0E0,0E0,0E0,0E0,0E0],"parents":[2147483647,0,0,1,1,2,2,3,3,4,4,5,5,6,6],"right_children":[2,4,6,8,10,12,14,-1,-1,-1,-1,-1,-1,-1,-1],"split_conditions":[8.126481E-1,-1.9818515E-1,2.4553466E0,-7.111029E-1,4.578847E-1,-1.8038583E-1,2.8986223E0,-2.6710245E2,-1.5947276E2,2.27648E-1,1.7042346E2,2.9505328E2,5.2164276E2,7.268596E2,1.1261713E3],"split_indices":[20,20,20,20,4,3,20,0,0,0,0,0,0,0,0],"split_type":[0,0,0,0,0,0,0,0,0,0,0,0,0,0,0],"sum_hessian":[1.319E3,1.075E3,2.44E2,7.71E2,3.04E2,1.93E2,5.1E1,3.32E2,4.39E2,2.33E2,7.1E1,9.2E1,1.01E2,1.3E1,3.8E1],"tree_param":{"num_deleted":"0","num_feature":"44","num_nodes":"15","size_leaf_vector":"1"}},{"base_weights":[-2.0519611E1,-2.570177E3,1.0828304E4,-4.4099634E3,-1.0076901E2,7.9166E3,1.8244043E4,-2.597074E2,-1.8171461E2,-5.3082203E1,1.12399574E2,4.7834244E2,2.1570508E2,6.2917676E2,1.0554569E3],"categories":[],"categories_nodes":[],"categories_segments":[],"categories_sizes":[],"default_left":[0,0,0,0,0,0,0,0,0,0,0,0,0,0,0],"id":15,"left_children":[1,3,5,7,9,11,13,-1,-1,-1,-1,-1,-1,-1,-1],"loss_changes":[3.6484743E10,4.851676E9,5.275271E9,3.5338342E8,1.03377395E9,1.0407209E9,8.6962586E8,0E0,0E0,0E0,0E0,0E0,0E0,0E0,0E0],"parents":[2147483647,0,0,1,1,2,2,3,3,4,4,5,5,6,6],"right_children":[2,4,6,8,10,12,14,-1,-1,-1,-1,-1,-1,-1,-1],"split_conditions":[7.6204634E-1,-4.5853564E-1,1.9125557E0,-7.3673004E-1,1.3142537E-1,1.4273851E0,-3.6801663E-1,-2.597074E2,-1.8171461E2,-5.3082203E1,1.12399574E2,4.7834244E2,2.1570508E2,6.2917676E2,1.0554569E3],"split_indices":[20,20,20,20,5,8,3,0,0,0,0,0,0,0,0],"split_type":[0,0,0,0,0,0,0,0,0,0,0,0,0,0,0],"sum_hessian":[1.317E3,1.067E3,2.5E2,6.11E2,4.56E2,1.81E2,6.9E1,3.01E2,3.1E2,3.24E2,1.32E2,1.23E2,5.8E1,2.5E1,4.4E1],"tree_param":{"num_deleted":"0","num_feature":"44","num_nodes":"15","size_leaf_vector":"1"}},{"base_weights":[1.23745766E2,-2.3050454E3,1.0392181E4,-3.7923127E3,5.488272E2,8.005003E3,1.7350865E4,-2.2217464E2,-1.15892395E2,-2.7689041E1,1.8550272E2,2.848289E2,6.4173505E2,9.2551263E2,1.6258199E2],"categories":[],"categories_nodes":[],"categories_segments":[],"categories_sizes":[],"default_left":[0,0,0,0,0,0,0,0,0,0,0,0,0,0,0],"id":16,"left_children":[1,3,5,7,9,11,13,-1,-1,-1,-1,-1,-1,-1,-1],"loss_changes":[3.2595444E10,4.488488E9,4.0140083E9,6.569994E8,1.2673253E9,2.0228977E9,9.6963994E8,0E0,0E0,0E0,0E0,0E0,0E0,0E0,0E0],"parents":[2147483647,0,0,1,1,2,2,3,3,4,4,5,5,6,6],"right_children":[2,4,6,8,10,12,14,-1,-1,-1,-1,-1,-1,-1,-1],"split_conditions":[7.043564E-1,-2.812792E-1,2.1497562E0,-5.6165683E-1,3.9114034E-1,8.5483795E-1,2.0737975E0,-2.2217464E2,-1.15892395E2,-2.7689041E1,1.8550272E2,2.848289E2,6.4173505E2,9.2551263E2,1.6258199E2],"split_indices":[5,5,5,5,4,4,6,0,0,0,0,0,0,0,0],"split_type":[0,0,0,0,0,0,0,0,0,0,0,0,0,0,0],"sum_hessian":[1.305E3,1.056E3,2.49E2,6.94E2,3.62E2,1.87E2,6.2E1,4.8E2,2.14E2,2.69E2,9.3E1,1.28E2,5.9E1,5.7E1,5E0],"tree_param":{"num_deleted":"0","num_feature":"44","num_nodes":"15","size_leaf_vector":"1"}},{"base_weights":[5.5623516E1,-2.27205E3,1.0355347E4,-3.5672476E3,8.2468604E2,7.6862476E3,1.8789713E4,-2.3828555E2,-1.4228398E2,-6.7025285E0,1.6249821E2,3.240115E2,5.394385E2,7.527128E2,1.2238243E3],"categories":[],"categories_nodes":[],"categories_segments":[],"categories_sizes":[],"default_left":[0,0,0,0,0,0,0,0,0,0,0,0,0,0,0],"id":17,"left_children":[1,3,5,7,9,11,13,-1,-1,-1,-1,-1,-1,-1,-1],"loss_changes":[3.1214213E10,4.2625014E9,5.258498E9,6.3415296E8,7.3054944E8,6.1855846E8,8.4235674E8,0E0,0E0,0E0,0E0,0E0,0E0,0E0,0E0],"parents":[2147483647,0,0,1,1,2,2,3,3,4,4,5,5,6,6],"right_children":[2,4,6,8,10,12,14,-1,-1,-1,-1,-1,-1,-1,-1],"split_conditions":[8.6467916E-1,-2.1606524E-1,2.4553466E0,-7.405361E-1,3.9114034E-1,1.6121792E0,2.6898177E0,-2.3828555E2,-1.4228398E2,-6.7025285E0,1.6249821E2,3.240115E2,5.394385E2,7.527128E2,1.2238243E3],"split_indices":[20,20,20,20,4,20,19,0,0,0,0,0,0,0,0],"split_type":[0,0,0,0,0,0,0,0,0,0,0,0,0,0,0],"sum_hessian":[1.3E3,1.061E3,2.39E2,7.48E2,3.13E2,1.83E2,5.6E1,2.79E2,4.69E2,2.25E2,8.8E1,1.34E2,4.9E1,3.6E1,2E1],"tree_param":{"num_deleted":"0","num_feature":"44","num_nodes":"15","size_leaf_vector":"1"}},{"base_weights":[-3.3485302E1,-1.7566959E3,1.1670596E4,-3.1496814E3,1.7309962E3,9.022643E3,2.0249473E4,-1.9988799E2,-9.199889E1,5.10807E1,2.8841147E2,3.9387225E2,6.9716205E2,1.1114691E3,6.50443E2],"categories":[],"categories_nodes":[],"categories_segments":[],"categories_sizes":[],"default_left":[0,0,0,0,0,0,0,0,0,0,0,0,0,0,0],"id":18,"left_children":[1,3,5,7,9,11,13,-1,-1,-1,-1,-1,-1,-1,-1],"loss_changes":[2.7187601E10,5.713961E9,3.747242E9,9.256581E8,9.5639136E8,6.452613E8,2.8425216E8,0E0,0E0,0E0,0E0,0E0,0E0,0E0,0E0],"parents":[2147483647,0,0,1,1,2,2,3,3,4,4,5,5,6,6],"right_children":[2,4,6,8,10,12,14,-1,-1,-1,-1,-1,-1,-1,-1],"split_conditions":[1.2189742E0,-9.6409954E-2,2.8986223E0,-5.6165683E-1,7.705293E-1,1.5907823E0,2.8262172E0,-1.9988799E2,-9.199889E1,5.10807E1,2.8841147E2,3.9387225E2,6.9716205E2,1.1114691E3,6.50443E2],"split_indices":[20,20,20,5,4,4,8,0,0,0,0,0,0,0,0],"split_type":[0,0,0,0,0,0,0,0,0,0,0,0,0,0,0],"sum_hessian":[1.346E3,1.174E3,1.72E2,8.39E2,3.35E2,1.33E2,3.9E1,5.08E2,3.31E2,2.86E2,4.9E1,1.1E2,2.3E1,2.9E1,1E1],"tree_param":{"num_deleted":"0","num_feature":"44","num_nodes":"15","size_leaf_vector":"1"}},{"base_weights":[-3.2449303E1,-2.0044784E3,9.139722E3,-3.2339304E3,7.279077E2,6.368281E3,1.4636491E4,-1.9347635E2,-1.01978386E2,5.460203E1,-2.0560054E2,4.648755E2,1.9662791E2,1.7308531E2,7.677233E2],"categories":[],"categories_nodes":[],"categories_segments":[],"categories_sizes":[],"default_left":[0,0,0,0,0,0,0,0,0,0,0,0,0,0,0],"id":19,"left_children":[1,3,5,7,9,11,13,-1,-1,-1,-1,-1,-1,-1,-1],"loss_changes":[2.4020816E10,3.6741105E9,3.4867753E9,5.6449434E8,6.0369754E8,1.0907341E9,5.726597E8,0E0,0E0,0E0,0E0,0E0,0E0,0E0,0E0],"parents":[2147483647,0,0,1,1,2,2,3,3,4,4,5,5,6,6],"right_children":[2,4,6,8,10,12,14,-1,-1,-1,-1,-1,-1,-1,-1],"split_conditions":[8.8949037E-1,-2.4258286E-1,1.779662E0,-5.906038E-1,1.7014934E0,9.6123236E-1,-1.4701302E0,-1.9347635E2,-1.01978386E2,5.460203E1,-2.0560054E2,4.648755E2,1.9662791E2,1.7308531E2,7.677233E2],"split_indices":[20,20,20,20,19,8,3,0,0,0,0,0,0,0,0],"split_type":[0,0,0,0,0,0,0,0,0,0,0,0,0,0,0],"sum_hessian":[1.326E3,1.092E3,2.34E2,7.53E2,3.39E2,1.57E2,7.7E1,4.9E2,2.63E2,3.16E2,2.3E1,7E1,8.7E1,5E0,7.2E1],"tree_param":{"num_deleted":"0","num_feature":"44","num_nodes":"15","size_leaf_vector":"1"}},{"base_weights":[5.4931602E0,-2.2762214E3,7.8295728E3,-3.513909E3,-4.510321E2,5.2810713E3,1.4633691E4,-1.9108893E2,-1.0582885E2,-5.8165447E1,4.934593E1,-1.0803654E2,2.9543683E2,6.314084E2,1.053144E3],"categories":[],"categories_nodes":[],"categories_segments":[],"categories_sizes":[],"default_left":[0,0,0,0,0,0,0,0,0,0,0,0,0,0,0],"id":20,"left_children":[1,3,5,7,9,11,13,-1,-1,-1,-1,-1,-1,-1,-1],"loss_changes":[2.3957778E10,2.3455304E9,5.176832E9,2.5820211E8,4.3234426E8,1.0497203E9,7.913144E8,0E0,0E0,0E0,0E0,0E0,0E0,0E0,0E0],"parents":[2147483647,0,0,1,1,2,2,3,3,4,4,5,5,6,6],"right_children":[2,4,6,8,10,12,14,-1,-1,-1,-1,-1,-1,-1,-1],"split_conditions":[4.9331573E-1,-4.768011E-1,1.779662E0,2.3657447E-1,-2.6096707E-2,-1.5597472E0,3.396345E0,-1.9108893E2,-1.0582885E2,-5.8165447E1,4.934593E1,-1.0803654E2,2.9543683E2,6.314084E2,1.053144E3],"split_indices":[20,20,20,4,20,3,20,0,0,0,0,0,0,0,0],"split_type":[0,0,0,0,0,0,0,0,0,0,0,0,0,0,0],"sum_hessian":[1.34E3,1.038E3,3.02E2,6.18E2,4.2E2,2.21E2,8.1E1,5.05E2,1.13E2,2.81E2,1.39E2,1.7E1,2.04E2,6.4E1,1.7E1],"tree_param":{"num_deleted":"0","num_feature":"44","num_nodes":"15","size_leaf_vector":"1"}},{"base_weights":[-1.7179228E2,-2.2590269E3,6.2113423E3,-3.3945874E3,-5.599426E2,4.0602456E3,1.1942262E4,-2.0230258E2,-1.3931279E2,-9.846166E1,2.543254E1,1.04707756E2,3.071938E2,5.0714444E2,8.196471E2],"categories":[],"categories_nodes":[],"categories_segments":[],"categories_sizes":[],"default_left":[0,0,0,0,0,0,0,0,0,0,0,0,0,0,0],"id":21,"left_children":[1,3,5,7,9,11,13,-1,-1,-1,-1,-1,-1,-1,-1],"loss_changes":[1.7733753E10,1.9333002E9,3.9950162E9,2.2690714E8,6.07903E8,9.703191E8,5.464791E8,0E0,0E0,0E0,0E0,0E0,0E0,0E0,0E0],"parents":[2147483647,0,0,1,1,2,2,3,3,4,4,5,5,6,6],"right_children":[2,4,6,8,10,12,14,-1,-1,-1,-1,-1,-1,-1,-1],"split_conditions":[2.935193E-1,-4.8077834E-1,1.6560237E0,-7.335735E-1,-7.6070145E-2,-2.0253313E-1,3.1220465E0,-2.0230258E2,-1.3931279E2,-9.846166E1,2.543254E1,1.04707756E2,3.071938E2,5.0714444E2,8.196471E2],"split_indices":[5,20,20,5,4,4,20,0,0,0,0,0,0,0,0],"split_type":[0,0,0,0,0,0,0,0,0,0,0,0,0,0,0],"sum_hessian":[1.329E3,1.002E3,3.27E2,6E2,4.02E2,2.39E2,8.8E1,2.87E2,3.13E2,1.73E2,2.29E2,1.24E2,1.15E2,6.5E1,2.3E1],"tree_param":{"num_deleted":"0","num_feature":"44","num_nodes":"15","size_leaf_vector":"1"}},{"base_weights":[2.9016464E2,-1.721267E3,7.810446E3,-2.8021965E3,4.5796283E2,6.0843145E3,1.3000728E4,-1.6616637E2,-5.977482E1,-2.5693354E1,1.7834923E2,2.2044397E2,5.5773566E2,5.405185E2,9.303081E2],"categories":[],"categories_nodes":[],"categories_segments":[],"categories_sizes":[],"default_left":[0,0,0,0,0,0,0,0,0,0,0,0,0,0,0],"id":22,"left_children":[1,3,5,7,9,11,13,-1,-1,-1,-1,-1,-1,-1,-1],"loss_changes":[2.0071225E10,2.4675901E9,2.4294513E9,5.8213734E8,1.053294E9,1.7517865E9,6.460365E8,0E0,0E0,0E0,0E0,0E0,0E0,0E0,0E0],"parents":[2147483647,0,0,1,1,2,2,3,3,4,4,5,5,6,6],"right_children":[2,4,6,8,10,12,14,-1,-1,-1,-1,-1,-1,-1,-1],"split_conditions":[7.043564E-1,-2.7231547E-1,2.1497562E0,2.3657447E-1,5.211162E-1,1.0866867E0,2.6898177E0,-1.6616637E2,-5.977482E1,-2.5693354E1,1.7834923E2,2.2044397E2,5.5773566E2,5.405185E2,9.303081E2],"split_indices":[5,5,5,4,4,4,19,0,0,0,0,0,0,0,0],"split_type":[0,0,0,0,0,0,0,0,0,0,0,0,0,0,0],"sum_hessian":[1.325E3,1.046E3,2.79E2,6.99E2,3.47E2,2.11E2,6.8E1,5.27E2,1.72E2,2.65E2,8.2E1,1.6E2,5.1E1,5.1E1,1.7E1],"tree_param":{"num_deleted":"0","num_feature":"44","num_nodes":"15","size_leaf_vector":"1"}},{"base_weights":[-3.9603348E1,-1.7977776E3,7.6824565E3,-2.6893313E3,7.549329E2,5.1922515E3,1.2541764E4,-1.7159557E2,-9.4058334E1,1.5522344E1,2.4953731E2,-8.9159996E1,2.8718954E2,5.291626E2,8.637968E2],"categories":[],"categories_nodes":[],"categories_segments":[],"categories_sizes":[],"default_left":[0,0,0,0,0,0,0,0,0,0,0,0,0,0,0],"id":23,"left_children":[1,3,5,7,9,11,13,-1,-1,-1,-1,-1,-1,-1,-1],"loss_changes":[1.8301663E10,2.5009452E9,2.960048E9,4.8204698E8,5.3503722E8,6.527304E8,5.960069E8,0E0,0E0,0E0,0E0,0E0,0E0,0E0,0E0],"parents":[2147483647,0,0,1,1,2,2,3,3,4,4,5,5,6,6],"right_children":[2,4,6,8,10,12,14,-1,-1,-1,-1,-1,-1,-1,-1],"split_conditions":[8.8949037E-1,-1.508094E-1,1.8297094E0,-6.626107E-1,1.1358669E0,-1.6112843E0,2.6898177E0,-1.7159557E2,-9.4058334E1,1.5522344E1,2.4953731E2,-8.9159996E1,2.8718954E2,5.291626E2,8.637968E2],"split_indices":[20,20,20,5,4,3,19,0,0,0,0,0,0,0,0],"split_type":[0,0,0,0,0,0,0,0,0,0,0,0,0,0,0],"sum_hessian":[1.346E3,1.097E3,2.49E2,8.13E2,2.84E2,1.66E2,8.3E1,4.22E2,3.91E2,2.58E2,2.6E1,1.2E1,1.54E2,6.1E1,2.2E1],"tree_param":{"num_deleted":"0","num_feature":"44","num_nodes":"15","size_leaf_vector":"1"}},{"base_weights":[9.567942E1,-1.4287921E3,7.971673E3,-2.4759077E3,9.382523E2,6.351791E3,1.5392388E4,-1.4141911E2,-4.6369564E1,1.1339403E1,1.7832944E2,2.2318753E2,4.485223E2,5.0310733E2,9.215573E2],"categories":[],"categories_nodes":[],"categories_segments":[],"categories_sizes":[],"default_left":[0,0,0,0,0,0,0,0,0,0,0,0,0,0,0],"id":24,"left_children":[1,3,5,7,9,11,13,-1,-1,-1,-1,-1,-1,-1,-1],"loss_changes":[1.5992344E10,2.7684058E9,2.4986993E9,4.198359E8,6.4058995E8,8.4495616E8,4.300411E8,0E0,0E0,0E0,0E0,0E0,0E0,0E0,0E0],"parents":[2147483647,0,0,1,1,2,2,3,3,4,4,5,5,6,6],"right_children":[2,4,6,8,10,12,14,-1,-1,-1,-1,-1,-1,-1,-1],"split_conditions":[1.0935147E0,-1.6625832E-1,2.8986223E0,1.2183822E0,5.5975765E-1,3.891029E-2,-2.90601E-1,-1.4141911E2,-4.6369564E1,1.1339403E1,1.7832944E2,2.2318753E2,4.485223E2,5.0310733E2,9.215573E2],"split_indices":[20,20,20,22,4,3,3,0,0,0,0,0,0,0,0],"split_type":[0,0,0,0,0,0,0,0,0,0,0,0,0,0,0],"sum_hessian":[1.33E3,1.115E3,2.15E2,7.73E2,3.42E2,1.78E2,3.7E1,6.29E2,1.44E2,2.7E2,7.2E1,1.05E2,7.3E1,1.5E1,2.2E1],"tree_param":{"num_deleted":"0","num_feature":"44","num_nodes":"15","size_leaf_vector":"1"}},{"base_weights":[1.6125032E0,-1.3835123E3,7.7988438E3,-2.2224548E3,1.1007031E3,6.859913E3,1.7172184E4,-1.4073953E2,-5.8892315E1,9.6595825E1,-6.870568E1,2.6547775E2,5.460246E2,1.0585829E3,5.92772E2],"categories":[],"categories_nodes":[],"categories_segments":[],"categories_sizes":[],"default_left":[0,0,0,0,0,0,0,0,0,0,0,0,0,0,0],"id":25,"left_children":[1,3,5,7,9,11,13,-1,-1,-1,-1,-1,-1,-1,-1],"loss_changes":[1.4677378E10,2.407514E9,1.6863887E9,5.3067366E8,6.03328E8,1.1255419E9,1.3175501E8,0E0,0E0,0E0,0E0,0E0,0E0,0E0,0E0],"parents":[2147483647,0,0,1,1,2,2,3,3,4,4,5,5,6,6],"right_children":[2,4,6,8,10,12,14,-1,-1,-1,-1,-1,-1,-1,-1],"split_conditions":[9.908219E-1,-8.5625924E-2,3.396345E0,-5.132154E-1,9.111004E-1,5.788189E-1,2.338198E0,-1.4073953E2,-5.8892315E1,9.6595825E1,-6.870568E1,2.6547775E2,5.460246E2,1.0585829E3,5.92772E2],"split_indices":[5,20,20,5,8,3,16,0,0,0,0,0,0,0,0],"split_type":[0,0,0,0,0,0,0,0,0,0,0,0,0,0,0],"sum_hessian":[1.357E3,1.153E3,2.04E2,8.62E2,2.91E2,1.87E2,1.7E1,5.49E2,3.13E2,2.18E2,7.3E1,1.37E2,5E1,8E0,9E0],"tree_param":{"num_deleted":"0","num_feature":"44","num_nodes":"15","size_leaf_vector":"1"}},{"base_weights":[9.6864075E1,-1.2208553E3,8.39362E3,-2.058088E3,1.3275688E3,5.800652E3,1.2274534E4,-1.3051556E2,-4.307411E1,6.1932025E0,1.5740042E2,3.6169186E2,1.7269485E2,4.0812415E2,7.144063E2],"categories":[],"categories_nodes":[],"categories_segments":[],"categories_sizes":[],"default_left":[0,0,0,0,0,0,0,0,0,0,0,0,0,0,0],"id":26,"left_children":[1,3,5,7,9,11,13,-1,-1,-1,-1,-1,-1,-1,-1],"loss_changes":[1.4518067E10,2.4478648E9,1.7602816E9,5.680164E8,6.2193126E8,3.4834534E8,4.7953306E8,0E0,0E0,0E0,0E0,0E0,0E0,0E0,0E0],"parents":[2147483647,0,0,1,1,2,2,3,3,4,4,5,5,6,6],"right_children":[2,4,6,8,10,12,14,-1,-1,-1,-1,-1,-1,-1,-1],"split_conditions":[1.2189742E0,-3.6051102E-2,2.1695933E0,-4.8077834E-1,1.7334297E-1,1.2739961E0,-3.3602184E-1,-1.3051556E2,-4.307411E1,6.1932025E0,1.5740042E2,3.6169186E2,1.7269485E2,4.0812415E2,7.144063E2],"split_indices":[20,20,20,20,4,8,4,0,0,0,0,0,0,0,0],"split_type":[0,0,0,0,0,0,0,0,0,0,0,0,0,0,0],"sum_hessian":[1.326E3,1.145E3,1.81E2,8.62E2,2.83E2,1.1E2,7.1E1,5.89E2,2.73E2,1.71E2,1.12E2,6.7E1,4.3E1,2.5E1,4.6E1],"tree_param":{"num_deleted":"0","num_feature":"44","num_nodes":"15","size_leaf_vector":"1"}},{"base_weights":[-4.531109E1,-1.5575911E3,5.220368E3,-2.3236277E3,-1.5653622E2,3.1104917E3,9.227627E3,-1.7084338E2,-9.950942E1,-1.1816575E2,1.0358874E1,2.2854729E2,1.963056E1,2.7256158E2,5.799377E2],"categories":[],"categories_nodes":[],"categories_segments":[],"categories_sizes":[],"default_left":[0,0,0,0,0,0,0,0,0,0,0,0,0,0,0],"id":27,"left_children":[1,3,5,7,9,11,13,-1,-1,-1,-1,-1,-1,-1,-1],"loss_changes":[1.0814168E10,1.1319247E9,2.5331067E9,2.4180838E8,3.006754E8,7.9207334E8,8.6802125E8,0E0,0E0,0E0,0E0,0E0,0E0,0E0,0E0],"parents":[2147483647,0,0,1,1,2,2,3,3,4,4,5,5,6,6],"right_children":[2,4,6,8,10,12,14,-1,-1,-1,-1,-1,-1,-1,-1],"split_conditions":[5.294144E-1,-3.7324795E-1,1.6560237E0,-8.3091795E-1,-8.967165E-1,1.2440666E0,-1.8038583E-1,-1.7084338E2,-9.950942E1,-1.1816575E2,1.0358874E1,2.2854729E2,1.963056E1,2.7256158E2,5.799377E2],"split_indices":[20,20,20,20,3,8,3,0,0,0,0,0,0,0,0],"split_type":[0,0,0,0,0,0,0,0,0,0,0,0,0,0,0],"sum_hessian":[1.356E3,1.054E3,3.02E2,6.81E2,3.73E2,1.99E2,1.03E2,1.57E2,5.24E2,5.2E1,3.21E2,1.29E2,7E1,4.1E1,6.2E1],"tree_param":{"num_deleted":"0","num_feature":"44","num_nodes":"15","size_leaf_vector":"1"}},{"base_weights":[-2.736669E1,-1.1605626E3,5.328335E3,-1.6119077E3,2.4227153E3,4.1146465E3,1.051078E4,-1.1013893E2,9.0449333E-1,4.8126003E1,2.6960263E2,-7.031252E1,2.3537419E2,3.225767E2,7.4281683E2],"categories":[],"categories_nodes":[],"categories_segments":[],"categories_sizes":[],"default_left":[0,0,0,0,0,0,0,0,0,0,0,0,0,0,0],"id":28,"left_children":[1,3,5,7,9,11,13,-1,-1,-1,-1,-1,-1,-1,-1],"loss_changes":[7.9930665E9,1.7619046E9,1.4034232E9,9.30412E8,5.2377933E8,6.219428E8,6.626606E8,0E0,0E0,0E0,0E0,0E0,0E0,0E0,0E0],"parents":[2147483647,0,0,1,1,2,2,3,3,4,4,5,5,6,6],"right_children":[2,4,6,8,10,12,14,-1,-1,-1,-1,-1,-1,-1,-1],"split_conditions":[7.861398E-1,5.5975765E-1,1.0866867E0,-1.9312334E-1,3.5702905E-1,-1.6112843E0,1.1261581E0,-1.1013893E2,9.0449333E-1,4.8126003E1,2.6960263E2,-7.031252E1,2.3537419E2,3.225767E2,7.4281683E2],"split_indices":[16,4,4,16,19,3,19,0,0,0,0,0,0,0,0],"split_type":[0,0,0,0,0,0,0,0,0,0,0,0,0,0,0],"sum_hessian":[1.315E3,1.086E3,2.29E2,9.65E2,1.21E2,1.87E2,4.2E1,7.08E2,2.57E2,8.2E1,3.9E1,1.8E1,1.69E2,2.3E1,1.9E1],"tree_param":{"num_deleted":"0","num_feature":"44","num_nodes":"15","size_leaf_vector":"1"}},{"base_weights":[5.228608E1,-1.0438488E3,6.697331E3,-1.8021603E3,1.2062642E3,4.8302456E3,9.95561E3,-1.1530137E2,-2.0628803E1,-8.071484E1,9.383542E1,1.9561464E2,5.6199414E2,2.950366E2,6.2109125E2],"categories":[],"categories_nodes":[],"categories_segments":[],"categories_sizes":[],"default_left":[0,0,0,0,0,0,0,0,0,0,0,0,0,0,0],"id":29,"left_children":[1,3,5,7,9,11,13,-1,-1,-1,-1,-1,-1,-1,-1],"loss_changes":[9.876628E9,1.9882916E9,1.1199416E9,6.088927E8,5.5899206E8,6.8561075E8,6.167158E8,0E0,0E0,0E0,0E0,0E0,0E0,0E0,0E0],"parents":[2147483647,0,0,1,1,2,2,3,3,4,4,5,5,6,6],"right_children":[2,4,6,8,10,12,14,-1,-1,-1,-1,-1,-1,-1,-1],"split_conditions":[1.06664E0,-3.5897385E-2,3.8411462E-1,2.130383E-1,-7.839116E-1,3.488338E0,1.421454E0,-1.1530137E2,-2.0628803E1,-8.071484E1,9.383542E1,1.9561464E2,5.6199414E2,2.950366E2,6.2109125E2],"split_indices":[5,5,4,4,4,5,5,0,0,0,0,0,0,0,0],"split_type":[0,0,0,0,0,0,0,0,0,0,0,0,0,0,0],"sum_hessian":[1.354E3,1.163E3,1.91E2,8.7E2,2.93E2,1.23E2,6.8E1,6.38E2,2.32E2,5.6E1,2.37E2,1.09E2,1.4E1,2.7E1,4.1E1],"tree_param":{"num_deleted":"0","num_feature":"44","num_nodes":"15","size_leaf_vector":"1"}},{"base_weights":[1.295367E2,-1.00598615E3,7.187492E3,-1.7307231E3,1.1294766E3,4.60173E3,1.0450671E4,-1.3851077E2,-6.424095E1,-1.903236E1,1.24258804E2,2.8205297E1,2.8955496E2,1.3210442E2,5.5768085E2],"categories":[],"categories_nodes":[],"categories_segments":[],"categories_sizes":[],"default_left":[0,0,0,0,0,0,0,0,0,0,0,0,0,0,0],"id":30,"left_children":[1,3,5,7,9,11,13,-1,-1,-1,-1,-1,-1,-1,-1],"loss_changes":[1.0698533E10,1.7817509E9,1.5129027E9,3.9459917E8,5.9875E8,5.009669E8,4.1513984E8,0E0,0E0,0E0,0E0,0E0,0E0,0E0,0E0],"parents":[2147483647,0,0,1,1,2,2,3,3,4,4,5,5,6,6],"right_children":[2,4,6,8,10,12,14,-1,-1,-1,-1,-1,-1,-1,-1],"split_conditions":[1.0965191E0,-4.5421336E-2,1.779662E0,-7.4104327E-1,-2.3529142E-1,-1.002723E0,-1.4701302E0,-1.3851077E2,-6.424095E1,-1.903236E1,1.24258804E2,2.8205297E1,2.8955496E2,1.3210442E2,5.5768085E2],"split_indices":[5,5,20,5,3,3,3,0,0,0,0,0,0,0,0],"split_type":[0,0,0,0,0,0,0,0,0,0,0,0,0,0,0],"sum_hessian":[1.333E3,1.149E3,1.84E2,8.58E2,2.91E2,1.04E2,8E1,2.56E2,6.02E2,1.38E2,1.53E2,2.4E1,8E1,7E0,7.3E1],"tree_param":{"num_deleted":"0","num_feature":"44","num_nodes":"15","size_leaf_vector":"1"}},{"base_weights":[1.1523382E2,-9.19274E2,6.4092485E3,-1.619117E3,1.281741E3,3.5753176E3,8.740731E3,-1.0777089E2,-2.1626945E1,1.4248436E1,1.5693799E2,1.499299E2,4.8690146E2,3.0739435E2,5.791809E2],"categories":[],"categories_nodes":[],"categories_segments":[],"categories_sizes":[],"default_left":[0,0,0,0,0,0,0,0,0,0,0,0,0,0,0],"id":31,"left_children":[1,3,5,7,9,11,13,-1,-1,-1,-1,-1,-1,-1,-1],"loss_changes":[8.717887E9,1.7734948E9,1.2175212E9,5.546122E8,5.136905E8,2.800114E8,6.8801485E8,0E0,0E0,0E0,0E0,0E0,0E0,0E0,0E0],"parents":[2147483647,0,0,1,1,2,2,3,3,4,4,5,5,6,6],"right_children":[2,4,6,8,10,12,14,-1,-1,-1,-1,-1,-1,-1,-1],"split_conditions":[1.0965191E0,-2.5066227E-2,-3.3602184E-1,1.5577868E-1,2.8224167E-1,3.7023468E0,1.779662E0,-1.0777089E2,-2.1626945E1,1.4248436E1,1.5693799E2,1.499299E2,4.8690146E2,3.0739435E2,5.791809E2],"split_indices":[5,5,4,4,4,5,20,0,0,0,0,0,0,0,0],"split_type":[0,0,0,0,0,0,0,0,0,0,0,0,0,0,0],"sum_hessian":[1.337E3,1.149E3,1.88E2,8.72E2,2.77E2,8.6E1,1.02E2,6E2,2.72E2,1.81E2,9.6E1,8E1,6E0,5.5E1,4.7E1],"tree_param":{"num_deleted":"0","num_feature":"44","num_nodes":"15","size_leaf_vector":"1"}},{"base_weights":[5.0855907E1,-8.917096E2,6.1639316E3,-1.9294948E3,3.741864E2,3.7688057E3,9.297338E3,-1.460385E2,-8.1914474E1,-1.1519173E2,4.2350075E1,-1.1922007E2,2.1589244E2,1.5510816E1,5.1022897E2],"categories":[],"categories_nodes":[],"categories_segments":[],"categories_sizes":[],"default_left":[0,0,0,0,0,0,0,0,0,0,0,0,0,0,0],"id":32,"left_children":[1,3,5,7,9,11,13,-1,-1,-1,-1,-1,-1,-1,-1],"loss_changes":[7.63435E9,1.5088819E9,1.2933284E9,1.7736243E8,6.578474E8,3.5489E8,6.164992E8,0E0,0E0,0E0,0E0,0E0,0E0,0E0,0E0],"parents":[2147483647,0,0,1,1,2,2,3,3,4,4,5,5,6,6],"right_children":[2,4,6,8,10,12,14,-1,-1,-1,-1,-1,-1,-1,-1],"split_conditions":[1.0965191E0,-4.0266287E-1,1.779662E0,-8.384887E-1,-8.8797957E-1,-1.8095949E0,-1.340287E0,-1.460385E2,-8.1914474E1,-1.1519173E2,4.2350075E1,-1.1922007E2,2.1589244E2,1.5510816E1,5.1022897E2],"split_indices":[5,5,20,20,3,3,3,0,0,0,0,0,0,0,0],"split_type":[0,0,0,0,0,0,0,0,0,0,0,0,0,0,0],"sum_hessian":[1.323E3,1.147E3,1.76E2,6.3E2,5.17E2,1.01E2,7.5E1,1.41E2,4.89E2,7.7E1,4.4E2,8E0,9.3E1,7E0,6.8E1],"tree_param":{"num_deleted":"0","num_feature":"44","num_nodes":"15","size_leaf_vector":"1"}},{"base_weights":[5.3692333E1,-8.878305E2,6.063448E3,-1.4478905E3,1.308335E3,4.7254272E3,9.972502E3,-9.410493E1,-7.231733E0,-8.694668E1,9.823461E1,1.4134035E2,3.3481427E2,-2.2433255E2,5.374681E2],"categories":[],"categories_nodes":[],"categories_segments":[],"categories_sizes":[],"default_left":[0,0,0,0,0,0,0,0,0,0,0,0,0,0,0],"id":33,"left_children":[1,3,5,7,9,11,13,-1,-1,-1,-1,-1,-1,-1,-1],"loss_changes":[7.519636E9,1.4151461E9,8.9434675E8,5.1807782E8,4.71439E8,4.8997094E8,5.537014E8,0E0,0E0,0E0,0E0,0E0,0E0,0E0,0E0],"parents":[2147483647,0,0,1,1,2,2,3,3,4,4,5,5,6,6],"right_children":[2,4,6,8,10,12,14,-1,-1,-1,-1,-1,-1,-1,-1],"split_conditions":[1.0965191E0,7.316119E-2,2.8179266E0,2.130383E-1,-8.4889954E-1,-1.3434637E-1,-2.5449436E0,-9.410493E1,-7.231733E0,-8.694668E1,9.823461E1,1.4134035E2,3.3481427E2,-2.2433255E2,5.374681E2],"split_indices":[5,5,5,4,4,3,3,0,0,0,0,0,0,0,0],"split_type":[0,0,0,0,0,0,0,0,0,0,0,0,0,0,0],"sum_hessian":[1.327E3,1.148E3,1.79E2,9.15E2,2.33E2,1.35E2,4.4E1,6.86E2,2.29E2,4.1E1,1.92E2,7E1,6.5E1,2E0,4.2E1],"tree_param":{"num_deleted":"0","num_feature":"44","num_nodes":"15","size_leaf_vector":"1"}},{"base_weights":[-7.894311E1,-1.1187107E3,3.6110618E3,-1.846923E3,-2.8281418E2,2.1116318E3,6.5879253E3,-1.3011903E2,-7.5788895E1,-7.6369804E1,1.220058E1,1.4298203E2,-8.705751E1,2.7451547E2,5.682826E2],"categories":[],"categories_nodes":[],"categories_segments":[],"categories_sizes":[],"default_left":[0,0,0,0,0,0,0,0,0,0,0,0,0,0,0],"id":34,"left_children":[1,3,5,7,9,11,13,-1,-1,-1,-1,-1,-1,-1,-1],"loss_changes":[5.0263424E9,6.215794E8,1.2716047E9,1.3264589E8,3.1313104E8,5.6118854E8,4.4103347E8,0E0,0E0,0E0,0E0,0E0,0E0,0E0,0E0],"parents":[2147483647,0,0,1,1,2,2,3,3,4,4,5,5,6,6],"right_children":[2,4,6,8,10,12,14,-1,-1,-1,-1,-1,-1,-1,-1],"split_conditions":[4.9331573E-1,-5.132154E-1,1.6560237E0,-8.045363E-1,4.2856555E-3,1.9137402E0,3.396345E0,-1.3011903E2,-7.5788895E1,-7.6369804E1,1.220058E1,1.4298203E2,-8.705751E1,2.7451547E2,5.682826E2],"split_indices":[20,5,20,5,21,8,20,0,0,0,0,0,0,0,0],"split_type":[0,0,0,0,0,0,0,0,0,0,0,0,0,0,0],"sum_hessian":[1.308E3,1.021E3,2.87E2,5.45E2,4.76E2,1.92E2,9.5E1,1.64E2,3.81E2,1.41E2,3.35E2,1.61E2,3.1E1,7.9E1,1.6E1],"tree_param":{"num_deleted":"0","num_feature":"44","num_nodes":"15","size_leaf_vector":"1"}},{"base_weights":[4.34742E0,-1.1161609E3,3.7647446E3,-1.2990308E3,2.2368062E3,2.7249739E3,7.702539E3,-8.273322E1,-6.9577584E0,3.9989914E1,1.876796E2,1.1498159E2,5.085759E2,3.2742694E2,7.013575E2],"categories":[],"categories_nodes":[],"categories_segments":[],"categories_sizes":[],"default_left":[0,0,0,0,0,0,0,0,0,0,0,0,0,0,0],"id":35,"left_children":[1,3,5,7,9,11,13,-1,-1,-1,-1,-1,-1,-1,-1],"loss_changes":[5.671435E9,6.387496E8,1.2441815E9,4.0566067E8,1.1469808E8,7.557718E8,3.7525325E8,0E0,0E0,0E0,0E0,0E0,0E0,0E0,0E0],"parents":[2147483647,0,0,1,1,2,2,3,3,4,4,5,5,6,6],"right_children":[2,4,6,8,10,12,14,-1,-1,-1,-1,-1,-1,-1,-1],"split_conditions":[3.8166252E-1,7.705293E-1,1.963012E0,1.2183822E0,1.2763813E0,2.2757902E0,4.180334E0,-8.273322E1,-6.9577584E0,3.9989914E1,1.876796E2,1.1498159E2,5.085759E2,3.2742694E2,7.013575E2],"split_indices":[5,4,5,22,4,4,19,0,0,0,0,0,0,0,0],"split_type":[0,0,0,0,0,0,0,0,0,0,0,0,0,0,0],"sum_hessian":[1.344E3,1.036E3,3.08E2,9.83E2,5.3E1,2.45E2,6.3E1,7.52E2,2.31E2,2.8E1,2.5E1,2.33E2,1.2E1,5.5E1,8E0],"tree_param":{"num_deleted":"0","num_feature":"44","num_nodes":"15","size_leaf_vector":"1"}},{"base_weights":[6.427196E1,-7.16547E2,5.0909814E3,-1.4798157E3,5.530979E2,3.7825354E3,9.370848E3,-9.2642525E1,-3.0673456E1,8.489844E0,2.0038861E2,1.3880626E2,3.2784583E2,5.802272E2,2.9359927E2],"categories":[],"categories_nodes":[],"categories_segments":[],"categories_sizes":[],"default_left":[0,0,0,0,0,0,0,0,0,0,0,0,0,0,0],"id":36,"left_children":[1,3,5,7,9,11,13,-1,-1,-1,-1,-1,-1,-1,-1],"loss_changes":[5.1963566E9,1.1113843E9,9.613496E8,2.3025856E8,5.700411E8,3.6711616E8,2.5228954E8,0E0,0E0,0E0,0E0,0E0,0E0,0E0,0E0],"parents":[2147483647,0,0,1,1,2,2,3,3,4,4,5,5,6,6],"right_children":[2,4,6,8,10,12,14,-1,-1,-1,-1,-1,-1,-1,-1],"split_conditions":[1.2189742E0,-2.7231547E-1,2.8986223E0,1.5577868E-1,1.1358669E0,1.1358669E0,1.8728845E0,-9.2642525E1,-3.0673456E1,8.489844E0,2.0038861E2,1.3880626E2,3.2784583E2,5.802272E2,2.9359927E2],"split_indices":[20,5,20,4,4,4,9,0,0,0,0,0,0,0,0],"split_type":[0,0,0,0,0,0,0,0,0,0,0,0,0,0,0],"sum_hessian":[1.322E3,1.145E3,1.77E2,7.15E2,4.3E2,1.37E2,4E1,4.99E2,2.16E2,3.88E2,4.2E1,1.02E2,3.5E1,2.3E1,1.7E1],"tree_param":{"num_deleted":"0","num_feature":"44","num_nodes":"15","size_leaf_vector":"1"}},{"base_weights":[-5.076039E1,-1.0093743E3,3.149937E3,-1.4014293E3,1.646411E2,2.5841428E3,1.0439236E4,-7.6847084E1,2.5743793E1,-3.649306E1,3.5513256E1,-7.824665E1,1.571745E2,5.951847E2,2.275035E2],"categories":[],"categories_nodes":[],"categories_segments":[],"categories_sizes":[],"default_left":[0,0,0,0,0,0,0,0,0,0,0,0,0,0,0],"id":37,"left_children":[1,3,5,7,9,11,13,-1,-1,-1,-1,-1,-1,-1,-1],"loss_changes":[4.1268849E9,4.7661907E8,1.2515392E9,2.023054E8,1.27414504E8,6.7562266E8,1.3557478E8,0E0,0E0,0E0,0E0,0E0,0E0,0E0,0E0],"parents":[2147483647,0,0,1,1,2,2,3,3,4,4,5,5,6,6],"right_children":[2,4,6,8,10,12,14,-1,-1,-1,-1,-1,-1,-1,-1],"split_conditions":[4.9331573E-1,1.2183822E0,3.396345E0,4.578847E-1,-4.5400232E-1,-1.1947939E0,3.0011451E0,-7.6847084E1,2.5743793E1,-3.649306E1,3.5513256E1,-7.824665E1,1.571745E2,5.951847E2,2.275035E2],"split_indices":[20,22,20,4,20,3,18,0,0,0,0,0,0,0,0],"split_type":[0,0,0,0,0,0,0,0,0,0,0,0,0,0,0],"sum_hessian":[1.343E3,1.034E3,3.09E2,7.75E2,2.59E2,2.88E2,2.1E1,7.24E2,5.1E1,9.8E1,1.61E2,3.4E1,2.54E2,1.6E1,5E0],"tree_param":{"num_deleted":"0","num_feature":"44","num_nodes":"15","size_leaf_vector":"1"}},{"base_weights":[-4.5502186E1,-7.0161676E2,4.0205562E3,-9.367919E2,2.499656E3,2.4936187E3,6.7409414E3,-8.027127E1,-1.043044E1,1.7255223E2,1.9548105E1,9.665157E1,3.735625E2,1.6880376E2,4.050484E2],"categories":[],"categories_nodes":[],"categories_segments":[],"categories_sizes":[],"default_left":[0,0,0,0,0,0,0,0,0,0,0,0,0,0,0],"id":38,"left_children":[1,3,5,7,9,11,13,-1,-1,-1,-1,-1,-1,-1,-1],"loss_changes":[3.6096863E9,8.7942317E8,7.641162E8,5.2842502E8,1.5914582E8,3.259863E8,2.7926298E8,0E0,0E0,0E0,0E0,0E0,0E0,0E0,0E0],"parents":[2147483647,0,0,1,1,2,2,3,3,4,4,5,5,6,6],"right_children":[2,4,6,8,10,12,14,-1,-1,-1,-1,-1,-1,-1,-1],"split_conditions":[1.0965191E0,8.5483795E-1,3.6655033E-1,-4.966699E-1,1.9942622E-1,2.7118917E0,1.421454E0,-8.027127E1,-1.043044E1,1.7255223E2,1.9548105E1,9.665157E1,3.735625E2,1.6880376E2,4.050484E2],"split_indices":[5,4,4,5,42,17,5,0,0,0,0,0,0,0,0],"split_type":[0,0,0,0,0,0,0,0,0,0,0,0,0,0,0],"sum_hessian":[1.351E3,1.164E3,1.87E2,1.085E3,7.9E1,1.21E2,6.6E1,5.65E2,5.2E2,5.4E1,2.5E1,1.1E2,1.1E1,2E1,4.6E1],"tree_param":{"num_deleted":"0","num_feature":"44","num_nodes":"15","size_leaf_vector":"1"}},{"base_weights":[6.0489895E1,-8.012213E2,2.56734E3,-1.180667E3,2.0267949E2,1.927182E2,4.0259238E3,-7.543078E1,-9.878303E0,-4.0642365E1,3.517995E1,6.433753E1,-1.6183806E2,1.1410103E2,3.230529E2],"categories":[],"categories_nodes":[],"categories_segments":[],"categories_sizes":[],"default_left":[0,0,0,0,0,0,0,0,0,0,0,0,0,0,0],"id":39,"left_children":[1,3,5,7,9,11,13,-1,-1,-1,-1,-1,-1,-1,-1],"loss_changes":[2.795171E9,3.670709E8,1.1456707E9,2.2506406E8,1.3537667E8,4.8066397E8,8.5581645E8,0E0,0E0,0E0,0E0,0E0,0E0,0E0,0E0],"parents":[2147483647,0,0,1,1,2,2,3,3,4,4,5,5,6,6],"right_children":[2,4,6,8,10,12,14,-1,-1,-1,-1,-1,-1,-1,-1],"split_conditions":[3.646306E-1,1.2183822E0,1.2183822E0,-1.4140571E-2,-5.8460665E-1,1.760165E0,1.0495099E0,-7.543078E1,-9.878303E0,-4.0642365E1,3.517995E1,6.433753E1,-1.6183806E2,1.1410103E2,3.230529E2],"split_indices":[13,22,22,15,13,19,19,0,0,0,0,0,0,0,0],"split_type":[0,0,0,0,0,0,0,0,0,0,0,0,0,0,0],"sum_hessian":[1.292E3,9.62E2,3.3E2,6.98E2,2.64E2,1.26E2,2.04E2,5.23E2,1.75E2,8.7E1,1.77E2,9.6E1,3E1,1.2E2,8.4E1],"tree_param":{"num_deleted":"0","num_feature":"44","num_nodes":"15","size_leaf_vector":"1"}},{"base_weights":[6.1314116E0,-6.472998E2,4.224032E3,-1.4058317E3,1.929942E2,3.5312017E3,9.836078E3,-1.17142456E2,-5.867524E1,2.109472E1,-1.811656E2,2.688028E1,2.0949011E2,2.4057048E2,6.183092E2],"categories":[],"categories_nodes":[],"categories_segments":[],"categories_sizes":[],"default_left":[0,0,0,0,0,0,0,0,0,0,0,0,0,0,0],"id":40,"left_children":[1,3,5,7,9,11,13,-1,-1,-1,-1,-1,-1,-1,-1],"loss_changes":[3.6573338E9,7.326322E8,6.5736576E8,1.2873818E8,4.7848874E8,3.1320102E8,1.820471E8,0E0,0E0,0E0,0E0,0E0,0E0,0E0,0E0],"parents":[2147483647,0,0,1,1,2,2,3,3,4,4,5,5,6,6],"right_children":[2,4,6,8,10,12,14,-1,-1,-1,-1,-1,-1,-1,-1],"split_conditions":[1.2189742E0,-4.630662E-1,3.396345E0,-8.4977263E-1,1.4228485E0,-1.002723E0,-3.5796347E-1,-1.17142456E2,-5.867524E1,2.109472E1,-1.811656E2,2.688028E1,2.0949011E2,2.4057048E2,6.183092E2],"split_indices":[20,20,20,20,13,3,3,0,0,0,0,0,0,0,0],"split_type":[0,0,0,0,0,0,0,0,0,0,0,0,0,0,0],"sum_hessian":[1.325E3,1.148E3,1.77E2,6.03E2,5.45E2,1.59E2,1.8E1,1.18E2,4.85E2,5.15E2,3E1,2.9E1,1.3E2,7E0,1.1E1],"tree_param":{"num_deleted":"0","num_feature":"44","num_nodes":"15","size_leaf_vector":"1"}},{"base_weights":[4.2296627E1,-6.236599E2,4.1324214E3,-9.664875E2,1.4940518E3,2.3901052E3,6.296942E3,-6.1654205E1,4.157623E0,1.3495995E1,1.22540764E2,2.7472827E2,8.1124725E1,1.5583324E2,3.9146823E2],"categories":[],"categories_nodes":[],"categories_segments":[],"categories_sizes":[],"default_left":[0,0,0,0,0,0,0,0,0,0,0,0,0,0,0],"id":41,"left_children":[1,3,5,7,9,11,13,-1,-1,-1,-1,-1,-1,-1,-1],"loss_changes":[3.5599194E9,8.174792E8,6.7509376E8,2.709785E8,1.8321757E8,2.365358E8,3.7035443E8,0E0,0E0,0E0,0E0,0E0,0E0,0E0,0E0],"parents":[2147483647,0,0,1,1,2,2,3,3,4,4,5,5,6,6],"right_children":[2,4,6,8,10,12,14,-1,-1,-1,-1,-1,-1,-1,-1],"split_conditions":[1.0965191E0,5.211162E-1,1.779662E0,-3.5897385E-2,-9.0942755E-2,1.069326E0,-6.697436E-1,-6.1654205E1,4.157623E0,1.3495995E1,1.22540764E2,2.7472827E2,8.1124725E1,1.5583324E2,3.9146823E2],"split_indices":[5,4,20,5,28,10,4,0,0,0,0,0,0,0,0],"split_type":[0,0,0,0,0,0,0,0,0,0,0,0,0,0,0],"sum_hessian":[1.305E3,1.123E3,1.82E2,9.67E2,1.56E2,1.02E2,8E1,7.71E2,1.96E2,6.9E1,8.7E1,1.9E1,8.3E1,2.7E1,5.3E1],"tree_param":{"num_deleted":"0","num_feature":"44","num_nodes":"15","size_leaf_vector":"1"}},{"base_weights":[4.073827E1,-9.2207886E2,2.3900063E3,-1.2373771E3,3.5892464E1,-1.2196676E3,3.0622288E3,-9.077426E1,-4.7862133E1,-5.5322365E1,2.3752077E1,3.0558584E1,-1.3457726E2,9.7430016E1,2.6204794E2],"categories":[],"categories_nodes":[],"categories_segments":[],"categories_sizes":[],"default_left":[0,0,0,0,0,0,0,0,0,0,0,0,0,0,0],"id":42,"left_children":[1,3,5,7,9,11,13,-1,-1,-1,-1,-1,-1,-1,-1],"loss_changes":[2.9879324E9,2.8306214E8,9.355126E8,1.1243558E8,1.17411784E8,1.6602603E8,7.759073E8,0E0,0E0,0E0,0E0,0E0,0E0,0E0,0E0],"parents":[2147483647,0,0,1,1,2,2,3,3,4,4,5,5,6,6],"right_children":[2,4,6,8,10,12,14,-1,-1,-1,-1,-1,-1,-1,-1],"split_conditions":[1.7250907E-1,2.3657447E-1,-1.1399224E0,-7.335735E-1,-6.4983755E-1,1.160638E0,1.421454E0,-9.077426E1,-4.7862133E1,-5.5322365E1,2.3752077E1,3.0558584E1,-1.3457726E2,9.7430016E1,2.6204794E2],"split_indices":[5,4,3,5,20,8,5,0,0,0,0,0,0,0,0],"split_type":[0,0,0,0,0,0,0,0,0,0,0,0,0,0,0],"sum_hessian":[1.319E3,9.36E2,3.83E2,7.04E2,2.32E2,6E1,3.23E2,2.28E2,4.76E2,6.4E1,1.68E2,2.7E1,3.3E1,2.15E2,1.08E2],"tree_param":{"num_deleted":"0","num_feature":"44","num_nodes":"15","size_leaf_vector":"1"}},{"base_weights":[2.671029E0,-8.375424E2,2.1389514E3,-9.5967786E2,1.911569E3,1.5033087E3,5.0480596E3,-9.447077E1,-3.469983E1,4.0102005E1,1.4650354E2,-1.5067627E2,8.8783134E1,1.296677E2,3.5448984E2],"categories":[],"categories_nodes":[],"categories_segments":[],"categories_sizes":[],"default_left":[0,0,0,0,0,0,0,0,0,0,0,0,0,0,0],"id":43,"left_children":[1,3,5,7,9,11,13,-1,-1,-1,-1,-1,-1,-1,-1],"loss_changes":[2.3908452E9,3.2282464E8,6.876928E8,2.249534E8,4.398232E7,3.867061E8,3.1740864E8,0E0,0E0,0E0,0E0,0E0,0E0,0E0,0E0],"parents":[2147483647,0,0,1,1,2,2,3,3,4,4,5,5,6,6],"right_children":[2,4,6,8,10,12,14,-1,-1,-1,-1,-1,-1,-1,-1],"split_conditions":[1.7250907E-1,8.5483795E-1,1.1358669E0,-6.405389E-1,2.2303603E0,-1.912864E0,9.904137E-1,-9.447077E1,-3.469983E1,4.0102005E1,1.4650354E2,-1.5067627E2,8.8783134E1,1.296677E2,3.5448984E2],"split_indices":[5,4,4,3,3,3,19,0,0,0,0,0,0,0,0],"split_type":[0,0,0,0,0,0,0,0,0,0,0,0,0,0,0],"sum_hessian":[1.33E3,9.55E2,3.75E2,9.15E2,4E1,3.09E2,6.6E1,2.02E2,7.13E2,2E1,2E1,1.7E1,2.92E2,3.1E1,3.5E1],"tree_param":{"num_deleted":"0","num_feature":"44","num_nodes":"15","size_leaf_vector":"1"}},{"base_weights":[-9.624859E0,-4.9687415E2,3.5749773E3,-7.73816E2,1.3082727E3,2.8773127E3,8.210113E3,-5.191971E1,9.404201E0,1.8630419E1,1.1444356E2,1.21963646E2,3.2914307E2,5.6428217E2,2.609645E2],"categories":[],"categories_nodes":[],"categories_segments":[],"categories_sizes":[],"default_left":[0,0,0,0,0,0,0,0,0,0,0,0,0,0,0],"id":44,"left_children":[1,3,5,7,9,11,13,-1,-1,-1,-1,-1,-1,-1,-1],"loss_changes":[2.2915622E9,5.7842074E8,4.8407885E8,2.5520211E8,1.404438E8,2.0794125E8,1.2506432E8,0E0,0E0,0E0,0E0,0E0,0E0,0E0,0E0],"parents":[2147483647,0,0,1,1,2,2,3,3,4,4,5,5,6,6],"right_children":[2,4,6,8,10,12,14,-1,-1,-1,-1,-1,-1,-1,-1],"split_conditions":[1.2659236E0,5.0706476E-1,3.396345E0,1.2183822E0,8.396382E-3,2.1229808E0,2.338198E0,-5.191971E1,9.404201E0,1.8630419E1,1.1444356E2,1.21963646E2,3.2914307E2,5.6428217E2,2.609645E2],"split_indices":[20,4,20,22,20,4,16,0,0,0,0,0,0,0,0],"split_type":[0,0,0,0,0,0,0,0,0,0,0,0,0,0,0],"sum_hessian":[1.31E3,1.154E3,1.56E2,1.001E3,1.53E2,1.37E2,1.9E1,7.85E2,2.16E2,7.9E1,7.4E1,1.24E2,1.3E1,8E0,1.1E1],"tree_param":{"num_deleted":"0","num_feature":"44","num_nodes":"15","size_leaf_vector":"1"}},{"base_weights":[4.4073176E0,-6.111163E2,2.810974E3,-1.1459795E3,3.9198956E1,2.3735483E3,8.486545E3,-9.70812E1,-4.6382504E1,1.2076634E1,-1.373509E2,5.671654E1,1.85234E2,4.6920807E2,5.8480663E1],"categories":[],"categories_nodes":[],"categories_segments":[],"categories_sizes":[],"default_left":[0,0,0,0,0,0,0,0,0,0,0,0,0,0,0],"id":45,"left_children":[1,3,5,7,9,11,13,-1,-1,-1,-1,-1,-1,-1,-1],"loss_changes":[2.333854E9,3.854402E8,5.831388E8,1.0381606E8,2.8310006E8,3.7024806E8,1.0067661E8,0E0,0E0,0E0,0E0,0E0,0E0,0E0,0E0],"parents":[2147483647,0,0,1,1,2,2,3,3,4,4,5,5,6,6],"right_children":[2,4,6,8,10,12,14,-1,-1,-1,-1,-1,-1,-1,-1],"split_conditions":[8.8949037E-1,-4.630662E-1,3.396345E0,-8.4977263E-1,1.0406265E0,1.5577868E-1,6.392759E-1,-9.70812E1,-4.6382504E1,1.2076634E1,-1.373509E2,5.671654E1,1.85234E2,4.6920807E2,5.8480663E1],"split_indices":[20,20,20,20,13,4,26,0,0,0,0,0,0,0,0],"split_type":[0,0,0,0,0,0,0,0,0,0,0,0,0,0,0],"sum_hessian":[1.349E3,1.107E3,2.42E2,6.07E2,5E2,2.26E2,1.6E1,1.29E2,4.78E2,4.67E2,3.3E1,1.18E2,1.08E2,1.4E1,2E0],"tree_param":{"num_deleted":"0","num_feature":"44","num_nodes":"15","size_leaf_vector":"1"}},{"base_weights":[1.1383185E1,-3.7900507E2,3.8183582E3,-8.16375E2,8.9506836E2,4.380018E3,4.543602E2,-5.9739388E1,-1.5307227E1,8.153167E1,-5.9399364E1,9.791315E1,2.870084E2,-3.6150024E1,2.5251065E2],"categories":[],"categories_nodes":[],"categories_segments":[],"categories_sizes":[],"default_left":[0,0,0,0,0,0,0,0,0,0,0,0,0,0,0],"id":46,"left_children":[1,3,5,7,9,11,13,-1,-1,-1,-1,-1,-1,-1,-1],"loss_changes":[1.9974116E9,6.80008E8,2.3418752E8,1.7494886E8,4.799907E8,3.4121203E8,1.0645985E8,0E0,0E0,0E0,0E0,0E0,0E0,0E0,0E0],"parents":[2147483647,0,0,1,1,2,2,3,3,4,4,5,5,6,6],"right_children":[2,4,6,8,10,12,14,-1,-1,-1,-1,-1,-1,-1,-1],"split_conditions":[1.5268073E0,6.0005803E-2,3.4977615E0,2.1236101E-2,1.298688E0,7.036603E-1,3.1220465E0,-5.9739388E1,-1.5307227E1,8.153167E1,-5.9399364E1,9.791315E1,2.870084E2,-3.6150024E1,2.5251065E2],"split_indices":[20,20,8,4,8,19,20,0,0,0,0,0,0,0,0],"split_type":[0,0,0,0,0,0,0,0,0,0,0,0,0,0,0],"sum_hessian":[1.342E3,1.218E3,1.24E2,9.07E2,3.11E2,1.06E2,1.8E1,5.2E2,3.87E2,2.3E2,8.1E1,3.9E1,6.7E1,1.5E1,3E0],"tree_param":{"num_deleted":"0","num_feature":"44","num_nodes":"15","size_leaf_vector":"1"}},{"base_weights":[5.959076E1,-4.3452454E2,3.339398E3,-7.587628E2,8.057403E2,1.43356E3,5.2506025E3,-5.3196453E1,1.2842455E0,-6.9319756E1,6.40801E1,8.977986E1,-1.2508849E2,1.4874461E2,3.7814886E2],"categories":[],"categories_nodes":[],"categories_segments":[],"categories_sizes":[],"default_left":[0,0,0,0,0,0,0,0,0,0,0,0,0,0,0],"id":47,"left_children":[1,3,5,7,9,11,13,-1,-1,-1,-1,-1,-1,-1,-1],"loss_changes":[2.1908856E9,4.7312752E8,6.371859E8,2.23136E8,2.5630627E8,1.3271837E8,4.405829E8,0E0,0E0,0E0,0E0,0E0,0E0,0E0,0E0],"parents":[2147483647,0,0,1,1,2,2,3,3,4,4,5,5,6,6],"right_children":[2,4,6,8,10,12,14,-1,-1,-1,-1,-1,-1,-1,-1],"split_conditions":[1.1880237E0,1.3142537E-1,-3.3602184E-1,1.9090728E-1,-7.97963E-1,1.478753E0,1.2767085E0,-5.3196453E1,1.2842455E0,-6.9319756E1,6.40801E1,8.977986E1,-1.2508849E2,1.4874461E2,3.7814886E2],"split_indices":[5,5,4,4,4,33,19,0,0,0,0,0,0,0,0],"split_type":[0,0,0,0,0,0,0,0,0,0,0,0,0,0,0],"sum_hessian":[1.35E3,1.174E3,1.76E2,9.31E2,2.43E2,8.9E1,8.7E1,6.7E2,2.61E2,4.3E1,2E2,8.2E1,7E0,4.5E1,4.2E1],"tree_param":{"num_deleted":"0","num_feature":"44","num_nodes":"15","size_leaf_vector":"1"}},{"base_weights":[1.2236322E1,-4.0793887E2,3.4138447E3,-7.86306E2,6.0074133E2,2.7243418E3,7.8792417E3,-6.733642E1,-2.2914553E1,5.2562954E1,-7.164764E1,6.3882626E1,1.8486855E2,4.5501675E2,1.8584087E2],"categories":[],"categories_nodes":[],"categories_segments":[],"categories_sizes":[],"default_left":[0,0,0,0,0,0,0,0,0,0,0,0,0,0,0],"id":48,"left_children":[1,3,5,7,9,11,13,-1,-1,-1,-1,-1,-1,-1,-1],"loss_changes":[1.898036E9,4.5158445E8,4.2805427E8,1.5747392E8,2.974439E8,1.7545786E8,6.2747136E7,0E0,0E0,0E0,0E0,0E0,0E0,0E0,0E0],"parents":[2147483647,0,0,1,1,2,2,3,3,4,4,5,5,6,6],"right_children":[2,4,6,8,10,12,14,-1,-1,-1,-1,-1,-1,-1,-1],"split_conditions":[1.3110781E0,-4.5421336E-2,3.396345E0,-2.614983E-1,1.298688E0,7.450305E-1,1.9252031E0,-6.733642E1,-2.2914553E1,5.2562954E1,-7.164764E1,6.3882626E1,1.8486855E2,4.5501675E2,1.8584087E2],"split_indices":[20,5,20,3,8,19,9,0,0,0,0,0,0,0,0],"split_type":[0,0,0,0,0,0,0,0,0,0,0,0,0,0,0],"sum_hessian":[1.326E3,1.181E3,1.45E2,8.59E2,3.22E2,1.27E2,1.8E1,3.16E2,5.43E2,2.64E2,5.8E1,5.2E1,7.5E1,1.3E1,5E0],"tree_param":{"num_deleted":"0","num_feature":"44","num_nodes":"15","size_leaf_vector":"1"}},{"base_weights":[-8.2489884E-1,-3.492447E2,3.234508E3,-5.2610486E2,2.111828E3,1.3395677E3,5.2565596E3,-5.1537086E1,-9.401245E-1,1.4365605E2,-6.4813457E0,1.1688497E2,-4.008659E1,2.0767882E2,4.4495514E2],"categories":[],"categories_nodes":[],"categories_segments":[],"categories_sizes":[],"default_left":[0,0,0,0,0,0,0,0,0,0,0,0,0,0,0],"id":49,"left_children":[1,3,5,7,9,11,13,-1,-1,-1,-1,-1,-1,-1,-1],"loss_changes":[1.542086E9,5.386642E8,5.025701E8,2.9515258E8,1.42004E8,1.5148515E8,2.2016742E8,0E0,0E0,0E0,0E0,0E0,0E0,0E0,0E0],"parents":[2147483647,0,0,1,1,2,2,3,3,4,4,5,5,6,6],"right_children":[2,4,6,8,10,12,14,-1,-1,-1,-1,-1,-1,-1,-1],"split_conditions":[1.421454E0,9.1104376E-1,-3.3602184E-1,-4.966699E-1,-4.800512E-2,6.2457776E-1,3.1757283E0,-5.1537086E1,-9.401245E-1,1.4365605E2,-6.4813457E0,1.1688497E2,-4.008659E1,2.0767882E2,4.4495514E2],"split_indices":[5,4,4,5,2,30,5,0,0,0,0,0,0,0,0],"split_type":[0,0,0,0,0,0,0,0,0,0,0,0,0,0,0],"sum_hessian":[1.366E3,1.234E3,1.32E2,1.152E3,8.2E1,6.9E1,6.3E1,5.77E2,5.75E2,6.1E1,2.1E1,4.7E1,2.2E1,5E1,1.3E1],"tree_param":{"num_deleted":"0","num_feature":"44","num_nodes":"15","size_leaf_vector":"1"}},{"base_weights":[-1.755547E1,-4.4068463E2,3.001217E3,-6.5837646E2,9.179063E2,1.9787491E3,5.92413E3,-6.2672787E1,-1.9008896E1,1.669673E1,1.1698341E2,8.030471E1,3.2602945E2,1.7651878E2,4.1903702E2],"categories":[],"categories_nodes":[],"categories_segments":[],"categories_sizes":[],"default_left":[0,0,0,0,0,0,0,0,0,0,0,0,0,0,0],"id":50,"left_children":[1,3,5,7,9,11,13,-1,-1,-1,-1,-1,-1,-1,-1],"loss_changes":[1.7040042E9,3.4663667E8,4.7840563E8,1.6656358E8,1.3372226E8,1.9770957E8,2.1739469E8,0E0,0E0,0E0,0E0,0E0,0E0,0E0,0E0],"parents":[2147483647,0,0,1,1,2,2,3,3,4,4,5,5,6,6],"right_children":[2,4,6,8,10,12,14,-1,-1,-1,-1,-1,-1,-1,-1],"split_conditions":[1.2659236E0,4.7738108E-1,2.7108507E0,4.2856555E-3,2.5861746E-1,2.2757902E0,2.508114E0,-6.2672787E1,-1.9008896E1,1.669673E1,1.1698341E2,8.030471E1,3.2602945E2,1.7651878E2,4.1903702E2],"split_indices":[20,4,20,21,19,4,19,0,0,0,0,0,0,0,0],"split_type":[0,0,0,0,0,0,0,0,0,0,0,0,0,0,0],"sum_hessian":[1.332E3,1.169E3,1.63E2,1.008E3,1.61E2,1.22E2,4.1E1,3.2E2,6.88E2,1.15E2,4.6E1,1.14E2,8E0,2.2E1,1.9E1],"tree_param":{"num_deleted":"0","num_feature":"44","num_nodes":"15","size_leaf_vector":"1"}},{"base_weights":[1.6370123E1,-5.6481885E2,1.6479336E3,-2.8436665E3,-4.907199E2,1.3390692E3,5.8261543E3,-7.784438E1,-1.7367754E2,-6.4186424E1,-1.2115142E1,4.8992077E1,2.2188225E2,3.832274E2,1.6745244E2],"categories":[],"categories_nodes":[],"categories_segments":[],"categories_sizes":[],"default_left":[0,0,0,0,0,0,0,0,0,0,0,0,0,0,0],"id":51,"left_children":[1,3,5,7,9,11,13,-1,-1,-1,-1,-1,-1,-1,-1],"loss_changes":[1.2744261E9,1.6594502E8,4.477461E8,1.9718224E7,1.8900294E8,3.62973E8,8.362458E7,0E0,0E0,0E0,0E0,0E0,0E0,0E0,0E0],"parents":[2147483647,0,0,1,1,2,2,3,3,4,4,5,5,6,6],"right_children":[2,4,6,8,10,12,14,-1,-1,-1,-1,-1,-1,-1,-1],"split_conditions":[3.442992E-1,-1.6112843E0,2.1229808E0,-1.955446E-1,-7.7896297E-1,2.8986223E0,7.435344E-1,-7.784438E1,-1.7367754E2,-6.4186424E1,-1.2115142E1,4.8992077E1,2.2188225E2,3.832274E2,1.6745244E2],"split_indices":[20,3,4,8,20,20,15,0,0,0,0,0,0,0,0],"split_type":[0,0,0,0,0,0,0,0,0,0,0,0,0,0,0],"sum_hessian":[1.342E3,9.9E2,3.52E2,3E1,9.6E2,3.29E2,2.3E1,1.1E1,1.9E1,2.28E2,7.32E2,2.96E2,3.3E1,1.2E1,1.1E1],"tree_param":{"num_deleted":"0","num_feature":"44","num_nodes":"15","size_leaf_vector":"1"}},{"base_weights":[-1.8044361E1,-2.871119E2,3.5086501E3,-6.877957E2,6.665336E2,1.2503003E3,4.7675435E3,-1.16903175E2,-2.6209717E1,1.9859083E1,1.6385362E2,-3.1152502E1,1.3432329E2,2.757772E2,2.3799435E1],"categories":[],"categories_nodes":[],"categories_segments":[],"categories_sizes":[],"default_left":[0,0,0,0,0,0,0,0,0,0,0,0,0,0,0],"id":52,"left_children":[1,3,5,7,9,11,13,-1,-1,-1,-1,-1,-1,-1,-1],"loss_changes":[1.2583251E9,4.712183E8,2.6128307E8,2.3312234E8,2.553495E8,9.5839224E7,1.8997965E8,0E0,0E0,0E0,0E0,0E0,0E0,0E0,0E0],"parents":[2147483647,0,0,1,1,2,2,3,3,4,4,5,5,6,6],"right_children":[2,4,6,8,10,12,14,-1,-1,-1,-1,-1,-1,-1,-1],"split_conditions":[1.6121792E0,1.2183822E0,8.783503E-1,-1.1947939E0,9.904137E-1,2.1675985E0,3.7121317E0,-1.16903175E2,-2.6209717E1,1.9859083E1,1.6385362E2,-3.1152502E1,1.3432329E2,2.757772E2,2.3799435E1],"split_indices":[20,22,19,3,19,14,8,0,0,0,0,0,0,0,0],"split_type":[0,0,0,0,0,0,0,0,0,0,0,0,0,0,0],"sum_hessian":[1.324E3,1.231E3,9.3E1,8.67E2,3.64E2,3.4E1,5.9E1,7.7E1,7.9E2,3.31E2,3.3E1,1.5E1,1.9E1,5E1,9E0],"tree_param":{"num_deleted":"0","num_feature":"44","num_nodes":"15","size_leaf_vector":"1"}},{"base_weights":[8.354966E1,-2.94794E2,2.6243115E3,-6.0563995E2,5.728898E2,2.2977454E3,8.319765E3,-8.199139E1,-2.2146276E1,-1.5694247E2,4.0064907E1,6.836892E1,1.9106505E2,4.6853912E2,1.5470677E2],"categories":[],"categories_nodes":[],"categories_segments":[],"categories_sizes":[],"default_left":[0,0,0,0,0,0,0,0,0,0,0,0,0,0,0],"id":53,"left_children":[1,3,5,7,9,11,13,-1,-1,-1,-1,-1,-1,-1,-1],"loss_changes":[1.2831228E9,3.1375693E8,3.026532E8,1.4331907E8,2.6278734E8,2.286567E8,2.0435584E7,0E0,0E0,0E0,0E0,0E0,0E0,0E0,0E0],"parents":[2147483647,0,0,1,1,2,2,3,3,4,4,5,5,6,6],"right_children":[2,4,6,8,10,12,14,-1,-1,-1,-1,-1,-1,-1,-1],"split_conditions":[1.1880237E0,-4.5421336E-2,1.8742685E0,-8.2505053E-1,-1.6112843E0,2.314091E0,-6.225992E-1,-8.199139E1,-2.2146276E1,-1.5694247E2,4.0064907E1,6.836892E1,1.9106505E2,4.6853912E2,1.5470677E2],"split_indices":[5,5,3,3,3,5,1,0,0,0,0,0,0,0,0],"split_type":[0,0,0,0,0,0,0,0,0,0,0,0,0,0,0],"sum_hessian":[1.333E3,1.161E3,1.72E2,8.55E2,3.06E2,1.64E2,8E0,1.15E2,7.4E2,1.7E1,2.89E2,1.03E2,6.1E1,6E0,2E0],"tree_param":{"num_deleted":"0","num_feature":"44","num_nodes":"15","size_leaf_vector":"1"}},{"base_weights":[4.218698E1,-5.8355493E2,1.1848141E3,-7.4461646E2,5.933247E2,4.9376538E2,3.4168098E3,-9.384538E1,-3.1804289E1,5.065402E1,-1.3371227E2,1.3966623E1,1.6651309E2,1.842383E2,-2.3026065E2],"categories":[],"categories_nodes":[],"categories_segments":[],"categories_sizes":[],"default_left":[0,0,0,0,0,0,0,0,0,0,0,0,0,0,0],"id":54,"left_children":[1,3,5,7,9,11,13,-1,-1,-1,-1,-1,-1,-1,-1],"loss_changes":[9.416178E8,1.6174883E8,7.1707955E8,9.08495E7,1.4398205E8,2.1621077E8,2.5341952E8,0E0,0E0,0E0,0E0,0E0,0E0,0E0,0E0],"parents":[2147483647,0,0,1,1,2,2,3,3,4,4,5,5,6,6],"right_children":[2,4,6,8,10,12,14,-1,-1,-1,-1,-1,-1,-1,-1],"split_conditions":[1.2183822E0,1.4101633E0,7.570787E-1,-1.1399224E0,2.6898177E0,1.0502261E0,2.0737975E0,-9.384538E1,-3.1804289E1,5.065402E1,-1.3371227E2,1.3966623E1,1.6651309E2,1.842383E2,-2.3026065E2],"split_indices":[22,6,19,3,19,6,6,0,0,0,0,0,0,0,0],"split_type":[0,0,0,0,0,0,0,0,0,0,0,0,0,0,0],"sum_hessian":[1.315E3,8.5E2,4.65E2,7.48E2,1.02E2,3.56E2,1.09E2,6.4E1,6.84E2,9.1E1,1.1E1,3.32E2,2.4E1,1.06E2,3E0],"tree_param":{"num_deleted":"0","num_feature":"44","num_nodes":"15","size_leaf_vector":"1"}},{"base_weights":[4.9971737E1,-4.9860187E2,1.5800573E3,-1.7850973E3,-3.8520923E2,1.2926094E3,6.39864E3,-5.649844E1,-1.4456082E2,-4.8049183E1,-1.667229E0,-1.6158246E2,7.690641E1,3.3991537E2,-1.988418E1],"categories":[],"categories_nodes":[],"categories_segments":[],"categories_sizes":[],"default_left":[0,0,0,0,0,0,0,0,0,0,0,0,0,0,0],"id":55,"left_children":[1,3,5,7,9,11,13,-1,-1,-1,-1,-1,-1,-1,-1],"loss_changes":[1.087765E9,1.3848107E8,4.6543046E8,5.2531056E7,1.7784605E8,3.648668E8,5.4312576E7,0E0,0E0,0E0,0E0,0E0,0E0,0E0,0E0],"parents":[2147483647,0,0,1,1,2,2,3,3,4,4,5,5,6,6],"right_children":[2,4,6,8,10,12,14,-1,-1,-1,-1,-1,-1,-1,-1],"split_conditions":[3.442992E-1,-1.1399224E0,2.2757902E0,-1.2974372E-2,-6.9614273E-1,-1.8095949E0,1.6616871E0,-5.649844E1,-1.4456082E2,-4.8049183E1,-1.667229E0,-1.6158246E2,7.690641E1,3.3991537E2,-1.988418E1],"split_indices":[20,3,4,8,20,3,41,0,0,0,0,0,0,0,0],"split_type":[0,0,0,0,0,0,0,0,0,0,0,0,0,0,0],"sum_hessian":[1.294E3,9.53E2,3.41E2,7.6E1,8.77E2,3.23E2,1.8E1,4.9E1,2.7E1,3.32E2,5.45E2,1.6E1,3.07E2,1.7E1,1E0],"tree_param":{"num_deleted":"0","num_feature":"44","num_nodes":"15","size_leaf_vector":"1"}},{"base_weights":[-5.602421E1,-3.0480222E2,2.0233165E3,-5.6819366E2,4.5557578E2,1.6455634E3,6.4067583E3,-1.729497E2,-2.6064575E1,-1.5188192E-1,6.775964E1,5.3553017E1,2.0422873E2,3.696827E2,6.552422E1],"categories":[],"categories_nodes":[],"categories_segments":[],"categories_sizes":[],"default_left":[0,0,0,0,0,0,0,0,0,0,0,0,0,0,0],"id":56,"left_children":[1,3,5,7,9,11,13,-1,-1,-1,-1,-1,-1,-1,-1],"loss_changes":[6.9223904E8,2.3958995E8,2.2624518E8,1.1859619E8,1.2707765E8,1.8198742E8,4.5635136E7,0E0,0E0,0E0,0E0,0E0,0E0,0E0,0E0],"parents":[2147483647,0,0,1,1,2,2,3,3,4,4,5,5,6,6],"right_children":[2,4,6,8,10,12,14,-1,-1,-1,-1,-1,-1,-1,-1],"split_conditions":[1.3110781E0,2.3657447E-1,2.1229808E0,-2.1802738E0,-1.3394359E-1,3.1220465E0,1.1040255E0,-1.729497E2,-2.6064575E1,-1.5188192E-1,6.775964E1,5.3553017E1,2.0422873E2,3.696827E2,6.552422E1],"split_indices":[20,4,4,4,19,20,7,0,0,0,0,0,0,0,0],"split_type":[0,0,0,0,0,0,0,0,0,0,0,0,0,0,0],"sum_hessian":[1.336E3,1.194E3,1.42E2,8.87E2,3.07E2,1.32E2,1E1,1.3E1,8.74E2,2.04E2,1.03E2,1.08E2,2.4E1,8E0,2E0],"tree_param":{"num_deleted":"0","num_feature":"44","num_nodes":"15","size_leaf_vector":"1"}},{"base_weights":[-4.1880318E1,-4.954415E2,1.0688705E3,-5.5754364E2,1.8370592E3,-1.4230421E3,1.5352222E3,-6.2259487E1,-1.915171E1,2.9238989E1,1.8285002E2,5.5617785E0,-1.4324516E2,6.675995E1,2.9701862E2],"categories":[],"categories_nodes":[],"categories_segments":[],"categories_sizes":[],"default_left":[0,0,0,0,0,0,0,0,0,0,0,0,0,0,0],"id":57,"left_children":[1,3,5,7,9,11,13,-1,-1,-1,-1,-1,-1,-1,-1],"loss_changes":[6.7762797E8,1.3935909E8,4.554067E8,1.1124371E8,5.483833E7,1.3747603E8,2.819609E8,0E0,0E0,0E0,0E0,0E0,0E0,0E0,0E0],"parents":[2147483647,0,0,1,1,2,2,3,3,4,4,5,5,6,6],"right_children":[2,4,6,8,10,12,14,-1,-1,-1,-1,-1,-1,-1,-1],"split_conditions":[1.7250907E-1,2.2303603E0,-1.1816082E0,-7.8959674E-1,-3.3592296E-1,1.234325E0,3.9011087E0,-6.2259487E1,-1.915171E1,2.9238989E1,1.8285002E2,5.5617785E0,-1.4324516E2,6.675995E1,2.9701862E2],"split_indices":[5,3,3,5,18,19,19,0,0,0,0,0,0,0,0],"split_type":[0,0,0,0,0,0,0,0,0,0,0,0,0,0,0],"sum_hessian":[1.343E3,9.54E2,3.89E2,9.3E2,2.4E1,6.1E1,3.28E2,1.87E2,7.43E2,1.5E1,9E0,3E1,3.1E1,3.15E2,1.3E1],"tree_param":{"num_deleted":"0","num_feature":"44","num_nodes":"15","size_leaf_vector":"1"}},{"base_weights":[-1.2195032E1,-1.4339998E2,3.434922E3,-5.1245624E2,5.837612E2,1.792774E3,6.072237E3,-2.0051615E1,-1.3612767E2,1.7833635E1,1.2710177E2,1.4132799E2,-3.3041603E1,1.2696781E2,3.4501245E2],"categories":[],"categories_nodes":[],"categories_segments":[],"categories_sizes":[],"default_left":[0,0,0,0,0,0,0,0,0,0,0,0,0,0,0],"id":58,"left_children":[1,3,5,7,9,11,13,-1,-1,-1,-1,-1,-1,-1,-1],"loss_changes":[5.920732E8,3.387054E8,1.9699526E8,2.0502598E8,1.8809152E8,8.049948E7,3.513261E7,0E0,0E0,0E0,0E0,0E0,0E0,0E0,0E0],"parents":[2147483647,0,0,1,1,2,2,3,3,4,4,5,5,6,6],"right_children":[2,4,6,8,10,12,14,-1,-1,-1,-1,-1,-1,-1,-1],"split_conditions":[2.7108507E0,1.2183822E0,2.263563E0,1.7014934E0,1.1261581E0,3.113915E0,-3.2858795E-1,-2.0051615E1,-1.3612767E2,1.7833635E1,1.2710177E2,1.4132799E2,-3.3041603E1,1.2696781E2,3.4501245E2],"split_indices":[20,22,19,19,19,8,3,0,0,0,0,0,0,0,0],"split_type":[0,0,0,0,0,0,0,0,0,0,0,0,0,0,0],"sum_hessian":[1.307E3,1.26E3,4.7E1,8.36E2,4.24E2,3E1,1.7E1,7.97E2,3.9E1,3.81E2,4.3E1,2.1E1,9E0,4E0,1.3E1],"tree_param":{"num_deleted":"0","num_feature":"44","num_nodes":"15","size_leaf_vector":"1"}},{"base_weights":[-4.404644E1,-4.6857898E2,1.1110897E3,-9.904904E2,-1.84585E2,3.7347736E2,2.096953E3,-3.9021023E1,-1.21897255E2,-4.440233E1,1.2709947E1,4.6130096E1,-4.4379642E1,7.776996E1,2.1794633E2],"categories":[],"categories_nodes":[],"categories_segments":[],"categories_sizes":[],"default_left":[0,0,0,0,0,0,0,0,0,0,0,0,0,0,0],"id":59,"left_children":[1,3,5,7,9,11,13,-1,-1,-1,-1,-1,-1,-1,-1],"loss_changes":[6.5323354E8,1.441832E8,2.5954896E8,1.0239222E8,1.953037E8,1.4347075E8,1.8064211E8,0E0,0E0,0E0,0E0,0E0,0E0,0E0,0E0],"parents":[2147483647,0,0,1,1,2,2,3,3,4,4,5,5,6,6],"right_children":[2,4,6,8,10,12,14,-1,-1,-1,-1,-1,-1,-1,-1],"split_conditions":[2.2405046E-1,-1.3578878E-1,1.6456082E-1,8.222858E-2,-7.1116424E-1,1.696751E0,1.963012E0,-3.9021023E1,-1.21897255E2,-4.440233E1,1.2709947E1,4.6130096E1,-4.4379642E1,7.776996E1,2.1794633E2],"split_indices":[5,4,4,13,5,8,5,0,0,0,0,0,0,0,0],"split_type":[0,0,0,0,0,0,0,0,0,0,0,0,0,0,0],"sum_hessian":[1.33E3,9.73E2,3.57E2,3.42E2,6.31E2,2.05E2,1.52E2,3E2,4.2E1,2.42E2,3.89E2,1.43E2,6.2E1,1.24E2,2.8E1],"tree_param":{"num_deleted":"0","num_feature":"44","num_nodes":"15","size_leaf_vector":"1"}},{"base_weights":[1.0866915E1,-4.0410928E2,1.1144742E3,-6.313135E2,2.1203679E2,-1.3564296E3,1.4748696E3,-2.6705671E1,-1.02723E2,-2.4118866E1,2.9191236E1,-3.7673397E1,-2.7257913E2,4.749248E1,1.5002663E2],"categories":[],"categories_nodes":[],"categories_segments":[],"categories_sizes":[],"default_left":[0,0,0,0,0,0,0,0,0,0,0,0,0,0,0],"id":60,"left_children":[1,3,5,7,9,11,13,-1,-1,-1,-1,-1,-1,-1,-1],"loss_changes":[6.251224E8,1.3900491E8,3.3415798E8,9.919187E7,6.947246E7,1.1441495E8,2.5827712E8,0E0,0E0,0E0,0E0,0E0,0E0,0E0,0E0],"parents":[2147483647,0,0,1,1,2,2,3,3,4,4,5,5,6,6],"right_children":[2,4,6,8,10,12,14,-1,-1,-1,-1,-1,-1,-1,-1],"split_conditions":[2.135928E-1,2.3657447E-1,-1.1947939E0,4.620194E-1,-6.3646656E-1,3.662292E0,1.2767085E0,-2.6705671E1,-1.02723E2,-2.4118866E1,2.9191236E1,-3.7673397E1,-2.7257913E2,4.749248E1,1.5002663E2],"split_indices":[5,4,3,19,5,19,19,0,0,0,0,0,0,0,0],"split_type":[0,0,0,0,0,0,0,0,0,0,0,0,0,0,0],"sum_hessian":[1.363E3,9.91E2,3.72E2,7.24E2,2.67E2,4.7E1,3.25E2,6.79E2,4.5E1,9.3E1,1.74E2,4.2E1,5E0,2.43E2,8.2E1],"tree_param":{"num_deleted":"0","num_feature":"44","num_nodes":"15","size_leaf_vector":"1"}},{"base_weights":[-3.3849243E1,-4.230969E2,9.292213E2,-1.024079E3,-2.207685E2,7.4295514E2,4.675359E3,-4.0519207E1,-1.0495856E2,-5.7352886E1,-2.0193513E-1,6.1626728E1,-2.7931778E1,2.5692065E2,8.850323E1],"categories":[],"categories_nodes":[],"categories_segments":[],"categories_sizes":[],"default_left":[0,0,0,0,0,0,0,0,0,0,0,0,0,0,0],"id":61,"left_children":[1,3,5,7,9,11,13,-1,-1,-1,-1,-1,-1,-1,-1],"loss_changes":[5.0009875E8,1.1528986E8,2.644735E8,5.320715E7,1.4293254E8,2.3455272E8,1.5120256E7,0E0,0E0,0E0,0E0,0E0,0E0,0E0,0E0],"parents":[2147483647,0,0,1,1,2,2,3,3,4,4,5,5,6,6],"right_children":[2,4,6,8,10,12,14,-1,-1,-1,-1,-1,-1,-1,-1],"split_conditions":[1.7250907E-1,4.2856555E-3,3.488338E0,2.3752166E-1,-8.0827117E-1,1.524656E0,1.6673148E0,-4.0519207E1,-1.0495856E2,-5.7352886E1,-2.0193513E-1,6.1626728E1,-2.7931778E1,2.5692065E2,8.850323E1],"split_indices":[5,21,5,19,5,8,38,0,0,0,0,0,0,0,0],"split_type":[0,0,0,0,0,0,0,0,0,0,0,0,0,0,0],"sum_hessian":[1.332E3,9.49E2,3.83E2,2.38E2,7.11E2,3.66E2,1.7E1,2E2,3.8E1,1.34E2,5.77E2,2.66E2,1E2,1.4E1,3E0],"tree_param":{"num_deleted":"0","num_feature":"44","num_nodes":"15","size_leaf_vector":"1"}},{"base_weights":[-1.9773901E1,-2.2620126E2,1.8141084E3,-3.6153806E2,1.1956923E3,-4.906548E3,2.0531248E3,-4.5108456E1,-6.562752E0,9.241241E1,3.638445E0,-4.0768167E2,-1.1973308E0,6.004939E1,1.6583546E2],"categories":[],"categories_nodes":[],"categories_segments":[],"categories_sizes":[],"default_left":[0,0,0,0,0,0,0,0,0,0,0,0,0,0,0],"id":62,"left_children":[1,3,5,7,9,11,13,-1,-1,-1,-1,-1,-1,-1,-1],"loss_changes":[5.1260682E8,2.3462507E8,2.3014326E8,1.3832354E8,7.753914E7,7.907586E7,1.39224E8,0E0,0E0,0E0,0E0,0E0,0E0,0E0,0E0],"parents":[2147483647,0,0,1,1,2,2,3,3,4,4,5,5,6,6],"right_children":[2,4,6,8,10,12,14,-1,-1,-1,-1,-1,-1,-1,-1],"split_conditions":[1.421454E0,8.5483795E-1,-1.4568385E0,-4.9939463E-1,4.9412405E-1,-1.4206003E-1,7.0917773E-1,-4.5108456E1,-6.562752E0,9.241241E1,3.638445E0,-4.0768167E2,-1.1973308E0,6.004939E1,1.6583546E2],"split_indices":[5,4,2,3,10,1,0,0,0,0,0,0,0,0,0],"split_type":[0,0,0,0,0,0,0,0,0,0,0,0,0,0,0],"sum_hessian":[1.352E3,1.216E3,1.36E2,1.111E3,1.05E2,4E0,1.32E2,3.31E2,7.8E2,6.6E1,3.9E1,2E0,2E0,8E1,5.2E1],"tree_param":{"num_deleted":"0","num_feature":"44","num_nodes":"15","size_leaf_vector":"1"}},{"base_weights":[4.6044193E1,-1.9369049E2,1.8130239E3,-5.799315E2,1.6009697E2,-3.7506897E2,2.4490432E3,-5.7333748E1,-1.8899405E1,-2.661684E1,2.2289854E1,2.4421711E1,-1.7291922E2,1.3329465E2,-2.2801402E2],"categories":[],"categories_nodes":[],"categories_segments":[],"categories_sizes":[],"default_left":[0,0,0,0,0,0,0,0,0,0,0,0,0,0,0],"id":63,"left_children":[1,3,5,7,9,11,13,-1,-1,-1,-1,-1,-1,-1,-1],"loss_changes":[5.531574E8,1.5723717E8,2.1801898E8,6.251413E7,1.1913219E8,9.753749E7,1.9607347E8,0E0,0E0,0E0,0E0,0E0,0E0,0E0,0E0],"parents":[2147483647,0,0,1,1,2,2,3,3,4,4,5,5,6,6],"right_children":[2,4,6,8,10,12,14,-1,-1,-1,-1,-1,-1,-1,-1],"split_conditions":[1.1880237E0,-4.8845315E-1,1.2183822E0,-8.1574094E-1,4.2856555E-3,2.5340326E0,2.0737975E0,-5.7333748E1,-1.8899405E1,-2.661684E1,2.2289854E1,2.4421711E1,-1.7291922E2,1.3329465E2,-2.2801402E2],"split_indices":[5,5,22,5,21,10,6,0,0,0,0,0,0,0,0],"split_type":[0,0,0,0,0,0,0,0,0,0,0,0,0,0,0],"sum_hessian":[1.304E3,1.149E3,1.55E2,5.49E2,6E2,3.5E1,1.2E2,1.43E2,4.06E2,1.75E2,4.25E2,2.8E1,7E0,1.17E2,3E0],"tree_param":{"num_deleted":"0","num_feature":"44","num_nodes":"15","size_leaf_vector":"1"}},{"base_weights":[-2.9331573E1,-2.0704532E2,2.3152893E3,-1.6902554E2,-4.866575E3,1.6549315E3,5.4311006E3,-2.727689E1,6.8431177E0,-1.4133788E2,-3.6098062E2,1.5149413E2,3.519099E1,3.4060284E2,-2.073911E1],"categories":[],"categories_nodes":[],"categories_segments":[],"categories_sizes":[],"default_left":[0,0,0,0,0,0,0,0,0,0,0,0,0,0,0],"id":64,"left_children":[1,3,5,7,9,11,13,-1,-1,-1,-1,-1,-1,-1,-1],"loss_changes":[5.559023E8,2.188487E8,1.8442166E8,1.418496E8,2.7589568E7,1.0117834E8,1.3199203E8,0E0,0E0,0E0,0E0,0E0,0E0,0E0,0E0],"parents":[2147483647,0,0,1,1,2,2,3,3,4,4,5,5,6,6],"right_children":[2,4,6,8,10,12,14,-1,-1,-1,-1,-1,-1,-1,-1],"split_conditions":[1.6560237E0,2.451373E0,3.396345E0,-5.4500777E-1,2.3777158E0,1.0036057E0,2.0625007E0,-2.727689E1,6.8431177E0,-1.4133788E2,-3.6098062E2,1.5149413E2,3.519099E1,3.4060284E2,-2.073911E1],"split_indices":[20,13,20,20,10,17,9,0,0,0,0,0,0,0,0],"split_type":[0,0,0,0,0,0,0,0,0,0,0,0,0,0,0],"sum_hessian":[1.332E3,1.239E3,9.3E1,1.23E3,9E0,7.8E1,1.5E1,5.51E2,6.79E2,6E0,3E0,3.1E1,4.7E1,1.2E1,3E0],"tree_param":{"num_deleted":"0","num_feature":"44","num_nodes":"15","size_leaf_vector":"1"}},{"base_weights":[1.2697865E1,-1.6884444E2,1.6345597E3,-2.304877E3,-9.659959E1,9.422752E2,4.2958716E3,-1.22455986E2,8.301475E1,-1.6198828E1,3.8855396E1,1.9119886E1,8.867003E1,2.5614078E2,2.0497137E1],"categories":[],"categories_nodes":[],"categories_segments":[],"categories_sizes":[],"default_left":[0,0,0,0,0,0,0,0,0,0,0,0,0,0,0],"id":65,"left_children":[1,3,5,7,9,11,13,-1,-1,-1,-1,-1,-1,-1,-1],"loss_changes":[4.0070966E8,1.8866176E8,2.4835891E8,2.6944144E7,2.3566504E8,5.0507976E7,8.787632E7,0E0,0E0,0E0,0E0,0E0,0E0,0E0,0E0],"parents":[2147483647,0,0,1,1,2,2,3,3,4,4,5,5,6,6],"right_children":[2,4,6,8,10,12,14,-1,-1,-1,-1,-1,-1,-1,-1],"split_conditions":[8.5483795E-1,-1.7602047E0,1.5805376E0,2.6310303E0,2.2405046E-1,7.325243E-1,1.850514E0,-1.22455986E2,8.301475E1,-1.6198828E1,3.8855396E1,1.9119886E1,8.867003E1,2.5614078E2,2.0497137E1],"split_indices":[4,3,19,15,5,11,8,0,0,0,0,0,0,0,0],"split_type":[0,0,0,0,0,0,0,0,0,0,0,0,0,0,0],"sum_hessian":[1.359E3,1.223E3,1.36E2,3.9E1,1.184E3,1.09E2,2.7E1,3.8E1,1E0,9.4E2,2.44E2,6.6E1,4.3E1,2.2E1,5E0],"tree_param":{"num_deleted":"0","num_feature":"44","num_nodes":"15","size_leaf_vector":"1"}},{"base_weights":[6.6955414E1,-3.0117932E2,1.0325042E3,-8.23348E2,-1.2309538E2,-1.12548065E1,1.4991698E3,-3.0966608E1,-1.084175E2,-4.896228E1,2.5307312E0,-1.708516E1,1.7463118E2,6.448239E1,1.610351E2],"categories":[],"categories_nodes":[],"categories_segments":[],"categories_sizes":[],"default_left":[0,0,0,0,0,0,0,0,0,0,0,0,0,0,0],"id":66,"left_children":[1,3,5,7,9,11,13,-1,-1,-1,-1,-1,-1,-1,-1],"loss_changes":[4.7519488E8,8.991283E7,1.7975184E8,6.615989E7,1.07575464E8,1.3434629E8,8.782464E7,0E0,0E0,0E0,0E0,0E0,0E0,0E0,0E0],"parents":[2147483647,0,0,1,1,2,2,3,3,4,4,5,5,6,6],"right_children":[2,4,6,8,10,12,14,-1,-1,-1,-1,-1,-1,-1,-1],"split_conditions":[1.9267745E-1,4.2856555E-3,4.2856555E-3,1.0813122E-1,-8.0827117E-1,2.7118917E0,2.8179266E0,-3.0966608E1,-1.084175E2,-4.896228E1,2.5307312E0,-1.708516E1,1.7463118E2,6.448239E1,1.610351E2],"split_indices":[5,21,21,13,5,17,5,0,0,0,0,0,0,0,0],"split_type":[0,0,0,0,0,0,0,0,0,0,0,0,0,0,0],"sum_hessian":[1.335E3,9.67E2,3.68E2,2.45E2,7.22E2,1.14E2,2.54E2,2.14E2,3.1E1,1.21E2,6.01E2,1.05E2,9E0,2.28E2,2.6E1],"tree_param":{"num_deleted":"0","num_feature":"44","num_nodes":"15","size_leaf_vector":"1"}},{"base_weights":[-4.103593E1,-1.9012032E2,2.015469E3,-2.2470697E2,4.623176E3,2.5019512E3,-1.3957021E3,-1.0148444E1,-3.4645395E2,2.6426633E2,7.685491E1,1.5571503E1,1.6134673E2,-1.5748463E2,1.5355217E1],"categories":[],"categories_nodes":[],"categories_segments":[],"categories_sizes":[],"default_left":[0,0,0,0,0,0,0,0,0,0,0,0,0,0,0],"id":67,"left_children":[1,3,5,7,9,11,13,-1,-1,-1,-1,-1,-1,-1,-1],"loss_changes":[4.127505E8,2.0996594E8,1.5450413E8,1.8033178E8,1.0266976E7,1.260423E8,3.680777E7,0E0,0E0,0E0,0E0,0E0,0E0,0E0,0E0],"parents":[2147483647,0,0,1,1,2,2,3,3,4,4,5,5,6,6],"right_children":[2,4,6,8,10,12,14,-1,-1,-1,-1,-1,-1,-1,-1],"split_conditions":[1.6560237E0,2.2757902E0,3.7121317E0,2.3777158E0,4.5517817E-1,7.450305E-1,1.1102157E0,-1.0148444E1,-3.4645395E2,2.6426633E2,7.685491E1,1.5571503E1,1.6134673E2,-1.5748463E2,1.5355217E1],"split_indices":[20,4,8,10,35,19,6,0,0,0,0,0,0,0,0],"split_type":[0,0,0,0,0,0,0,0,0,0,0,0,0,0,0],"sum_hessian":[1.344E3,1.254E3,9E1,1.246E3,8E0,7.9E1,1.1E1,1.243E3,3E0,6E0,2E0,2E1,5.9E1,5E0,6E0],"tree_param":{"num_deleted":"0","num_feature":"44","num_nodes":"15","size_leaf_vector":"1"}},{"base_weights":[-4.483964E1,-3.9379718E2,6.032137E2,-1.6904612E3,-2.6379688E2,5.1722754E2,4.4896562E3,-6.760876E1,-1.8293797E2,-2.0874466E1,4.1364426E1,2.8351316E1,-1.389677E2,2.6062622E2,1.0511114E2],"categories":[],"categories_nodes":[],"categories_segments":[],"categories_sizes":[],"default_left":[0,0,0,0,0,0,0,0,0,0,0,0,0,0,0],"id":68,"left_children":[1,3,5,7,9,11,13,-1,-1,-1,-1,-1,-1,-1,-1],"loss_changes":[3.0236474E8,1.4603854E8,1.5407418E8,4.7654704E7,1.3298944E8,7.692801E7,6.300096E6,0E0,0E0,0E0,0E0,0E0,0E0,0E0,0E0],"parents":[2147483647,0,0,1,1,2,2,3,3,4,4,5,5,6,6],"right_children":[2,4,6,8,10,12,14,-1,-1,-1,-1,-1,-1,-1,-1],"split_conditions":[1.2183822E0,-1.1947939E0,2.9421554E0,2.3281777E0,1.4551555E0,2.8121278E0,3.0011451E0,-6.760876E1,-1.8293797E2,-2.0874466E1,4.1364426E1,2.8351316E1,-1.389677E2,2.6062622E2,1.0511114E2],"split_indices":[22,3,17,13,6,11,18,0,0,0,0,0,0,0,0],"split_type":[0,0,0,0,0,0,0,0,0,0,0,0,0,0,0],"sum_hessian":[1.335E3,8.68E2,4.67E2,7.8E1,7.9E2,4.58E2,9E0,6.8E1,1E1,6.93E2,9.7E1,4.52E2,6E0,6E0,3E0],"tree_param":{"num_deleted":"0","num_feature":"44","num_nodes":"15","size_leaf_vector":"1"}},{"base_weights":[5.061499E1,-1.772686E2,1.2632343E3,-2.3093134E2,2.28966E3,-1.0700881E3,1.6710292E3,-8.793612E0,-1.094422E2,6.556246E1,2.8726852E2,-9.434076E1,1.8588005E2,8.927641E1,-1.9066557E2],"categories":[],"categories_nodes":[],"categories_segments":[],"categories_sizes":[],"default_left":[0,0,0,0,0,0,0,0,0,0,0,0,0,0,0],"id":69,"left_children":[1,3,5,7,9,11,13,-1,-1,-1,-1,-1,-1,-1,-1],"loss_changes":[3.685799E8,1.491939E8,2.025582E8,1.1819606E8,7.361284E7,1.32141944E8,1.1984006E8,0E0,0E0,0E0,0E0,0E0,0E0,0E0,0E0],"parents":[2147483647,0,0,1,1,2,2,3,3,4,4,5,5,6,6],"right_children":[2,4,6,8,10,12,14,-1,-1,-1,-1,-1,-1,-1,-1],"split_conditions":[9.4899124E-1,2.2303603E0,-1.1947939E0,1.1669809E0,-1.9856593E-1,3.3869514E0,1.1135275E0,-8.793612E0,-1.094422E2,6.556246E1,2.8726852E2,-9.434076E1,1.8588005E2,8.927641E1,-1.9066557E2],"split_indices":[5,3,3,13,10,15,43,0,0,0,0,0,0,0,0],"split_type":[0,0,0,0,0,0,0,0,0,0,0,0,0,0,0],"sum_hessian":[1.332E3,1.122E3,2.1E2,1.099E3,2.3E1,3.1E1,1.79E2,1.07E3,2.9E1,1.9E1,4E0,2.7E1,4E0,1.76E2,3E0],"tree_param":{"num_deleted":"0","num_feature":"44","num_nodes":"15","size_leaf_vector":"1"}},{"base_weights":[2.2768938E1,-1.26099106E2,1.9036897E3,-1.6717719E2,2.6970366E3,1.5812046E3,4.952851E3,-3.4063126E1,-8.832637E-1,1.8879723E2,-4.5051436E0,6.3711628E1,1.9701277E2,-5.3609863E1,2.9200034E2],"categories":[],"categories_nodes":[],"categories_segments":[],"categories_sizes":[],"default_left":[0,0,0,0,0,0,0,0,0,0,0,0,0,0,0],"id":70,"left_children":[1,3,5,7,9,11,13,-1,-1,-1,-1,-1,-1,-1,-1],"loss_changes":[3.7797216E8,1.455281E8,8.951616E7,9.483552E7,5.446741E7,6.0877984E7,5.436803E7,0E0,0E0,0E0,0E0,0E0,0E0,0E0,0E0],"parents":[2147483647,0,0,1,1,2,2,3,3,4,4,5,5,6,6],"right_children":[2,4,6,8,10,12,14,-1,-1,-1,-1,-1,-1,-1,-1],"split_conditions":[1.2096369E0,3.488338E0,4.3220315E0,-7.335735E-1,3.0011451E0,2.4276314E0,1.1261581E0,-3.4063126E1,-8.832637E-1,1.8879723E2,-4.5051436E0,6.3711628E1,1.9701277E2,-5.3609863E1,2.9200034E2],"split_indices":[4,5,4,5,18,5,19,0,0,0,0,0,0,0,0],"split_type":[0,0,0,0,0,0,0,0,0,0,0,0,0,0,0],"sum_hessian":[1.348E3,1.25E3,9.8E1,1.233E3,1.7E1,9E1,8E0,2.77E2,9.56E2,1.2E1,5E0,8.1E1,9E0,1E0,7E0],"tree_param":{"num_deleted":"0","num_feature":"44","num_nodes":"15","size_leaf_vector":"1"}},{"base_weights":[3.7218494E1,-2.1147113E2,7.601126E2,-8.345943E2,-7.967616E1,1.1385323E3,-5.8679794E1,-5.4977314E1,-2.8607239E1,-2.5713003E1,4.5034385E0,1.637806E1,1.1800659E2,2.371386E1,-1.6097221E2],"categories":[],"categories_nodes":[],"categories_segments":[],"categories_sizes":[],"default_left":[0,0,0,0,0,0,0,0,0,0,0,0,0,0,0],"id":71,"left_children":[1,3,5,7,9,11,13,-1,-1,-1,-1,-1,-1,-1,-1],"loss_changes":[2.4231938E8,8.230438E7,1.0696406E8,1.1539792E7,6.120033E7,2.330278E8,1.8682757E8,0E0,0E0,0E0,0E0,0E0,0E0,0E0,0E0],"parents":[2147483647,0,0,1,1,2,2,3,3,4,4,5,5,6,6],"right_children":[2,4,6,8,10,12,14,-1,-1,-1,-1,-1,-1,-1,-1],"split_conditions":[3.85596E-1,-7.9997975E-1,1.4011967E0,-8.719482E-1,4.2856555E-3,6.8477786E-1,1.0611743E0,-5.4977314E1,-2.8607239E1,-2.5713003E1,4.5034385E0,1.637806E1,1.1800659E2,2.371386E1,-1.6097221E2],"split_indices":[20,5,8,20,21,19,28,0,0,0,0,0,0,0,0],"split_type":[0,0,0,0,0,0,0,0,0,0,0,0,0,0,0],"sum_hessian":[1.346E3,1.002E3,3.44E2,1.74E2,8.28E2,2.35E2,1.09E2,8.5E1,8.9E1,2.32E2,5.96E2,1.42E2,9.3E1,9.4E1,1.5E1],"tree_param":{"num_deleted":"0","num_feature":"44","num_nodes":"15","size_leaf_vector":"1"}},{"base_weights":[2.1769913E1,-1.447242E2,1.5263585E3,-3.7021808E2,3.4432944E2,1.2430496E3,3.634336E2,-1.3369158E1,-7.5868225E1,1.0588799E1,1.4881346E2,5.4001904E1,2.5022612E2],"categories":[],"categories_nodes":[],"categories_segments":[],"categories_sizes":[],"default_left":[0,0,0,0,0,0,0,0,0,0,0,0,0],"id":72,"left_children":[1,3,5,7,9,11,-1,-1,-1,-1,-1,-1,-1],"loss_changes":[3.3188966E8,1.3168985E8,2.0570874E8,9.5973096E7,1.3089474E8,7.246669E7,0E0,0E0,0E0,0E0,0E0,0E0,0E0],"parents":[2147483647,0,0,1,1,2,2,3,3,4,4,5,5],"right_children":[2,4,6,8,10,12,-1,-1,-1,-1,-1,-1,-1],"split_conditions":[8.5483795E-1,1.2183822E0,3.322556E0,1.0916933E0,1.4551555E0,2.601412E0,3.634336E2,-1.3369158E1,-7.5868225E1,1.0588799E1,1.4881346E2,5.4001904E1,2.5022612E2],"split_indices":[4,22,20,19,6,9,0,0,0,0,0,0,0],"split_type":[0,0,0,0,0,0,0,0,0,0,0,0,0],"sum_hessian":[1.323E3,1.192E3,1.31E2,8.16E2,3.76E2,1.26E2,5E0,7.5E2,6.6E1,3.59E2,1.7E1,1.22E2,4E0],"tree_param":{"num_deleted":"0","num_feature":"44","num_nodes":"13","size_leaf_vector":"1"}},{"base_weights":[2.932241E1,-4.178515E1,2.7714617E3,-1.0095396E2,2.1173652E3,4.371737E3,2.8739273E2,-9.028145E1,-1.688373E0,-2.5958944E1,1.5436441E2,2.636067E1,2.509585E2,-7.367972E1,1.875944E2],"categories":[],"categories_nodes":[],"categories_segments":[],"categories_sizes":[],"default_left":[0,0,0,0,0,0,0,0,0,0,0,0,0,0,0],"id":73,"left_children":[1,3,5,7,9,11,13,-1,-1,-1,-1,-1,-1,-1,-1],"loss_changes":[2.5457363E8,1.6284504E8,1.2992499E8,1.4195765E8,8.854918E7,4.713523E7,9.09418E7,0E0,0E0,0E0,0E0,0E0,0E0,0E0,0E0],"parents":[2147483647,0,0,1,1,2,2,3,3,4,4,5,5,6,6],"right_children":[2,4,6,8,10,12,14,-1,-1,-1,-1,-1,-1,-1,-1],"split_conditions":[1.9719278E0,2.7108507E0,7.435344E-1,-1.6112843E0,-1.6171461E0,-5.6094248E-2,1.245092E0,-9.028145E1,-1.688373E0,-2.5958944E1,1.5436441E2,2.636067E1,2.509585E2,-7.367972E1,1.875944E2],"split_indices":[4,20,15,3,43,11,18,0,0,0,0,0,0,0,0],"split_type":[0,0,0,0,0,0,0,0,0,0,0,0,0,0,0],"sum_hessian":[1.304E3,1.272E3,3.2E1,1.239E3,3.3E1,1.9E1,1.3E1,4.6E1,1.193E3,9E0,2.4E1,3E0,1.6E1,9E0,4E0],"tree_param":{"num_deleted":"0","num_feature":"44","num_nodes":"15","size_leaf_vector":"1"}},{"base_weights":[2.9358913E1,-9.941065E1,1.6393252E3,-6.666623E1,-4.19562E3,3.4027283E3,8.462996E2,-1.3190249E1,2.2062716E1,-5.5490578E1,-2.6797824E2,1.3498985E2,3.7362827E2,-1.3833933E1,1.861864E2],"categories":[],"categories_nodes":[],"categories_segments":[],"categories_sizes":[],"default_left":[0,0,0,0,0,0,0,0,0,0,0,0,0,0,0],"id":74,"left_children":[1,3,5,7,9,11,13,-1,-1,-1,-1,-1,-1,-1,-1],"loss_changes":[2.8273283E8,1.6912397E8,1.3836106E8,1.2568045E8,2.9968992E7,6.851091E7,2.3045184E8,0E0,0E0,0E0,0E0,0E0,0E0,0E0,0E0],"parents":[2147483647,0,0,1,1,2,2,3,3,4,4,5,5,6,6],"right_children":[2,4,6,8,10,12,14,-1,-1,-1,-1,-1,-1,-1,-1],"split_conditions":[1.6560237E0,2.4554796E0,1.0036057E0,-2.1143167E-3,-1.9568425E-1,2.7318487E0,2.6898177E0,-1.3190249E1,2.2062716E1,-5.5490578E1,-2.6797824E2,1.3498985E2,3.7362827E2,-1.3833933E1,1.861864E2],"split_indices":[20,13,17,20,1,10,19,0,0,0,0,0,0,0,0],"split_type":[0,0,0,0,0,0,0,0,0,0,0,0,0,0,0],"sum_hessian":[1.362E3,1.262E3,1E2,1.253E3,9E0,3E1,7E1,9.03E2,3.5E2,3E0,6E0,2.7E1,3E0,5.1E1,1.9E1],"tree_param":{"num_deleted":"0","num_feature":"44","num_nodes":"15","size_leaf_vector":"1"}},{"base_weights":[-2.5550783E1,-2.4799731E2,5.732255E2,-5.0316037E2,5.1945126E1,1.239661E3,2.993094E1,-1.9250053E1,-7.3638756E1,-2.6855347E1,1.314624E1,5.0537853E1,1.8018283E2,-6.912444E1,3.9760616E1],"categories":[],"categories_nodes":[],"categories_segments":[],"categories_sizes":[],"default_left":[0,0,0,0,0,0,0,0,0,0,0,0,0,0,0],"id":75,"left_children":[1,3,5,7,9,11,13,-1,-1,-1,-1,-1,-1,-1,-1],"loss_changes":[1.7849122E8,7.48001E7,1.313946E8,5.992541E7,5.6066324E7,8.456144E7,2.1835997E8,0E0,0E0,0E0,0E0,0E0,0E0,0E0,0E0],"parents":[2147483647,0,0,1,1,2,2,3,3,4,4,5,5,6,6],"right_children":[2,4,6,8,10,12,14,-1,-1,-1,-1,-1,-1,-1,-1],"split_conditions":[2.6995653E-1,2.1236101E-2,9.2980635E-1,2.0775603E-1,-7.5813234E-1,2.2757902E0,1.4860796E0,-1.9250053E1,-7.3638756E1,-2.6855347E1,1.314624E1,5.0537853E1,1.8018283E2,-6.912444E1,3.9760616E1],"split_indices":[20,4,8,8,20,4,14,0,0,0,0,0,0,0,0],"split_type":[0,0,0,0,0,0,0,0,0,0,0,0,0,0,0],"sum_hessian":[1.338E3,9.76E2,3.62E2,5.27E2,4.49E2,1.62E2,2E2,4.71E2,5.6E1,1.18E2,3.31E2,1.49E2,1.3E1,7E1,1.3E2],"tree_param":{"num_deleted":"0","num_feature":"44","num_nodes":"15","size_leaf_vector":"1"}},{"base_weights":[-3.3854702E-1,-1.3371138E2,1.2000195E3,-1.2094169E3,-3.7476234E1,3.4060579E3,7.599057E2,-5.103707E1,-2.2761836E2,-1.8616488E1,1.7370916E1,-3.0052343E1,2.0351964E2,3.1699314E1,2.5828113E2],"categories":[],"categories_nodes":[],"categories_segments":[],"categories_sizes":[],"default_left":[0,0,0,0,0,0,0,0,0,0,0,0,0,0,0],"id":76,"left_children":[1,3,5,7,9,11,13,-1,-1,-1,-1,-1,-1,-1,-1],"loss_changes":[2.1452787E8,1.24800616E8,1.2751341E8,5.7795744E7,1.4293205E8,6.1011776E7,5.9413556E7,0E0,0E0,0E0,0E0,0E0,0E0,0E0,0E0],"parents":[2147483647,0,0,1,1,2,2,3,3,4,4,5,5,6,6],"right_children":[2,4,6,8,10,12,14,-1,-1,-1,-1,-1,-1,-1,-1],"split_conditions":[9.1104376E-1,-1.1947939E0,-1.3468648E0,3.453671E0,-3.994509E-1,-1.4821458E-1,3.1757283E0,-5.103707E1,-2.2761836E2,-1.8616488E1,1.7370916E1,-3.0052343E1,2.0351964E2,3.1699314E1,2.5828113E2],"split_indices":[4,3,1,19,5,29,5,0,0,0,0,0,0,0,0],"split_type":[0,0,0,0,0,0,0,0,0,0,0,0,0,0,0],"sum_hessian":[1.338E3,1.205E3,1.33E2,9.8E1,1.107E3,2.1E1,1.12E2,9.4E1,4E0,5.92E2,5.15E2,3E0,1.8E1,1.1E2,2E0],"tree_param":{"num_deleted":"0","num_feature":"44","num_nodes":"15","size_leaf_vector":"1"}},{"base_weights":[4.37181E1,-9.424404E1,1.0615671E3,-3.1989008E2,2.5401662E2,1.69775E3,-6.7933496E2,-1.2866122E1,-8.626707E1,9.666141E0,1.3541675E2,-1.3212842E2,9.181827E1,7.044581E1,-8.680198E1],"categories":[],"categories_nodes":[],"categories_segments":[],"categories_sizes":[],"default_left":[0,0,0,0,0,0,0,0,0,0,0,0,0,0,0],"id":77,"left_children":[1,3,5,7,9,11,13,-1,-1,-1,-1,-1,-1,-1,-1],"loss_changes":[1.8588184E8,9.1709784E7,1.761434E8,6.1814544E7,6.784994E7,7.464234E7,9.7332504E7,0E0,0E0,0E0,0E0,0E0,0E0,0E0,0E0],"parents":[2147483647,0,0,1,1,2,2,3,3,4,4,5,5,6,6],"right_children":[2,4,6,8,10,12,14,-1,-1,-1,-1,-1,-1,-1,-1],"split_conditions":[1.1880237E0,1.0308576E-1,1.850514E0,1.969858E0,2.03805E0,-1.1200979E0,1.3793123E0,-1.2866122E1,-8.626707E1,9.666141E0,1.3541675E2,-1.3212842E2,9.181827E1,7.044581E1,-8.680198E1],"split_indices":[5,4,8,8,11,36,18,0,0,0,0,0,0,0,0],"split_type":[0,0,0,0,0,0,0,0,0,0,0,0,0,0,0],"sum_hessian":[1.322E3,1.165E3,1.57E2,7.07E2,4.58E2,1.15E2,4.2E1,6.78E2,2.9E1,4.48E2,1E1,3E0,1.12E2,1.4E1,2.8E1],"tree_param":{"num_deleted":"0","num_feature":"44","num_nodes":"15","size_leaf_vector":"1"}},{"base_weights":[3.012564E1,-2.0592334E2,6.937123E2,-2.5095473E2,1.5795206E3,5.594771E2,3.1012354E3,-4.7535423E1,-8.128209E0,1.2488561E2,1.3366025E1,-4.463222E0,5.0120495E1,2.620527E2,1.895384E1],"categories":[],"categories_nodes":[],"categories_segments":[],"categories_sizes":[],"default_left":[0,0,0,0,0,0,0,0,0,0,0,0,0,0,0],"id":78,"left_children":[1,3,5,7,9,11,13,-1,-1,-1,-1,-1,-1,-1,-1],"loss_changes":[2.0596642E8,7.838539E7,1.0976003E8,5.8418932E7,2.8248732E7,9.43399E7,1.0286189E8,0E0,0E0,0E0,0E0,0E0,0E0,0E0,0E0],"parents":[2147483647,0,0,1,1,2,2,3,3,4,4,5,5,6,6],"right_children":[2,4,6,8,10,12,14,-1,-1,-1,-1,-1,-1,-1,-1],"split_conditions":[2.4571279E-1,1.0866867E0,2.1229808E0,-8.656038E-1,3.224796E-1,-2.2430504E-3,3.6369596E-2,-4.7535423E1,-8.128209E0,1.2488561E2,1.3366025E1,-4.463222E0,5.0120495E1,2.620527E2,1.895384E1],"split_indices":[5,4,4,20,42,0,30,0,0,0,0,0,0,0,0],"split_type":[0,0,0,0,0,0,0,0,0,0,0,0,0,0,0],"sum_hessian":[1.313E3,9.69E2,3.44E2,9.46E2,2.3E1,3.27E2,1.7E1,1.05E2,8.41E2,1.3E1,1E1,1.33E2,1.94E2,9E0,8E0],"tree_param":{"num_deleted":"0","num_feature":"44","num_nodes":"15","size_leaf_vector":"1"}},{"base_weights":[-2.206451E1,-1.3468446E2,1.4554084E3,-1.9074705E3,-8.737678E1,6.5526855E2,2.5670093E3,-1.0811303E2,6.381263E1,7.609101E1,-6.0029926E0,9.667332E1,-5.035177E1,1.4546805E2,-5.779536E1],"categories":[],"categories_nodes":[],"categories_segments":[],"categories_sizes":[],"default_left":[0,0,0,0,0,0,0,0,0,0,0,0,0,0,0],"id":79,"left_children":[1,3,5,7,9,11,13,-1,-1,-1,-1,-1,-1,-1,-1],"loss_changes":[2.2083304E8,1.0324061E8,8.192493E7,2.8717376E7,6.340011E7,1.2093325E8,5.3070256E7,0E0,0E0,0E0,0E0,0E0,0E0,0E0,0E0],"parents":[2147483647,0,0,1,1,2,2,3,3,4,4,5,5,6,6],"right_children":[2,4,6,8,10,12,14,-1,-1,-1,-1,-1,-1,-1,-1],"split_conditions":[1.2096369E0,-1.912864E0,1.0150698E0,2.0218627E0,-1.7236018E0,4.5679712E-1,1.713539E0,-1.0811303E2,6.381263E1,7.609101E1,-6.0029926E0,9.667332E1,-5.035177E1,1.4546805E2,-5.779536E1],"split_indices":[4,3,11,15,4,10,39,0,0,0,0,0,0,0,0],"split_type":[0,0,0,0,0,0,0,0,0,0,0,0,0,0,0],"sum_hessian":[1.325E3,1.232E3,9.3E1,3.1E1,1.201E3,5.5E1,3.8E1,2.9E1,2E0,2.3E1,1.178E3,3.1E1,2.4E1,3.5E1,3E0],"tree_param":{"num_deleted":"0","num_feature":"44","num_nodes":"15","size_leaf_vector":"1"}},{"base_weights":[1.3124894E1,-2.8005352E1,4.932605E3,-8.6420235E1,2.177121E3,3.5467E2,2.6845217E3,-9.302024E-1,-6.784525E1,2.1732564E2,3.98124E1,1.581727E2,-4.726758E0],"categories":[],"categories_nodes":[],"categories_segments":[],"categories_sizes":[],"default_left":[0,0,0,0,0,0,0,0,0,0,0,0,0],"id":80,"left_children":[1,3,5,7,9,-1,11,-1,-1,-1,-1,-1,-1],"loss_changes":[2.684402E8,1.6970502E8,3.4391744E7,1.1051732E8,9.839134E7,0E0,9.615912E6,0E0,0E0,0E0,0E0,0E0,0E0],"parents":[2147483647,0,0,1,1,2,2,3,3,4,4,6,6],"right_children":[2,4,6,8,10,-1,12,-1,-1,-1,-1,-1,-1],"split_conditions":[3.540512E0,1.9719278E0,1.349248E0,1.850514E0,1.923758E-1,3.5467E2,1.5751345E0,-9.302024E-1,-6.784525E1,2.1732564E2,3.98124E1,1.581727E2,-4.726758E0],"split_indices":[20,4,9,8,6,0,6,0,0,0,0,0,0],"split_type":[0,0,0,0,0,0,0,0,0,0,0,0,0],"sum_hessian":[1.325E3,1.315E3,1E1,1.282E3,3.3E1,4E0,6E0,1.218E3,6.4E1,1.2E1,2.1E1,5E0,1E0],"tree_param":{"num_deleted":"0","num_feature":"44","num_nodes":"13","size_leaf_vector":"1"}},{"base_weights":[1.0137194E1,-9.3235634E1,1.3064135E3,-9.806011E2,-3.382879E0,8.2238824E2,3.735643E3,-3.4267197E1,-1.3038106E2,-1.6656599E1,1.52346525E1,-4.436442E1,5.9106922E1,3.897573E2,1.299459E2],"categories":[],"categories_nodes":[],"categories_segments":[],"categories_sizes":[],"default_left":[0,0,0,0,0,0,0,0,0,0,0,0,0,0,0],"id":81,"left_children":[1,3,5,7,9,11,13,-1,-1,-1,-1,-1,-1,-1,-1],"loss_changes":[1.7780547E8,9.798759E7,1.1215706E8,5.249687E7,1.1357502E8,5.2098584E7,5.3573664E7,0E0,0E0,0E0,0E0,0E0,0E0,0E0,0E0],"parents":[2147483647,0,0,1,1,2,2,3,3,4,4,5,5,6,6],"right_children":[2,4,6,8,10,12,14,-1,-1,-1,-1,-1,-1,-1,-1],"split_conditions":[1.0866867E0,-1.1399224E0,2.03805E0,2.1680527E0,-5.076131E-1,-9.0942755E-2,5.802403E-2,-3.4267197E1,-1.3038106E2,-1.6656599E1,1.52346525E1,-4.436442E1,5.9106922E1,3.897573E2,1.299459E2],"split_indices":[4,3,11,19,5,28,23,0,0,0,0,0,0,0,0],"split_type":[0,0,0,0,0,0,0,0,0,0,0,0,0,0,0],"sum_hessian":[1.325E3,1.228E3,9.7E1,1.12E2,1.116E3,8.2E1,1.5E1,9.6E1,1.6E1,5.39E2,5.77E2,1.4E1,6.8E1,2E0,1.3E1],"tree_param":{"num_deleted":"0","num_feature":"44","num_nodes":"15","size_leaf_vector":"1"}},{"base_weights":[1.647271E1,-2.438343E1,2.6168625E3,-3.809266E2,2.2681755E2,1.7025364E3,3.7676535E2,-1.0663094E1,-7.7695946E1,-1.13320805E-1,3.932378E1,9.9829956E1,-8.976485E1],"categories":[],"categories_nodes":[],"categories_segments":[],"categories_sizes":[],"default_left":[0,0,0,0,0,0,0,0,0,0,0,0,0],"id":82,"left_children":[1,3,5,7,9,11,-1,-1,-1,-1,-1,-1,-1],"loss_changes":[1.4423405E8,1.19833464E8,8.160918E7,1.0842684E8,1.006456E8,2.3127564E7,0E0,0E0,0E0,0E0,0E0,0E0,0E0],"parents":[2147483647,0,0,1,1,2,2,3,3,4,4,5,5],"right_children":[2,4,6,8,10,12,-1,-1,-1,-1,-1,-1,-1],"split_conditions":[3.322556E0,-2.2671165E-1,6.963862E-1,1.0916933E0,3.0682407E-2,5.8217907E-1,3.7676535E2,-1.0663094E1,-7.7695946E1,-1.13320805E-1,3.932378E1,9.9829956E1,-8.976485E1],"split_indices":[20,3,3,19,20,25,0,0,0,0,0,0,0],"split_type":[0,0,0,0,0,0,0,0,0,0,0,0,0],"sum_hessian":[1.356E3,1.336E3,2E1,5.52E2,7.84E2,1.8E1,2E0,4.84E2,6.8E1,5.57E2,2.27E2,1.7E1,1E0],"tree_param":{"num_deleted":"0","num_feature":"44","num_nodes":"13","size_leaf_vector":"1"}},{"base_weights":[2.963547E1,-1.0068171E2,1.1748899E3,-5.242699E2,6.3543526E1,1.6350282E3,-1.7425276E2,-5.8213074E1,-2.1117598E1,7.6577096E0,-5.277497E1,-2.3709293E1,1.043632E2,8.9863945E1,-5.0083015E1],"categories":[],"categories_nodes":[],"categories_segments":[],"categories_sizes":[],"default_left":[0,0,0,0,0,0,0,0,0,0,0,0,0,0,0],"id":83,"left_children":[1,3,5,7,9,11,13,-1,-1,-1,-1,-1,-1,-1,-1],"loss_changes":[2.0160083E8,8.4414296E7,8.595424E7,2.1620096E7,8.790506E7,9.923754E7,6.052563E7,0E0,0E0,0E0,0E0,0E0,0E0,0E0,0E0],"parents":[2147483647,0,0,1,1,2,2,3,3,4,4,5,5,6,6],"right_children":[2,4,6,8,10,12,14,-1,-1,-1,-1,-1,-1,-1,-1],"split_conditions":[1.3329372E0,-6.999596E-1,6.768931E-1,-8.7923396E-1,1.0627385E0,-2.0397594E0,-1.7236018E0,-5.8213074E1,-2.1117598E1,7.6577096E0,-5.277497E1,-2.3709293E1,1.043632E2,8.9863945E1,-5.0083015E1],"split_indices":[5,5,35,5,13,4,4,0,0,0,0,0,0,0,0],"split_type":[0,0,0,0,0,0,0,0,0,0,0,0,0,0,0],"sum_hessian":[1.349E3,1.212E3,1.37E2,3.38E2,8.74E2,1.02E2,3.5E1,4.5E1,2.93E2,8.1E2,6.4E1,1.8E1,8.4E1,1E1,2.5E1],"tree_param":{"num_deleted":"0","num_feature":"44","num_nodes":"15","size_leaf_vector":"1"}},{"base_weights":[-5.3919323E1,-1.029696E2,2.7208318E3,-7.7099396E1,-3.8053398E3,3.5847385E3,-1.1061797E3,-9.302568E0,3.029069E1,-2.3659668E2,-1.8742058E1,2.3183267E2,2.664069E1,-1.256474E2,3.3465755E1],"categories":[],"categories_nodes":[],"categories_segments":[],"categories_sizes":[],"default_left":[0,0,0,0,0,0,0,0,0,0,0,0,0,0,0],"id":84,"left_children":[1,3,5,7,9,11,13,-1,-1,-1,-1,-1,-1,-1,-1],"loss_changes":[1.8020741E8,1.2422201E8,8.000752E7,9.624363E7,2.68344E7,5.852645E7,1.4170502E7,0E0,0E0,0E0,0E0,0E0,0E0,0E0,0E0],"parents":[2147483647,0,0,1,1,2,2,3,3,4,4,5,5,6,6],"right_children":[2,4,6,8,10,12,14,-1,-1,-1,-1,-1,-1,-1,-1],"split_conditions":[3.396345E0,3.297427E0,2.0625007E0,1.0502261E0,1.5884196E0,3.0011451E0,2.198837E0,-9.302568E0,3.029069E1,-2.3659668E2,-1.8742058E1,2.3183267E2,2.664069E1,-1.256474E2,3.3465755E1],"split_indices":[20,10,9,6,41,18,9,0,0,0,0,0,0,0,0],"split_type":[0,0,0,0,0,0,0,0,0,0,0,0,0,0,0],"sum_hessian":[1.321E3,1.299E3,2.2E1,1.291E3,8E0,1.8E1,4E0,1.114E3,1.77E2,6E0,2E0,1.3E1,5E0,2E0,2E0],"tree_param":{"num_deleted":"0","num_feature":"44","num_nodes":"15","size_leaf_vector":"1"}},{"base_weights":[2.0697498E1,-1.3581535E2,1.01681195E3,-4.505715E2,9.126353E1,-3.399673E3,1.1906409E3,-1.6635971E1,-8.797831E1,-1.6335682E1,1.771045E1,-3.1918594E1,-3.4343088E2,1.6119596E1,9.293219E1],"categories":[],"categories_nodes":[],"categories_segments":[],"categories_sizes":[],"default_left":[0,0,0,0,0,0,0,0,0,0,0,0,0,0,0],"id":85,"left_children":[1,3,5,7,9,11,13,-1,-1,-1,-1,-1,-1,-1,-1],"loss_changes":[2.0437328E8,8.1021704E7,1.407007E8,7.2691736E7,7.254325E7,6.266687E7,9.915955E7,0E0,0E0,0E0,0E0,0E0,0E0,0E0,0E0],"parents":[2147483647,0,0,1,1,2,2,3,3,4,4,5,5,6,6],"right_children":[2,4,6,8,10,12,14,-1,-1,-1,-1,-1,-1,-1,-1],"split_conditions":[1.1880237E0,-1.9963066E-1,-1.4568385E0,1.0513667E0,-6.3646656E-1,1.7613282E0,-2.2430504E-3,-1.6635971E1,-8.797831E1,-1.6335682E1,1.771045E1,-3.1918594E1,-3.4343088E2,1.6119596E1,9.293219E1],"split_indices":[5,3,2,13,5,5,0,0,0,0,0,0,0,0,0],"split_type":[0,0,0,0,0,0,0,0,0,0,0,0,0,0,0],"sum_hessian":[1.309E3,1.132E3,1.77E2,4.74E2,6.58E2,6E0,1.71E2,4.36E2,3.8E1,2.54E2,4.04E2,4E0,2E0,7.5E1,9.6E1],"tree_param":{"num_deleted":"0","num_feature":"44","num_nodes":"15","size_leaf_vector":"1"}},{"base_weights":[-1.0307444E1,-9.500556E1,1.2242617E3,-8.198228E1,-2.7795822E2,1.3989893E3,-2.067218E2,-2.6430805E1,2.4745593E0,-1.3892354E2,7.928535E1],"categories":[],"categories_nodes":[],"categories_segments":[],"categories_sizes":[],"default_left":[0,0,0,0,0,0,0,0,0,0,0],"id":86,"left_children":[1,3,5,7,-1,9,-1,-1,-1,-1,-1],"loss_changes":[1.4169826E8,8.977678E7,8.7243144E7,7.43663E7,0E0,7.070632E7,0E0,0E0,0E0,0E0,0E0],"parents":[2147483647,0,0,1,1,2,2,3,3,5,5],"right_children":[2,4,6,8,-1,10,-1,-1,-1,-1,-1],